{"ego_encoder":{"weights":[-0.11388472,-0.042738125,0.16682953,0.24136975,-0.30573714,0.24651822,0.1390477,0.06297914,-0.060431894,0.004218406,-0.09821176,-0.09095686,-0.1619191,-0.23066957,-0.06728008,0.060104363,-0.30978382,-0.24657585,-0.099202216,-0.17367491,0.13278642,-0.08967254,0.08801763,0.3228228,0.10539615,0.09244608,-0.2087576,-0.24448557,0.2102021,0.18309763,0.017555038,0.3040886,-0.0100289425,-0.15474465,0.04692448,0.27451804,0.05746555,0.10413665,0.08579636,0.013207563,0.065191045,0.08031056,-0.14597015,-0.11896581,0.025239075,-0.21178195,0.17435089,-0.18248925,0.2623764,0.09309563,-0.21146227,0.26937476,0.15943897,-0.023923302,-0.090500146,0.046005175,-0.30790877,-0.039392997,0.23700215,0.1674819,0.025901847,0.016032202,0.2186774,0.22744907,0.01027385,-0.14863035,0.1054162,-0.44406056,-0.039883677,-0.065628044,-0.19163896,-0.28066012,0.14066955,-0.13707083,0.09825697,0.30819818,-0.19988686,0.029837245,0.1661026,0.07283562,-0.31443986,-0.004054839,-0.2594234,0.05688517,-0.15539436,-0.05911792,0.055446573,0.06561341,-0.07297511,-0.3184684,-0.2589328,0.00052726513,-0.33544904,-0.044473726,-0.03543048,0.0036421707,-0.12697901,0.2539771,0.04941355,0.14377289,0.1759755,-0.26667857,-0.14168732,0.14781244,0.033506814,-0.09908768,-0.28514275,-0.0045043267,0.057947,0.17907357,-0.10529109,0.021244245,-0.012289975,-0.33124676,0.05451569,0.08145549,0.098798916,0.05587766,-0.29276446,-0.2410426,-0.32432008,0.15883477,-0.335672,-0.12909403,-0.051084854,-0.05036259,0.17288767,-0.22209063,-0.0032119593,0.28042993,-0.0032811048,0.32618418,-0.1331522,-0.10371144,0.16516738,0.23136324,0.033491686,0.10715032,-0.088320695,-0.021427747,-0.30319288,-0.17396252,-0.059213698,-0.25379074,-0.02223185,0.3960304,-0.039555576,-0.20950368,-0.053444996,-0.30245176,-0.07430267,-0.22943002,0.17426798,0.16738217,0.0057561067,0.0052085584,-0.1898807,-0.060779303,-0.108086474,0.016868949,-0.07596136,-0.19716218,0.0717362,0.015649771,0.046494428,-0.06858818,0.16111526,-0.16869235,-0.15734352,-0.19690223,-0.027072882,0.008343273,0.23981744,0.24986221,-0.2937228,0.09967758,0.11045635,-0.13608319,0.014473015,-0.25468183,0.17848638,0.09892872,-0.2481903,0.2766545,0.10157035,0.14226308,-0.176309,0.14690423,-0.05222693,0.018246667,-0.04053149,0.24826516,-0.18552993,-0.018149517,0.18470705,0.037663195,0.21650201,0.23189095,0.37082005,-0.10077361,0.16014153,0.107447974,-0.10820475,-0.03499156,0.3547949,-0.23535076,0.056368757,-0.1999752,0.08302566,-0.060143095,-0.087131076,-0.35395822,-0.27671576,-0.2579835,0.1983542,-0.033076372,-0.12218792,-0.19868861,0.20503946,-0.04471884,0.02646188,0.06151936,0.19350861,-0.03293851,0.24792089,-0.10978417,-0.007232373,-0.011840397,-0.313261,0.2511872,0.039679796,-0.27903584,-0.2044742,-0.23796079,0.054730553,0.030493403,-0.027719352,0.12373487,-0.2305944,0.08123184,-0.14109395,0.048571505,0.24507466,-0.10608524,0.18158709,-0.38304996,-0.37044832,-0.26494926,0.021123977,0.10077842,0.09755246,-0.15425326,-0.09183615,-0.20541732,-0.060047455,-0.04049373,0.027974151,-0.18097685,-0.1450333,0.2962997,0.20795353,-0.2791897,-0.04018183,-0.35858566,0.0537983,-0.03618429,-0.06782031,-0.06702392,0.31800064,-0.21339136,-0.034147713,-0.23578593,0.1272975,-0.10836723,-0.2665656,-0.24038963,-0.2465456,-0.19390677,-0.11261034,-0.0109838005,0.1962985,0.2911723,0.11820359,-0.016463537,-0.27788016,-0.089883626,-0.14739753,0.11103097,-0.15566613,-0.08138848,0.29808894,0.220872,-0.06763471,0.008118525,-0.07556762,0.09632867,-0.10501977,0.15268375,0.05054467,-0.2941243,-0.12908255,-0.019944217,-0.0191499,0.19149894,-0.0010556153,0.34262058,-0.20912512,0.18481438,-0.16823211,0.08197057,-0.15097749,0.3067428,0.078886874,-0.29851985,0.1163936,0.07890818,0.10320811,0.11535875,-0.19657786,0.24590825,0.046833668,-0.16409111,-0.017902175,-0.095856115,0.24366881,-0.10234505,0.20690951,-0.08423462,-0.09496001,-0.19138491,-0.27705976,0.16021374,-0.00039262584,0.08677232,0.22320156,-0.27076358,-0.034870885,-0.13636772,-0.24007663,0.16077235,-0.14554694,0.23527637,0.2877929,0.36979038,-0.004221009,-0.03758414,-0.17377262,0.061577532,0.29885012,-0.2018422,-0.19626217,-0.25135064,-0.1591876,0.17109215,-0.18220319,-0.19808097,-0.050228823,0.20527095,-0.15523154,-0.34520596,0.09888371,-0.29929265,0.16573139,0.13322371,0.2240884,-0.26797786,-0.16161343,0.1286127,0.14283705,0.23439439,0.21668926,-0.12251061,0.06142343,-0.18019469,-0.05523767,0.20338313,0.07380299,-0.047179185,-0.03268278,-0.029231725,0.076426886,-0.13494393,-0.2845382,-0.26447162,-0.2592956,-0.068913735,0.017957596,0.22282656,0.07973988,-0.019800944,-0.0029136136,0.2795295,0.2552097,0.1800299,-0.15689301,0.3896284,0.18935661,-0.33050966,-0.2105072,0.27718368,0.1344513,0.02541664,-0.10031631,0.18219776,-0.20605457,-0.32902107,0.014170047,0.062306467,0.21448004,-0.019582849,-0.20040394,0.24255274,-0.37608215,0.16454265,0.083255045,-0.09292591,0.106768966,0.077830195,-0.318228,0.25274092,-0.022980588,0.042248473,0.15890002,0.012896238,-0.09348869,0.22830331,0.17941831,0.07885997,0.27107084,-0.077227004,0.03974266,0.14310837,-0.25329915,-0.072543934,-0.06996506,-0.09835851,0.16322173,-0.08643378,0.17319494,-0.24283443,-0.2690746,0.045664553,0.11173827,0.38168633,-0.34580904,-0.20402956,-0.28445897,0.09188508,0.005153856,-0.23585513,0.23944834,0.2710929,-0.04124566,-0.19019167,0.1042745,0.22367564,-0.16111617,-0.11329232,-0.22325993,0.12423084,-0.15991783,-0.12745415,-0.23239273,-0.07955782,-0.30319992,0.0724485,-0.037578017,-0.28749254,-0.32880652,0.28484502,0.04249869,0.049987923,-0.11657758,-0.13611333,-0.021710614,-0.15983042,0.2406556,0.14370005,-0.0041443356,0.10874593,-0.12801433,0.15075785,-0.06513639,0.06284843,0.04018601,0.15619777,0.034512065,0.24946049,-0.34774822,0.21126352,-0.10050869,0.19722812,-0.46782172,-0.1941813,-0.027202249,-0.054031502,-0.022544913,-0.21686774,-0.16966905,0.039978784,0.038350426,0.13378176,-0.07706459,0.10557733,0.032970674,0.16349497,-0.007760818,0.14006309,-0.31736195,0.02769794,-0.30751988,-0.021776317,0.10811166,0.03915561,0.2001956,0.05228661,-0.0117232045,-0.14966397,0.20060666,0.10706282,-0.06933352,0.031486183,0.26842806,-0.08795256,0.27471286,0.041210167,-0.24234246,-0.013409382,0.1289551,0.07462114,-0.07911625,0.20543171,0.2738085,-0.09734341,0.3444816,0.0612073,0.12039807,0.091076255,0.24583772,0.18849957,-0.06002266,0.13837625,-0.17442921,0.015022437,-0.32312787,-0.063469306,0.22403178,0.17737767,-0.047483075,-0.00018510633,-0.025046494,-0.08055551,-0.038840942,-0.16959961,0.24714954,-0.17792356,-0.17797692,0.1817814,-0.1515297,-0.28883114,0.22970921,0.21421397,0.14289853,0.008638823,0.10808152,-0.19730915,0.1051689,-0.38871983,-0.019164458,0.10323353,0.17236057,-0.12613124,0.060310353,0.1837665,-0.025085077,0.2927582,0.2041794,0.087465666,-0.14028418,0.304062,-0.17740373,-0.14453833,0.06812975,0.13583866,-0.110226706,0.07970168,0.18023127,0.02777459,0.004622166,0.11423621,0.27832305,0.21767294,0.050910763,-0.19627027,-0.037533335,0.028078679,-0.20765802,0.09325161,0.14455315,-0.08952266,0.05992222,0.24785021,0.21694577,-0.061433073,-0.009979535,-0.014040726,0.033435147,-0.11715975,-0.10777664,-0.327089,0.029474841,-0.060500868,-0.1749776,-0.14537464,0.17370464,0.15419419,0.23443104,0.20123191,-0.056959927,-0.17138678,0.14482641,-0.009705182,0.27681047,0.26995003,-0.2560916,0.30846858,0.22039287,0.11607371,0.13070974,-0.00758402,0.24728382,-0.017523384,0.08383124,-0.22209862,-0.15456353,0.16307582,-0.104162686,0.121906474,-0.07299949,0.16307253,0.10238495,-0.1983069,-0.14239675,-0.30305496,-0.23829404,-0.28760508,-0.04078293,0.11725073,0.107739985,0.13996087,0.18694755,0.045731638,0.034364216,-0.15067187,-0.016461799,-0.07880139,-0.018728785,0.2687194,0.13553977,0.17946735,0.24453656,0.17860137,0.2676906,0.047499936,-0.0968181,0.07210966,-0.053100754,-0.20785417,0.35027188,-0.33951038,0.083720125,0.3350576,-0.043944754,0.057164967,-0.028299198,0.049144633,0.1039329,0.24633019,-0.20953639,0.11605464,-0.012402217,0.1558038,0.102005765,0.053403374,-0.06670413,0.27704224,-0.21816924,-0.3716421,0.33505607,-0.20564821,-0.07514273,-0.010907804,-0.18889153,0.17787385,-0.20987557,-0.18604659,0.0776479,0.13388187,0.21230051,0.05060405,0.2835462,0.22486387,-0.18838874,0.12081484,-0.30713522,0.19595312,-0.27951896,0.23047207,0.14398025,-0.07351533,0.22645032,-0.14676371,-0.19575614,0.2122477,0.06328972,0.10366005,0.06884313,-0.08286424,0.081930384,-0.2681887,-0.11500779,-0.41991705,-0.45325673,-0.14954233,-0.25338516,0.13986793,-0.05664497,0.22947808,0.18918842,0.09388161,0.09889396,0.1722579,-0.31138065,-0.3203091,0.11747477,0.046862755,0.057876863,0.023350652,0.013447101,0.21323663,0.28924257,-0.2555538,0.12838845,-0.18285018,0.031883657,-0.25758278,0.037378706,0.2701475,-0.22833692,-0.4281085,-0.11321589,-0.029050704,-0.04198112,0.16052625,-0.15531045,-0.20142211,0.13029659,0.18765913,-0.20507154,0.06431128,-0.06516626,-0.31022856,-0.16930513,-0.059932694,-0.092710726,0.10002951,0.30454138,-0.24660213,-0.26513,-0.13669959,0.016151458,-0.19771619,-0.11052949,-0.27179724,0.28510943,-0.19576105,0.27527103,-0.09329898,-0.031493332,0.09585868,-0.3264665,-0.011213414,0.19583303,-0.3428892,-0.27099496,-0.038381472,0.15940072,-0.022873828,-0.086839266,-0.44212005,-0.14757335,-0.049399238,-0.10140205,0.07114058,-0.17800356,-0.16767691,-0.21055453,-0.17219247,0.042744115,-0.019122383,0.36995837,0.19353096,0.20107,-0.08981455,-0.14493427,-0.26700166,-0.090403266,0.18043244,-0.33691433,0.18226399,0.12093848,0.016959302,0.032388747,0.13158679,-0.23895688,0.119005196,0.13216382,0.3285675,-0.02566517,0.18512373,-0.07511247,-0.12751332,0.1583426,0.05293792,-0.087291405,0.09321405,0.06932332,-0.030286819,-0.2333848,-0.012251234,0.21629769,-0.06967922,0.2131886,0.030996665,-0.1424145,0.013171996,-0.19096626,0.1304417,0.036637343,0.012108808,-0.049120676,0.13100874,0.29187992,-0.25593337,-0.23743024,0.38939503,0.06342588,0.40245283,-0.23119296,0.1854717,-0.24627814,0.055676386,0.11746978,0.15077063,-0.021334128,0.15608828,-0.11409344,0.107766755,-0.011705383,0.18049134,0.05333578,0.1438519,-0.37190622,-0.15008518,0.08877704,-0.22811326,-0.06535648,-0.25462916,0.34067675,-0.052000873,0.3376354,0.11862789,-0.097927414,0.2161469,-0.05079487,-0.12095308,0.37967652,-0.24242233,0.020683305,-0.035904173,-0.021518195,0.22668731,-0.06905471,0.12618199,0.1882514,0.07232663,0.19603276,0.11735634,-0.052483927,0.0068689967,0.16299433,0.015052741,0.33954394,-0.1135207,-0.24028115,-0.13113979,-0.005238163,0.14839613,-0.28470108,-0.031600222,-0.11747594,-0.115004756,-0.026401537,-0.37573683,-0.18053675,0.25401232,0.21915013,0.24915606,-0.027854694,-0.12783046,0.12834388,0.27749705,-0.24590608,-0.13174655,-0.1143453,-0.001489051,-0.08059344,0.23757625,-0.18658222,-0.034557465,-0.32862842,-0.019454671,0.1760472,-0.32367405,-0.030224752,-0.032864876,-0.15233332,0.277661,0.13715951,0.11417176,0.15561779,-0.09159521,0.048721027,0.21296106,0.24230826,0.07408247,0.047368776,0.19383346,0.10655306,-0.13685817,-0.16326515,0.14281549,-0.21295586,0.1365726,0.2237665,0.097085744,-0.062236074,-0.22971271,-0.0541343,-0.27651262,-0.100572795,-0.19966325,0.23459476,-0.10280712,0.038110893,0.28923276,0.004892133,-0.16892609,0.26015836,-0.079569444,0.28071123,0.11970504,-0.14727016,-0.107318215,-0.22260758,0.17673966,0.13799964,-0.021860622,0.05384234,-0.22003587,0.025237696,0.09102018,0.2021584,0.11538898,0.22943252,-0.26257175,0.11841726,-0.07993661,-0.17597705,-0.07486856,-0.06972115,-0.009410175,-0.16482839,-0.14395992,0.0137872035,0.0015318448,0.20360497,-0.17370649,0.01332325,0.22226402,0.12706439,0.11398765,-0.34981072,-0.17087613,-0.07868864,0.09613925,0.089601845,-0.21173544,0.14790559,-0.10430801,0.33893058,-0.07554392,-0.020054549,-0.21820506,-0.09585667,0.07383005,0.2035687,-0.042196106,-0.083331734,0.30905974,0.14687449,0.011529684,-0.23227842,-0.0928324,0.0951115,-0.23641907,0.06463042,0.15951766,0.14427042,0.024632365,-0.021344446,0.16946267,-0.09082668,-0.06991674,0.29087648,-0.1812256,-0.0015887001,0.0741774,-0.040329058,0.35025576,0.11482126,0.34070623,0.17149661,0.17873178,0.031009596,-0.25591037,-0.117275886,0.034309614,0.08102465,-0.22620088,0.36282155,-0.029625047,-0.18984993,0.18988523,-0.021758907,0.2669679,0.015619459,-0.2015444,-0.142041,-0.075304806,0.08773062,0.13937955,-0.09642052,-0.13754018,-0.24437037,0.121314265,0.110112794,-0.27087024,-0.1178547,-0.117072836,-0.25632456,0.12872125,0.2850628,0.22278138,-0.28682876,-0.11385073,-0.24821413,-0.14354035,-0.026952019,-0.13951296,0.08562462,0.029114407,0.07455296,0.19518562,0.0060105873,-0.0892591,-0.009923756,-0.29897144,-0.018181335,-0.1798595,-0.07087616,-0.21181072,0.09271254,-0.17323431,-0.0052232207,-0.028665176,0.24390884,-0.1281724,-0.12492431,-0.2500006,0.23070621,0.12561576,-0.31535438,0.040613618,0.049755625,0.106544994,0.15987952,0.122925684,0.28294635,-0.13154192,-0.1253721,-0.12534088,-0.26471093,0.21140242,0.36795664,0.16142094,-0.2254263,-0.07528218,-0.07915905,-0.27647844,-0.17393112,-0.33131453,-0.08843327,0.014806612,-0.2392635,-0.19098108,0.09042699,0.049291857,0.21534859,-0.15712391,0.069829196,0.20500866,-0.07679337,0.016048897,-0.21497995,0.15799657,-0.20181794,-0.22691545,0.16398314,-0.11742097,0.093153186,-0.19486392,-0.24143602,0.18642399,-0.115659416,0.19282834,0.062010575,0.0023684425,-0.34919423,-0.00883566,-0.01239484,-0.17234427,-0.2874186,0.14773671,-0.33231613,0.018639734,-0.15764104,0.15102902,-0.033890285,0.11436067,0.09762638,0.2961259,0.13743718,0.19079159,0.18114097,-0.14338635,-0.122162506,0.12074244,0.104194514,-0.21734022,-0.22443284,0.00037302903,-0.04719041,-0.01975005,0.03954634,-0.060768146,-0.18910414,0.0048851282,-0.07130978,-0.0734084,-0.027957678,0.063373335,-0.24717811,-0.17206535,-0.16855098,-0.27146122,-0.19053946,-0.19529976,0.15705621,0.06643552,-0.12816705,-0.22933543,-0.06980276,-0.007118471,0.21520288,0.41058847,-0.15105128,-0.052381676,0.09586948,-0.10131794,0.3404838,-0.1856751,0.2250191,0.12684059,0.056693222,0.1462883,-0.27918747,0.11566692,0.04494801,0.16782703,-0.05699034,0.30485168,0.0317439,0.2778185,0.20824528,0.042065106,0.09308393,0.08281469,-0.10345493,0.061712883,0.31830153,0.06699276,0.1266446,-0.16757952,-0.16515034,0.34195462,0.018519357,-0.06508592,0.13265099,-0.024225613,0.28454277,0.10683915,0.2270048,0.29900032,0.054046355,-0.26429817,0.17240395,0.23674847,0.15540214,-0.19377829,-0.35591248,0.08331113,-0.048956715,0.21707357,-0.083181724,-0.027729128,-0.19072235,0.35761824,-0.21361117,-0.18923594,0.03749418,-0.014552269,0.30352303,-0.12178754,0.15160586,0.10817731,0.10706209,0.0023341905,-0.22658901,0.13824467,-0.111468025,0.2043647,-0.24211626,-0.13751574,0.08877424,0.12507161,0.09850001,0.1641531,0.04643541,-0.1961347,-0.010799378,-0.19568583,-0.06212258,0.100095734,0.20109816,-0.19721782,-0.013704301,-0.3475533,-0.0131854275,0.19839622,-0.38447347,0.08651651,0.20624901,0.06546377,-0.012226738,-0.17822188,0.15093064,-0.010225147,0.11918001,0.19797793,0.078101724,-0.14187633,-0.07614582,0.18941315,-0.33373854,0.21444395,0.2151871,-0.016772363,-0.07107625,-0.020241143,-0.3092729,-0.026383402,0.1457809,-0.017090058,-0.20290586,-0.0800987,0.22511145,0.17604502,-0.12492243,0.057378214,-0.22626889,0.18348384,-0.24138933,0.163695,-0.0044923634,0.19909394,-0.10276975,-0.2785943,-0.20499992,0.13692163,0.1434021,-0.0028003016,-0.11520258,0.23327139,0.02903987,0.26399463,0.1168586,-0.19692078,0.46183717,0.13074276,-0.20289722,0.1331932,0.10628769,-0.34389445,0.0731299,0.2336655,0.08757343,-0.010583662,0.020138854,-0.360064,0.14881259,0.22098073,0.1852321,-0.12477494,-0.103196055,0.2347792,0.20667659,0.10213168,-0.23655473,0.17531344,-0.1732875,-0.07388558,-0.18239506,-0.0030650406,0.09129141,0.30882004,-0.063628316,-0.031090014,-0.24759689,-0.23855732,-0.19563438,-0.27493,-0.02434695,-0.10360208,-0.19150841,-0.28323194,0.2291332,-0.17015488,-0.10113439,0.05579222,-0.15223797,-0.0130888345,0.16240606,0.055815782,-0.049877092,0.10388046,0.03716248,-0.049534764,-0.03771533,-0.26134714,-0.19260882,-0.021196762,0.059635036,-0.1241984,0.46465638,0.16754086,-0.020039031,-0.12263809,-0.10830679,0.19203176,0.22817083,-0.13361418,0.25495094,0.1870727,0.080242366,-0.08375422,0.06466067,0.2866047,-0.2730561,-0.30406642,-0.09018191,0.012850702,-0.056736536,0.03622375,0.16113085,-0.08947964,0.035717446,0.2383293,0.021647213,-0.40274698,0.0517511,0.06121935,-0.1936757,0.06845214,0.14001825,0.27227488,0.26928455,-0.01772572,0.07342597,0.19510141,0.06373097,-0.010160078,-0.1364845,0.14734639,-0.060587738,-0.22314966,-0.012112513,0.18786152,-0.423775,0.11335864,0.27394456,-0.2919704,0.20573731,0.033163115,0.17870103,0.119591475,-0.28522664,0.22562179,-0.21345375,-0.12938993,-0.019359443,-0.015736433,-0.19747497,-0.14929819,-0.12885365,-0.06740443,-0.010150188,-0.14200753,0.07137839,0.048251532,0.13630435,0.13965954,-0.45687056,0.072064884,0.069039166,0.20699164,0.08938934,0.020484513,-0.4035649,-0.105551586,0.17503905,-0.10591854,-0.19147624,0.2396846,0.116345994,0.22390814,0.25438562,-0.06760594,0.26554677,-0.1908852,-0.03491898,0.05504451,-0.03706245,0.1698702,0.12961367,0.09755325,0.2697177,0.16826174,-0.12604107,-0.12436408,-0.0769947,-0.25205845,-0.3310827,0.062326845,0.07815471,0.118755855,0.055904258,0.12831338,-0.1425441,0.019489957,0.15560934,-0.029034864,0.2090712,-0.097683676,0.11160961,-0.30786932,-0.25496244,0.06028263,-0.24321756,0.041805837,-0.04188664,-0.11091515,0.088060215,0.15131919,-0.20871261,-0.018113943,0.10142955,-0.15975007,0.3457834,0.02225228,0.04822154,0.0890741,0.21471578,0.2569118,-0.055460278,0.003715316,0.15435244,0.13257778,-0.19833392,-0.02465863,-0.106008746,-0.05067233,-0.11320714,-0.23756781,-0.20538028,-0.1841296,0.3071425,-0.056992337,0.21647198,-0.031579312,-0.16840824,0.16878054,0.13866849,-0.2055876,0.14902215,0.123364255,0.1912093,-0.26900157,-0.028122943,-0.013233088,-0.20607968,-0.22942798,0.25677457,0.21123077,0.22734691,-0.19191884,0.012342579,-0.16636387,0.044688996,0.10768419,0.039778333,-0.09193339,-0.17273358,0.055011466,-0.3386079,0.25567117,0.13768981,0.3412848,-0.10223806,0.082680926,0.25135618,0.1423407,-0.1526292,0.038548727,-0.25429955,0.0034431308,0.08012144,0.037651047,0.11870077,-0.20002721,0.28560394,-0.15919179,-0.05882748,-0.3354652,-0.22186561,0.16680928,0.059382375,0.058147036,-0.059547964,0.44031847,-0.33170745,0.28476453,-0.21570376,0.017796703,0.026159184,-0.22854047,-0.011197224,0.08580456,-0.03916967,-0.11734019,-0.019225646,-0.29033977,-0.069346294,-0.15869223,0.07284947,0.2627365,-0.14375596,-0.2589891,0.1138781,-0.06476257,-0.35716987,0.003290334,0.2174258,-0.4003524,-0.103773884,-0.019157385,0.39827234,-0.0130312,-0.054954957,-0.12747096],"biases":[0.037159722,-0.019026104,0.011096469,0.015888793,-0.031371918,-0.010023266,0.009521403,0.0026988003,0.02831879,0.018225659,0.004062414,-0.004888058,0.0072365594,0.039816715,0.01059336,0.011318045,0.022671795,0.05450776,0.055100437,0.005216524,0.03051224,0.06490349,0.018183734,0.041975733,0.0121094175,0.03124487,0.04344673,0.021459764,0.00878431,-0.0039938474,-0.019364178,0.0030283576,0.025192063,0.07463281,0.0330443,0.04896206,0.044473525,0.008012308,0.038598187,0.026486395,0.010368312,0.040635854,0.021768752,0.035995997,0.036289718,0.041670885,0.02132935,-0.0017559272,0.0067834137,0.030101784,-0.018447747,0.0056912806,0.031863846,-0.015608214,-0.011042949,-0.0029801764,0.0905738,0.02930215,0.044528835,0.024185507,0.03273007,0.026364354,-0.011807514,0.044485975],"in_dim":25,"out_dim":64,"relu":true},"entity_encoder":{"weights":[0.009077156,0.24596845,0.0915309,-0.12588839,0.23370582,-0.19419014,0.077158995,-0.05076266,-0.0026918147,-0.25974718,0.025339842,0.3342638,-0.061986405,-0.0803124,-0.2706867,-0.039871495,0.27101645,0.23161562,0.22408788,0.15685259,0.2547278,-0.24763592,-0.12064144,0.20659125,-0.04013606,0.0034175706,-0.09410314,-0.021356033,-0.19408755,0.2635785,0.19814266,-0.06509422,-0.04884129,0.21972218,-0.036734343,0.2594145,-0.2621847,0.07426458,0.19799884,0.017784087,0.17362867,-0.1484871,0.20114182,0.06715953,-0.10461917,0.030732315,-0.27270198,0.2750416,0.0123969,-0.0077421726,-0.2568976,0.2137823,-0.15381023,0.27599576,0.054093707,0.04355755,-0.22433761,0.112988375,0.15676498,-0.06712379,-0.019671923,-0.21067722,0.041875195,0.14854555,-0.30149195,0.23815136,0.27182558,0.21724786,-0.06738753,0.0367077,0.122287996,-0.025269985,0.002452632,0.06806978,0.03368241,-0.38298237,-0.2726017,0.14500085,-0.06556991,0.17768729,0.016590033,-0.010807379,-0.26983175,-0.22283205,-0.11402934,0.065971754,0.025661081,0.25679183,-0.21818326,0.31126133,0.13854353,-0.055114925,-0.18811466,0.06364158,0.06627453,-0.026344603,0.35951358,0.30468962,0.10975679,-0.076332085,-0.072371155,-0.14799492,0.15066344,-0.30466616,-0.093853265,-0.17015792,-0.33953542,0.1122886,0.11962585,0.2464637,0.30962482,0.2671156,0.0054064044,-0.27568585,-0.1451795,-0.073353246,-0.24297202,-0.22938453,-0.36307725,-0.22697382,-0.15406543,0.25015083,0.21415392,-0.20454305,0.2949204,-0.052829154,-0.28021953,0.21804623,0.1656256,0.018573748,-0.1483906,-0.011454034,-0.26450798,-0.16856064,0.21928835,0.2584358,0.05631505,-0.08192627,0.053734303,0.20628117,-0.3070717,-0.4086473,0.10986446,0.02502644,-0.23033215,-0.10597039,-0.019136025,-0.09568115,-0.28546718,-0.08901231,0.22852324,0.22348359,-0.16674782,0.045641772,-0.39473498,-0.23717833,-0.10509191,-0.14391631,0.14799239,0.28962064,-0.022318225,0.07696859,-0.06929717,-0.20126334,-0.21674746,-0.10651844,-0.12152337,-0.3136567,0.24538949,-0.11867433,0.23445769,-0.074835286,-0.02414787,0.030112544,-0.075118825,0.03366686,0.15391134,-0.18544582,0.1812602,-0.094650105,0.030848505,0.07939054,-0.28213876,-0.05710727,0.30803174,-0.21270128,0.15843378,-0.0801967,-0.15046978,0.14462073,-0.007443727,0.06671624,-0.20428929,-0.1448739,0.19480292,0.33674315,-0.108904436,0.07341332,-0.15208097,0.23808374,0.21336463,0.024027307,-0.2522562,0.12887608,0.07654282,0.29052705,-0.01579016,-0.0831535,0.19293258,-0.14743729,0.24128269,0.36531037,0.065337084,-0.2824952,-0.295938,0.024075283,0.19107641,-0.23057225,-0.08579573,0.17986818,0.05704354,0.037256557,-0.3143957,-0.21397236,0.120804295,-0.21313189,0.057909638,0.38583326,-0.012452751,-0.08327878,0.22737211,0.26904935,0.22498854,-0.0030681342,0.09866102,0.17064886,0.10535395,0.07099905,0.1422396,-0.0048428066,-0.2969624,-0.20670904,0.0055429474,-0.27323195,-0.2400838,0.13938019,-0.32450742,-0.11871161,0.22848928,0.1531095,0.16430373,-0.3114711,-0.059939772,-0.04504134,0.32580304,-0.2846614,-0.1732118,-0.045801077,-0.13414127,-0.001620614,-0.03416967,-0.07505731,0.015144154,0.0708964,0.26085418,-0.3158908,0.17631514,-0.15381931,-0.1850129,-0.32403618,0.085864104,-0.17151608,-0.23036776,-0.2841974,0.11214635,-0.16491571,0.0021994633,-0.11279506,-0.11067383,0.051660456,-0.16549128,0.11828056,-0.14937487,0.2574949,0.0025190942,-0.09537186,0.24200821,-0.050622296,-0.04014441,0.014402317,-0.16265988,-0.02249181,0.042838667,-0.20085366,-0.23721981,0.06505521,0.040828373,0.16805364,-0.23353072,0.07779834,-0.20701551,-0.22396849,-0.25369933,-0.22090684,-0.0046830107,0.31916142,-0.17178944,0.1262871,-0.18736154,-0.08972762,-0.23817852,-0.16522667,-0.13693695,-0.27717513,-0.039356403,-0.029009167,-0.30418918,0.072391406,0.048114106,-0.101482466,-0.09001354,-0.22436242,-0.22153568,-0.18730912,-0.052206352,0.042955775,0.11542623,0.077441074,0.13896304,0.008193961,0.121043645,-0.22252256,0.21168889,-0.00042250723,-0.09842952,-0.124255136,0.27258822,-0.28659055,0.0571069,-0.01829636,-0.12471116,-0.11725664,0.10061397,0.19887426,0.0065963017,-0.18964362,0.092040606,-0.05327119,0.076373756,0.12862113,0.036278244,0.002020898,-0.15357569,-0.0051914416,-0.11585427,-0.060515083,0.2025346,-0.067929864,0.2675814,0.23929417,-0.14122292,0.237445,-0.33794922,-0.07262732,-0.23433667,-0.022961712,0.3117388,-0.19568323,-0.080444835,-0.11656283,0.29211006,0.1483943,0.0178486,-0.25318548,0.12460232,0.07332861,0.06810029,0.0055501107,0.17034101,0.11263755,-0.06770422,0.075539745,0.21694772,0.27340207,0.1714978,0.11650482,0.20659894,0.08374086,0.09989636,-0.020570813,0.34236628,0.2844695,0.22603834,0.013181259,-0.14550897,-0.026539896,0.18061998,-0.017714584,0.22790745,0.19029602,-0.36312023,0.07693426,-0.29616544,0.11824519,-0.31485897,-0.12661766,-0.19689874,-0.031209089,-0.30025512,0.032291904,0.24562578,0.08010377,-0.052436274,0.19960828,-0.28829205,-0.0378426,-0.14089228,0.39580193,-0.19476394,-0.030167455,-0.22215237,0.19989009,0.028646808,0.034589678,0.025567442,-0.056224424,0.12997618,-0.11572992,-0.3696897,0.22823997,-0.14260434,0.2894647,0.3298849,0.05098826,0.08709627,-0.2848779,0.15655176,-0.14805324,0.066428415,0.014858779,-0.17814408,0.23858185,0.27191845,-0.30333152,-0.11387637,0.13545105,-0.015973624,0.14474982,-0.069466375,-0.39531937,0.2804693,0.28689715,-0.26041055,-0.17244293,0.26733416,0.007854838,0.13235542,0.01640057,-0.1408574,0.064340845,-0.29764366,-0.009164123,-0.19130045,-0.20672451,0.05784954,-0.03518369,0.06053784,0.06773934,0.3178635,-0.035354137,0.03880647,-0.03965457,-0.34847912,0.3241134,-0.12285781,-0.09767868,0.14218716,0.37281397,0.2281402,-0.28172842,0.2571554,0.23154014,-0.1926117,-0.0060315602,0.30606607,0.0907077,-0.41731998,0.0061198794,0.2896801,-0.39315355,0.29070786,-0.2612506,-0.13412729,0.13228612,0.19792083,-0.11989937,0.22160645,0.01003257,-0.2545559,0.22104836,-0.3241642,-0.07972961,-0.1844712,0.056949146,-0.04850487,0.05775057,-0.21064536,0.11257355,-0.13707907,0.25128198,0.05568678,-0.22236934,0.13115567,-0.232196,0.15671577,0.13746214,0.12022063,0.25436127,-0.036617264,-0.12659287,-0.0378767,0.31750143,0.12260173,0.14814515,0.116528526,0.43527564,0.17279474,-0.2044808,-0.09263018,0.16287416,-0.2205395,-0.27833936,0.076326735,0.19924642,0.2632761,0.36085415,0.07984977,-0.24758758,0.10022534,0.1296078,-0.025305608,0.3653523,-0.023401882,0.18466416,0.2987259,-0.13779955,-0.055008702,-0.13481414,0.07368696,0.059080776,0.22018896,0.23790796,-0.16131581,-0.01722587,-0.07582616,0.2740199,0.12586044,-0.0015790614,-0.14237937,-0.3298791,-0.20909032,-0.091769524,-0.33448553,-0.09249179,0.099696055,-0.16407694,0.03850233,0.25017017,0.2843809,0.26473272,-0.35243607,-0.08027394,-0.048952866,-0.063431896,-0.20991303,-0.20282564,-0.2641176,0.009475625,0.05126147,-0.043341443,-0.06882717,-0.15029196,-0.21013147,0.14948358,-0.1293522,0.044359498,-0.23275429,-0.37720537,0.13432449,-0.054921765,0.19008373,0.107228,0.110046886,-0.13760792,-0.13488592,0.059563268,-0.10260116,0.08423904,-0.18178734,0.23829578,0.25535676,0.038028475,-0.22824015,0.19438888,0.2535951,-0.029063882,-0.20835629,-0.18316941,0.03573501,0.061334126,0.13279265,0.10654645,0.30793023,0.068542175,0.101166345,-0.062413238,-0.02272589,0.06971946,0.06627791,0.21943545,-0.23464403,0.19983798,-0.08179703,0.12199459,0.059511848,0.039446265,-0.09638475,0.22023684,-0.28951308,-0.13770132,-0.24647196,0.05808039,0.024730625,0.21080896,0.10585546,0.028657848,-0.25094932,0.21013965,-0.041586086,0.34236178],"biases":[-0.00675754,-0.0036038058,0.014621108,0.023932578,0.016577212,0.0028176103,0.0017800967,0.007716675,0.0029726936,0.0034235758,0.013781632,0.041559443,0.02509826,0.0062110354,0.048707694,0.017043835,-0.011362585,0.004620162,-0.0016723118,0.025794903,0.017520338,-0.0046203234,0.0034984397,0.005010551,0.03136507,0.01117185,-0.014270104,0.011271936,-0.0013190134,0.005682929,0.035240363,0.04230941,0.0041269227,-0.00028851,-0.0016493812,-0.0064740283,-0.0008070535,0.01685644,-0.0014571956,0.024371047,0.023323158,0.023204792,-0.0161068,0.0016222728,0.0018782053,-0.0024355487,-0.00006751278,0.0046758195,0.02168166,0.0022242365,0.04679484,-0.0017212299,0.0360477,0.004532904,0.0140158385,0.007356956,0.020008374,0.04617958,0.0,-0.012877474,0.027205456,0.0008077908,0.018547166,0.03641922],"in_dim":10,"out_dim":64,"relu":true},"attn":{"w_q":{"weights":[-0.1069692,0.014990025,0.14034162,-0.1800894,0.18412131,-0.16962847,0.14326864,-0.14868839,0.21175906,0.24967422,-0.03149194,-0.033776402,-0.07311426,-0.08397739,-0.1329261,-0.059480824,0.14938132,-0.0008856423,0.10232018,0.020740813,-0.098226346,0.105422944,-0.002082449,0.07581999,0.1438958,0.17140517,-0.042616803,0.2129113,-0.121446356,0.079715915,0.08977011,0.16047661,0.053348146,-0.04651307,-0.1453355,-0.0087790545,0.13957453,0.23479389,0.1572658,0.19199383,-0.09035833,0.24041389,0.20155986,0.213717,-0.07434542,0.24864548,0.029831093,0.044282332,0.23976848,0.14268722,-0.011618471,-0.104122065,0.10418931,0.089834034,0.15075766,-0.12313031,-0.03922609,0.09474372,-0.09171217,-0.061520595,0.07246233,-0.10883845,-0.009834327,0.20299253,0.13916866,0.14051928,-0.04156657,-0.201967,-0.082089916,-0.22351979,0.04139033,0.1567018,0.083424665,0.0017220349,0.07862664,-0.14974429,0.12809752,-0.13035707,-0.14250886,-0.029481776,-0.1889877,-0.046382673,-0.08108925,0.09927072,-0.03656965,-0.17156397,-0.006935396,0.034434322,-0.09829769,0.17412624,-0.16295329,-0.14183404,-0.18459062,-0.19528635,-0.15146509,-0.15260741,-0.027307218,-0.089789756,0.12500422,-0.08205539,0.14641714,0.16426253,-0.020036764,0.13078716,0.16314323,-0.19158268,0.058000855,-0.026892317,-0.077172555,-0.20548359,0.013603757,-0.1626766,-0.097023755,0.040045094,0.1570634,-0.032671623,0.137013,0.08760992,-0.17365931,-0.16776122,-0.14513089,0.011931357,-0.05463624,-0.030651446,-0.078330845,0.16302569,0.08463468,0.13581751,-0.18598321,0.0074861064,0.05862162,-0.15707077,-0.016534839,-0.036440253,0.110962346,0.16145901,-0.11661188,-0.028999796,-0.2035491,0.030726794,-0.11856144,0.071927905,0.14773566,-0.031844247,0.13545051,0.109907635,0.13026068,0.11133236,-0.16331685,0.047792993,0.076605275,0.14645915,0.009574403,-0.20724985,-0.18094468,-0.10004067,-0.04415093,0.13479254,-0.13391794,-0.23236303,-0.075167105,0.095397,0.1373735,-0.15063971,-0.08103058,-0.099946216,0.020023566,-0.14420348,0.15237196,-0.2231504,0.14608143,0.033767417,0.002578142,0.1570951,0.06282402,-0.093515426,-0.15715407,0.1694496,0.08244441,-0.012309226,-0.15635346,-0.09153068,0.13546708,-0.033003323,-0.19719347,0.13298142,0.12851252,0.1478247,0.04817314,-0.15782867,-0.22978613,0.1676379,0.1957108,0.11275967,0.19453585,-0.038020022,0.15975693,0.066470124,0.19904147,0.13610907,0.007441164,0.022270514,-0.17239213,-0.0956144,-0.0043392186,0.002611989,-0.09164528,0.06723676,0.16228163,-0.014912636,-0.16625963,0.16783369,-0.08303514,-0.021188969,-0.1134206,-0.17151843,0.20600569,0.06593851,-0.012927261,-0.20794599,0.089007996,0.22589906,0.030923741,-0.0058539878,0.1486836,-0.0838238,0.20400311,-0.064117484,0.029853577,-0.1401768,0.2438008,0.03641054,-0.101319775,0.09154081,-0.17401947,0.14959596,0.16636707,-0.085181184,-0.058571428,0.17044285,-0.0106627615,0.21771866,-0.06896398,0.02170042,0.07026407,-0.19436447,-0.15794675,-0.12049032,-0.048392616,-0.082600154,-0.11191042,-0.09274186,0.17612787,-0.102904625,0.14384967,-0.13407148,0.21001776,-0.021671176,0.09963688,-0.03205101,0.07280563,0.08580949,0.17349327,-0.030606791,0.035256285,-0.18607078,0.16207589,0.1045113,0.23095094,0.11026456,-0.09528807,0.0081423735,-0.019937083,0.13202389,-0.13579077,-0.084017985,0.04136319,0.017344574,0.08573347,-0.09001234,-0.10902596,-0.023382429,-0.11754007,0.055956762,-0.19827384,0.052647796,-0.21793807,-0.01839918,-0.20918095,-0.10449138,-0.008118401,0.040310074,-0.13219568,0.15334275,-0.044426523,0.13679913,0.24157982,0.25894052,0.067716144,0.020234253,-0.17216325,0.16685282,-0.12700944,0.061375573,-0.026276635,-0.06520152,-0.15754719,0.24638027,-0.1398441,-0.19087258,0.06881469,0.010435108,-0.03635566,0.13439374,-0.2282183,0.012556523,0.2181694,-0.07339744,0.031278603,-0.07786841,0.01874667,0.0026747778,0.1393093,-0.09442126,0.16548665,0.16991273,0.08492356,0.04577391,-0.013948418,-0.055504523,0.18025948,0.1293834,-0.19561648,0.05054404,-0.014742243,-0.19148022,-0.16656679,0.0020686702,0.17722096,-0.09317088,0.15714665,0.08382091,0.106178075,-0.1542572,-0.07405391,0.251154,0.053117376,-0.13177335,0.11594209,0.23104574,0.16452499,-0.06461197,-0.15453702,-0.035645217,0.07238173,-0.1351736,0.06328398,0.025948642,0.018203793,0.17011352,-0.025528835,0.099835336,0.04241805,0.18595691,-0.037714902,-0.090417005,0.22575858,0.010968024,0.2587085,0.2036487,0.19219153,0.11328331,-0.19951059,0.1650155,-0.16773647,0.26223597,-0.14875586,0.088305295,0.03431098,0.033220798,0.004845371,0.08488777,0.015105584,-0.055394784,-0.20035255,0.16143776,0.0194864,-0.008355502,-0.13986894,-0.13235429,0.1591136,0.015079247,0.18155877,0.18935746,-0.027548073,0.14974912,0.115610525,0.1537475,-0.12137111,0.14224686,-0.15088734,0.078193136,-0.0777959,0.20960987,0.18451005,-0.14950404,-0.043163016,0.1648085,-0.068972744,0.12368509,0.25268388,-0.08113106,0.16976814,0.07019002,0.17018254,-0.019004209,0.018644877,0.032097824,0.085241236,-0.038394224,0.032374147,0.14134999,0.16096248,-0.02918213,0.13083869,0.2570738,-0.07889248,0.019724075,0.18670094,0.24394256,0.122371234,0.07868451,-0.041697223,-0.1423756,0.14540443,-0.07782573,-0.0112915225,-0.058110166,0.04521676,0.16609915,-0.09493099,0.1935534,-0.07125089,0.2120346,0.20786493,0.08989171,0.10581877,-0.098282285,0.14269954,-0.19783275,0.12051639,0.17029664,-0.061241183,-0.20541473,0.04584233,0.13364278,0.07903343,0.038484115,-0.2875787,0.26844934,0.1382345,-0.07969611,0.2002272,0.16476314,-0.05219734,-0.038419146,-0.0660794,-0.102457866,-0.16396199,0.053524736,-0.2559595,-0.053803343,-0.034438044,0.14638731,-0.1492644,-0.04372182,-0.16682926,-0.103079915,0.1572578,-0.20401336,-0.069205105,0.012386402,0.06831523,-0.09168202,0.017010838,0.12998869,-0.1356937,0.0026447866,-0.12087519,-0.09960012,-0.14288174,-0.09912403,-0.038929332,-0.009069197,0.1783937,-0.050502,0.17787215,-0.09411791,0.0494255,0.06279939,0.0040110257,0.118519984,0.069682404,0.10680469,0.16215079,-0.04397635,0.016053263,0.027813854,0.052463703,-0.2506471,-0.09987228,-0.0427119,0.012527106,0.14551827,-0.22703345,-0.08583131,-0.19059786,0.056583434,0.04787513,-0.20556882,0.09348259,-0.124607265,0.1038254,0.06040057,-0.17280856,0.035310254,0.038786784,0.24588984,0.18114372,-0.1883852,-0.08294769,0.038883615,0.029085996,-0.12999205,-0.122489505,-0.028539173,-0.041666336,-0.119809434,-0.11099461,-0.136291,-0.18619935,0.019115087,-0.08753541,-0.023872448,-0.08347635,-0.07549375,-0.111726515,-0.07581955,-0.28309324,-0.1584792,-0.008509508,-0.29496267,-0.0016856994,-0.019041933,-0.18982358,0.068528034,0.059402555,-0.19647555,0.28994554,-0.2367994,0.1123169,-0.082784705,-0.18144226,-0.05325685,-0.022985224,0.2108812,0.020259054,-0.09869721,-0.028691527,0.09400803,-0.13205977,-0.17201251,-0.07387742,-0.014007571,-0.1431188,0.17141864,-0.18585478,0.11179602,0.057546265,0.179919,0.22835134,-0.19469693,0.20647903,0.10935566,0.17973408,0.10451217,0.020618604,0.11949915,-0.093750305,0.06822539,0.054415405,-0.021010168,-0.012474377,0.10676034,0.042462543,-0.13486698,-0.09418286,-0.16389605,0.13373902,-0.0232985,0.24118128,0.15753761,-0.029604446,0.049237512,-0.055610504,-0.1822034,-0.060320146,0.120920755,0.14454049,-0.15684673,-0.06614609,0.1663482,-0.21188125,-0.16010141,-0.17080879,-0.06870638,0.11548419,0.18913187,-0.021249393,0.11957446,-0.11820338,-0.17592384,-0.028940644,0.029359298,0.07302087,0.18041791,0.061817728,0.05998869,0.014052373,-0.15877539,-0.0941596,0.04677441,0.06781529,0.3013988,0.2221361,0.07370172,0.060207166,0.102366045,0.18073477,-0.12099823,0.09714563,-0.07825479,0.04636469,0.17577118,-0.00045144564,0.03753129,-0.07265648,0.011551881,0.026107306,0.02829147,-0.0037053444,-0.059194945,-0.08811376,-0.2048775,-0.16750203,-0.06871555,0.03659047,0.16369922,-0.20247263,0.14556585,-0.11451033,0.06802037,-0.18089578,-0.30877244,-0.10109122,-0.03178569,0.07782678,0.127989,0.1266101,-0.044361174,-0.090256855,-0.080211535,0.09970646,0.19878258,0.11973323,0.20628722,0.04604378,-0.015206371,-0.23933409,-0.18118228,0.17656134,-0.13276426,0.18531491,0.10840193,0.033506624,-0.11139285,0.24879839,-0.0586565,0.06463917,-0.17856717,-0.16013713,-0.11393484,-0.16435513,0.078614466,0.09758376,-0.12984543,-0.21381494,0.15324427,0.026312318,-0.11803665,0.038553864,-0.053689696,-0.10655307,-0.058029912,-0.09357195,0.06767235,0.07161362,0.012863686,0.057161026,-0.0067160954,0.014146401,-0.20965956,-0.12537466,0.06186592,-0.13563229,0.13749005,-0.03835284,-0.05252643,-0.027249437,-0.2610188,0.08661761,-0.20447573,0.115917884,-0.046482533,0.21289456,-0.06292313,-0.15664195,-0.26346382,0.107894234,-0.16274893,-0.058627658,-0.09519984,0.026216744,-0.015786014,0.10860949,-0.11610128,-0.16857919,-0.056427736,0.07047543,0.1498464,-0.11227352,-0.009955889,0.015007439,0.007260197,0.108505964,-0.24591546,0.1745357,-0.076117314,0.040981777,0.028482508,-0.12914547,-0.16010967,0.055182748,-0.2458609,-0.06746693,-0.1319697,0.1190239,-0.041707166,-0.21894369,0.0068615656,0.13004422,0.08040937,-0.1109794,0.0987381,0.16095778,-0.06488358,0.16426916,0.19184364,-0.12307949,-0.27927333,-0.047579832,-0.10558523,-0.1502078,0.14575697,0.09555346,0.12078149,-0.030346088,0.008363886,-0.11885517,-0.006291334,-0.075430855,0.087476894,0.01625856,-0.018446976,0.10005297,0.032532323,0.005357603,-0.2736938,0.0875491,-0.18688822,-0.13939206,0.009431405,0.18819259,0.028792435,-0.13179049,-0.22106034,-0.101585984,-0.2776655,0.029939704,0.2123857,-0.023044677,0.045092452,0.1310262,-0.037959408,0.06911951,-0.084331945,-0.20556895,0.096527085,0.11380221,0.018557817,0.109270014,0.08991308,0.13718621,0.14689387,0.07082287,-0.12701412,-0.09564447,-0.13936305,-0.10201978,-0.15834022,-0.07412424,0.06788268,0.024928056,-0.015150362,-0.09369753,-0.19814014,-0.23173527,-0.086206004,-0.10936311,0.13057232,-0.079976186,-0.16928387,0.09083227,0.10636606,0.053624734,-0.16492084,-0.27300662,0.07271878,0.16842398,-0.25398806,-0.22564384,0.08159505,0.008166818,0.16573922,-0.17780876,0.2198925,0.1375715,-0.0770944,-0.02107853,0.16254917,0.18996459,0.07448555,-0.027794791,-0.18670973,-0.27637386,-0.012506265,-0.06871252,0.018447066,0.11216431,-0.02927559,-0.08568057,-0.21858504,0.07103565,-0.12693644,0.15439948,0.17285872,0.10847188,0.21450609,0.14395478,0.083836794,0.12887262,-0.028913718,0.05962251,-0.022376053,0.0012011479,0.00097237475,-0.068255246,-0.19124179,-0.08394084,0.10313427,0.026895411,0.042129885,-0.11030822,0.23146577,-0.054497935,-0.045683607,0.0057611438,-0.17336105,0.08248695,-0.038254865,0.10995633,-0.037705176,-0.21285968,-0.16393593,-0.18902226,0.056805093,-0.106910884,0.09319358,-0.024662912,-0.03367505,0.062121063,-0.1255159,0.0008680501,0.008813077,-0.00009531939,-0.10948936,0.0116407415,-0.028463805,-0.18303855,-0.028943967,0.119460374,0.10772635,-0.24386917,0.1790697,-0.053893585,-0.07019852,0.19942045,0.100910574,-0.18235177,0.07739516,0.06776127,0.1424656,-0.2191508,0.16472615,0.055525243,0.07723931,-0.13432255,0.015126039,-0.052182414,-0.20101427,-0.14787364,0.14326984,0.20282212,-0.07687114,-0.018697497,-0.12646753,0.09086338,-0.18914942,-0.22785436,0.033530574,-0.011031868,-0.0869201,-0.11062812,0.09188712,-0.14115287,-0.20220833,-0.18637097,-0.17697239,-0.16533029,0.05619939,-0.14972931,0.095924824,-0.115273565,-0.15252866,-0.15212476,0.045462105,-0.050816,-0.2608184,-0.13976097,0.11907209,-0.16687375,-0.1607612,-0.08203887,-0.09862977,-0.24348392,-0.07416172,0.017358435,-0.22291526,-0.1589196,-0.12475405,-0.1931332,0.10557233,-0.068233654,-0.018622706,-0.07319095,-0.11406499,0.13284571,-0.052475493,-0.14919108,0.15318903,0.1253369,0.10045004,-0.14212555,0.079719804,0.124399036,0.16484472,0.0071364567,0.15615958,0.17776784,-0.13100092,-0.28167006,0.01731381,-0.20368433,0.1253544,0.050239716,-0.18557885,-0.007331476,-0.12874019,-0.23026828,0.092699125,-0.03304106,-0.0030926135,-0.14044024,-0.14993279,-0.03218264,-0.19162895,-0.089215115,-0.11493668,-0.13450854,0.09569244,-0.09359511,0.074976236,-0.101368345,0.32007048,-0.042119756,-0.2430105,0.0022053053,-0.025573196,0.12885399,0.0005729695,0.16544157,-0.07406328,0.033956066,-0.06587409,0.1067286,0.050426457,-0.061475404,0.22977315,0.06001764,-0.21307631,-0.031524066,0.0560021,-0.07392295,-0.17333049,0.1326573,-0.09405088,-0.1918295,0.07697772,0.15826811,-0.14359272,-0.092634596,0.039994806,-0.052896544,0.07616327,-0.15076055,-0.10328265,-0.20511869,0.019221703,0.11631711,-0.111252666,-0.09292724,-0.018795757,0.014675526,-0.17266701,-0.1508594,0.048656918,-0.038688883,0.1260495,-0.05951319,-0.10823053,-0.12783967,0.16263258,0.29584396,0.060810532,-0.116317585,-0.051700793,0.024389202,0.13293746,0.21535388,0.14243455,-0.22077781,-0.14426641,0.13927323,-0.07446235,-0.09523796,0.045036703,-0.02474042,0.24840383,-0.014722335,0.11662724,-0.10349952,0.05103642,0.06401832,0.05101802,0.09577143,0.12839688,-0.03886097,-0.15279593,0.17558476,-0.13303806,0.0650794,0.004980435,-0.12930869,-0.055010654,0.039194092,-0.037454758,0.20755032,0.09974856,-0.29094812,0.036892805,-0.094456166,0.07208504,0.10180353,-0.11979748,-0.08854954,0.011663557,0.13960232,-0.032324832,-0.04763709,-0.2000407,0.078005984,-0.0053507476,-0.06509116,-0.010736739,0.08307628,0.16790141,0.27154756,0.17549801,-0.20096831,-0.17452118,0.118952066,-0.087035246,-0.15969934,-0.11156364,-0.22998498,0.02479536,-0.008452662,0.0665871,0.14729285,-0.22143073,-0.07748679,0.06301462,-0.10298925,-0.019977944,-0.022079157,0.038156673,0.101205684,-0.04387424,-0.051677585,-0.0578631,-0.11607239,-0.012645699,0.010632596,-0.16768661,0.10660641,-0.20523962,-0.21023881,-0.010676991,-0.0030317677,0.3084142,-0.10102671,0.009872501,0.011988939,0.1387567,-0.011814166,0.06953203,-0.046225034,0.09274579,0.17999785,-0.11761409,0.22032645,-0.15363102,-0.1161372,-0.28354982,0.01305741,-0.18873248,0.17418042,0.024317926,0.16230412,0.068914585,-0.024736155,0.054907106,0.23316945,0.1405315,0.14223789,-0.0014655362,0.015011258,0.2095818,0.058424637,-0.031373102,-0.002196578,-0.025480377,0.0071973186,0.11228404,0.15519631,-0.18671057,0.24753633,0.053675517,0.04374852,0.03416565,0.23390399,-0.026939588,0.089287885,0.099064276,0.15658861,-0.068431534,-0.043951083,0.017202929,-0.15110627,-0.050945874,0.24116011,0.0101606585,0.29930907,0.10340999,-0.116649866,-0.03769394,0.17950353,0.13390353,0.1993,0.026908042,0.011871881,0.008326683,0.11118091,0.090035774,-0.18322986,-0.06483144,0.03453426,-0.07809987,0.0497863,0.041343417,-0.09302879,0.0067467927,-0.13301307,-0.03934057,-0.20080988,-0.05875677,-0.011405291,0.043333776,0.15368314,-0.19059485,0.11041875,-0.1392593,-0.19349651,0.17476438,-0.11772507,0.050573565,-0.0028753097,0.027635276,0.045331605,0.07023302,0.2175567,0.23002248,0.11060899,-0.268991,0.0262878,-0.02171234,0.033618305,0.11074394,0.1783576,-0.10776117,-0.17955408,-0.12724409,-0.1522843,-0.018130247,0.06960282,0.06532515,-0.13308795,-0.014116081,0.102820665,0.108120225,0.04345652,-0.0077192453,0.10501905,0.029625073,0.0054707616,-0.007126014,-0.12143447,0.12994304,-0.1663824,-0.18194611,0.20481116,-0.013376205,-0.073694095,0.14214508,-0.16167332,0.10487867,-0.08491523,0.010052572,0.18402131,0.288273,-0.062113415,0.12273616,-0.036511693,-0.06669689,-0.014602078,-0.0945187,-0.21583764,0.012383028,0.15037133,-0.019265277,0.14979814,0.18143882,-0.19132444,-0.13176297,0.12915748,0.1395306,0.04598616,-0.08716319,-0.0805854,-0.14291488,-0.0320455,0.04413115,0.01917664,-0.26456285,-0.010987572,0.18693246,0.12988499,0.074187875,0.10400681,-0.11183856,-0.093999624,-0.14789298,-0.05242308,-0.06259319,0.15859525,0.009360983,-0.2627782,0.06361394,0.16022865,0.26745474,0.037948716,0.07304808,0.14480957,-0.17543449,0.16336669,0.018278727,0.095067546,-0.05084066,-0.21673675,0.06086775,-0.1530044,-0.07705618,0.031542547,-0.13753182,0.054125056,-0.09353033,-0.08534843,-0.23350762,0.105337344,0.14957717,-0.14839016,-0.13386823,-0.11631274,0.0023071007,-0.09564498,-0.2129859,-0.17085235,-0.1538559,0.15696768,0.14224336,-0.22386824,-0.13021193,0.04908818,0.220638,0.14752217,0.10991496,0.09862683,-0.1940885,0.0138103245,0.077957086,0.028975569,0.1389238,0.05284552,-0.010754329,-0.061826047,-0.21279188,-0.15519676,0.084665574,0.07608166,-0.041376755,0.011096416,0.06915952,-0.04561223,0.04106598,-0.06337567,-0.043582138,-0.086520575,-0.1790643,0.161298,-0.28596327,0.089314744,-0.10457047,0.1375663,0.077439114,-0.009532025,-0.16154723,0.016863212,0.08127338,0.014908213,-0.23068024,-0.03567424,0.1201029,-0.019138442,-0.2310122,-0.08757947,0.05886164,0.038909517,-0.062415134,0.044207547,0.044075537,0.10021974,0.23974389,0.13393214,-0.09333564,0.1622113,0.050896972,-0.17471607,-0.11095618,0.06286121,0.09419119,-0.009722989,-0.015511594,-0.18532556,-0.13361982,0.016873429,-0.07033901,0.056734234,-0.004997427,-0.16561341,0.06328821,0.04408426,0.20346372,-0.082967915,0.068078086,0.077325694,-0.05705041,-0.19441718,-0.22095558,0.03699785,0.030592926,-0.07000152,-0.044276707,-0.01864865,0.042250134,0.103527315,0.053734183,-0.037306987,0.0114526525,0.022990461,-0.07548942,-0.16511482,-0.11771275,-0.13735592,-0.0027385755,0.12903352,-0.19890393,0.03925094,-0.18871404,-0.2661421,-0.34642637,0.3491749,-0.0139848245,-0.03180975,-0.12421679,-0.17811419,-0.025607925,-0.039639562,-0.04951828,0.01265514,0.046281025,-0.042777315,0.06442379,0.07188556,-0.10533641,-0.25946635,0.14092271,-0.01614793,0.11467499,-0.20927495,0.02544378,0.024176734,-0.20098841,0.3526577,-0.1378114,-0.034513835,-0.22007504,-0.07339996,-0.28631204,-0.10329477,-0.05303432,-0.047544543,-0.052300856,0.14915186,0.15425663,-0.19280879,-0.07394452,-0.1594312,0.0713901,0.09003577,0.010723042,0.2038676,0.085234165,0.059017908,-0.024910292,0.122495405,0.026843572,0.1100469,-0.02497702,-0.056562677,-0.14010891,0.072140485,-0.01196098,0.031484157,0.0075575993,0.091097206,-0.26711717,-0.16517875,0.19888657,0.083896294,0.0675585,-0.12895788,-0.13664743,-0.012121392,-0.09444761,0.08854794,-0.10667133,0.25400668,0.14227904,0.085043594,0.043856043,-0.08233365,0.070336066,0.080874965,0.12200157,-0.08838642,-0.0077698543,0.06024135,-0.006685803,0.07195707,-0.043458596,0.11164862,-0.05495354,0.2718816,-0.015175366,-0.008166807,-0.16125464,-0.053079233,0.0014358413,-0.064212486,-0.1587241,-0.18654889,-0.013744513,-0.04729416,0.091226116,-0.18099,0.11025922,-0.21665904,-0.24308,-0.22155863,-0.049418285,0.061877236,-0.029701993,-0.20386323,-0.04109222,-0.11662771,-0.1920319,-0.08293073,-0.020528873,-0.14410594,-0.04306464,-0.19144063,-0.106569216,0.10335087,0.06688297,-0.07517597,0.072462365,-0.034570657,-0.03225415,0.06695656,-0.10778721,-0.048915874,0.07696235,-0.006739035,0.05938345,-0.10441066,0.033240497,-0.17133392,0.1742814,-0.012030092,-0.2539117,0.093048856,-0.077945165,-0.021727502,-0.20782757,-0.031163381,0.020694988,-0.08123294,-0.09440716,-0.20616117,-0.12240067,-0.11493614,-0.0012322695,0.0666127,0.28009808,0.0493848,-0.2068234,0.17925212,0.040562253,-0.01876831,0.098371245,0.09029366,0.1712481,0.014559565,0.26412103,0.09774002,-0.05976419,-0.1644702,-0.10149587,-0.19208501,0.21121596,0.034716338,-0.028616587,-0.12117986,0.106721275,-0.106245965,0.028482968,0.028204788,-0.13130994,-0.078736216,0.0005107025,0.083978355,-0.16251838,-0.00061241235,0.07783459,0.06458244,0.17057912,0.14177568,-0.078425534,-0.08283724,0.2155915,-0.03265014,0.11632702,0.11467061,0.029496076,0.009090492,-0.19113453,-0.09399676,0.029673254,-0.3215509,0.104881234,0.108477384,-0.108214155,-0.044052076,-0.02137146,-0.047350325,0.08030855,-0.16581303,-0.24015424,-0.060513303,-0.05509529,0.10807318,0.1401137,0.08207535,-0.044609632,-0.023058593,0.022473551,-0.08853518,0.037283678,-0.09301886,-0.12690628,-0.0517662,-0.24958955,-0.3131845,-0.047283694,-0.040888667,0.020124564,-0.06905419,0.024545245,-0.037314862,-0.10546049,-0.075164616,0.011824339,-0.12247287,0.019568678,-0.16976592,-0.06488526,0.076628625,0.21640185,-0.22248684,0.089929916,-0.10171805,0.13252026,0.09858699,-0.14113319,-0.047910634,0.062954545,0.15492155,-0.23779118,0.16204914,0.04407495,0.0731947,0.09492664,-0.07728786,0.05234071,0.038133197,0.23238249,-0.1492217,-0.028471712,0.13564026,-0.063208826,0.13729484,0.1961234,0.23463777,-0.132395,0.16993426,-0.1789855,-0.1561667,-0.062623195,-0.02414491,-0.06470299,0.13368197,-0.24603261,0.060001567,0.1695668,-0.3002887,0.08221013,0.020436484,-0.06826295,0.110420875,0.105848044,0.040453106,-0.091220066,0.09944525,0.018868899,0.076630384,0.12239812,-0.014935678,0.029225938,0.021615874,0.28333265,0.0022013402,-0.12725614,0.061916668,-0.021057682,-0.10726587,-0.021162625,-0.10574407,-0.1616668,0.011502021,0.18077175,0.022456288,0.15121078,-0.052267883,-0.09420084,-0.06526478,-0.24018914,0.04280341,0.012543145,0.007833748,0.07075985,-0.05294861,-0.13956425,0.11867729,-0.029108725,-0.03382427,0.06635504,-0.08533112,-0.14951555,-0.2997016,-0.105347656,0.33446774,0.13306525,-0.06088871,-0.15442228,0.28148374,-0.1418565,-0.02542445,0.061030492,-0.08304199,0.005844359,-0.036060143,-0.022506839,-0.13139686,0.012925411,0.17358908,0.011756113,0.06999842,-0.08827327,0.06334396,-0.23625419,-0.060391523,-0.1895629,0.19027048,0.08604086,0.09257088,0.0019340875,-0.06518692,0.09493967,0.13404019,0.09515546,-0.099573806,-0.112048246,0.19064668,0.04479219,-0.1546743,-0.03867516,0.07930876,0.18401773,-0.26671013,0.09270899,0.049928367,-0.004601521,-0.21357502,-0.017160987,-0.10325475,-0.0111938715,-0.18245742,0.07269953,-0.028919175,-0.16615893,-0.038307417,-0.08887803,0.11563925,-0.022516968,-0.1805079,0.25793117,-0.14736979,0.14100474,-0.058816258,0.08997239,-0.18685974,-0.06344212,0.18352795,-0.044565294,0.008987159,0.11458953,-0.014150026,0.21292308,-0.14075163,-0.13182682,0.062909685,0.17227624,0.19782066,-0.08551869,-0.0441925,0.29566896,0.03103782,0.008534058,-0.08876123,0.03462804,0.02207467,0.16721663,-0.017341552,0.005466621,-0.109200835,-0.02780335,0.1934173,0.054196827,-0.047763094,-0.065200694,0.13094829,0.18510428,0.17438717,0.022845274,0.104891956,0.054079782,-0.05597794,0.17470045,-0.021417042,0.033655092,-0.17156883,-0.10369162,-0.059834044,-0.014224058,0.030420624,0.16736561,0.10987669,0.09659216,-0.16050613,-0.1575482,-0.023017757,-0.012578012,-0.08291389,-0.06521461,-0.2153389,-0.14924769,-0.15475412,-0.14080717,0.014363527,-0.12570712,-0.10391772,-0.14435329,-0.22245099,-0.020695698,0.089020155,0.13422185,-0.03710021,0.19642115,0.0062500765,0.026426904,0.21202613,-0.09907182,0.1838654,-0.23619,-0.03043692,-0.0248358,0.13056639,0.0056499615,0.021185137,-0.11162986,0.027210195,0.18897001,-0.08854627,0.2625346,0.1564539,0.16169551,0.032986347,0.22993205,-0.09554348,0.14640115,0.113975994,0.043498594,0.21095598,0.019137193,-0.11846526,0.08179978,-0.037696775,0.005228875,0.16076422,0.16003601,0.050088663,-0.18497247,0.11254367,0.10352327,-0.1477642,-0.16364086,-0.089953616,0.0717583,-0.1865426,0.0263214,-0.04280847,0.108306006,-0.18811716,-0.06332547,0.10964668,-0.055295773,0.11423894,-0.10956357,0.026992058,0.07059849,0.023976505,0.19313376,-0.13770717,-0.018451558,-0.20493238,0.15191637,-0.062123686,-0.131785,-0.047984596,0.028948557,-0.022641923,0.17756063,-0.086493656,0.034410823,-0.1553973,-0.016926687,-0.0054695224,-0.0906401,0.23541339,-0.061821397,0.31970638,0.06309687,0.0011751227,-0.13041691,-0.20291236,-0.08012504,-0.022681296,0.19890933,-0.08887439,0.020875806,-0.014403736,-0.1572963,0.2889145,-0.059476014,0.031516567,0.084685825,-0.1553405,0.14384031,-0.04417912,-0.12874651,-0.0289173,0.20204522,-0.09411128,-0.082201675,0.11336726,0.06704775,-0.1792681,-0.16253206,0.250068,-0.15910152,0.1270832,-0.13089156,0.07009144,-0.08235942,0.016257633,-0.062609985,-0.059157446,0.03827757,0.09710991,-0.17072868,-0.0053606946,0.004872744,-0.10832269,-0.09620113,-0.18692704,0.053777818,-0.08130585,0.26815346,-0.17208901,0.13297963,0.2511878,-0.16530947,0.11034003,-0.005037274,0.035331625,0.096862435,-0.10348502,0.14807555,-0.014089434,-0.1808895,0.0024499055,-0.0842797,-0.023598757,-0.20511752,0.13620055,-0.028222183,0.20312995,-0.029749554,-0.11367244,-0.00033220203,0.14672849,-0.05069289,0.042789668,-0.0685814,-0.15693477,-0.03365467,0.016691692,-0.1516127,-0.059120946,0.040158153,0.19453782,-0.20634003,0.05267082,-0.054988585,0.090801895,-0.15543658,0.18867393,-0.04875899,0.025577234,-0.19683076,0.2047711,-0.13329284,-0.050811525,-0.13643697,-0.0689144,-0.09828955,0.224766,0.021379769,0.069636345,-0.13259484,0.13323939,0.3187647,0.15632644,0.02144857,-0.21862422,-0.26760474,-0.07757938,0.05273525,-0.055138268,0.094636895,0.11637441,-0.00082085683,0.18537161,-0.04448804,0.20911361,-0.13908498,0.07318392,0.013602309,-0.14282382,0.12755048,-0.034792006,0.019866966,0.25529096,0.25279287,-0.025633406,-0.014898316,-0.04529851,0.03415374,-0.013696317,0.0466487,0.07474349,0.24201763,0.020556357,-0.07725944,-0.059136912,0.18218367,0.032243498,0.06796682,0.110783786,0.016773479,0.1309932,0.032628443,0.070703164,0.2748064,-0.026761053,0.018788371,0.044181816,-0.08690317,0.14859705,-0.052913684,-0.06649006,0.25167683,-0.14136238,-0.1246623,-0.1383772,0.17140673,0.09533557,0.11692385,-0.03897071,-0.32978052,0.03791665,-0.2564936,-0.17375357,0.095167935,-0.06386676,0.038690496,0.047726467,0.11130254,-0.20478126,0.05049252,0.016201757,-0.23412015,-0.13359785,-0.064187124,-0.20904851,-0.15148154,-0.08546313,0.0059345826,-0.043399904,-0.16626869,-0.23393634,0.18433052,-0.17445904,-0.014215023,0.041187033,-0.016583126,-0.11576078,-0.013170977,0.088883005,-0.07955872,-0.08204702,-0.03581448,0.03355317,-0.030686662,0.02038893,-0.17780046,0.13527028,0.058855437,-0.00017932287,0.021646256,-0.06738068,-0.09795702,0.15047507,0.017688308,0.093216605,0.006184681,-0.06024606,-0.3460239,-0.29004747,-0.14819331,0.1948551,-0.09658475,0.14310569,0.10376038,-0.032283735,0.089154236,0.039338812,-0.076849714,-0.12293009,0.036609624,-0.21140033,-0.0027625184,0.0075662797,-0.06332798,0.08271071,0.043911327,-0.096576415,-0.18596742,-0.27568942,0.003941976,-0.3128707,-0.05799814,-0.0765738,0.1234796,0.04804396,-0.07592121,0.018022364,-0.071888804,-0.16522941,-0.020596832,0.06468359,-0.21384314,-0.19713442,-0.17782728,0.05458162,-0.0049767927,-0.23551086,0.06324359,-0.18719143,0.09763297,-0.07519225,0.04646326,-0.19196112,-0.06415188,0.057334945,0.17069887,-0.1992286,-0.107943356,-0.06991046,-0.23714124,-0.25465906,-0.22578439,0.19936465,0.0018509494,0.025880074,-0.22880788,0.14258099,-0.0244318,0.019955534,-0.15445754,0.15408196,-0.022712853,-0.08642689,-0.061645035,0.054959897,0.06414552,-0.0694058,-0.2875135,-0.009271406,-0.09718067,-0.056203008,-0.032218203,-0.08002528,0.1978792,-0.19909301,0.05367477,0.17399956,0.03426458,0.061249826,-0.028243737,0.051891457,0.0068258718,-0.013260158,-0.038648542,-0.11919793,0.28187189,0.025594477,-0.08637278,0.036428843,0.18486483,-0.019287398,0.0031624194,0.084596485,-0.017724706,0.18815516,0.08173924,0.02083144,-0.026390998,-0.15245906,0.189116,-0.047412217,-0.01669847,0.065552406,0.186031,-0.16545342,-0.1302727,0.050863244,0.22465247,0.0052108974,0.137142,0.095457435,-0.0050933994,0.36237878,0.107497595,0.04714933,-0.06574855,-0.08284596,0.22427082,0.02815654,0.07574247,-0.043946058,-0.11720869,-0.2018529,-0.10727913,-0.24681197,0.27230236,0.22678363,-0.05520331,0.14635387,-0.024176158,-0.00018840157,0.000009066309,0.1454057,0.07783828,0.30608508,-0.048269026,0.15200183,-0.0056806295,0.032501336,0.09688724,-0.11602065,0.111833274,0.25800133,0.08996921,0.07133564,0.12638886,0.053047273,0.18675686,0.058720946,-0.21501212,0.16769773,0.15783033,-0.013852253,0.050010078,0.103048526,0.04113591,0.05200401,0.22524853,0.110433176,-0.004060513,0.019517472,0.078598574,-0.20989974,0.22692707,-0.04179499,0.21027617,0.24505247,-0.07467521,0.24976593,-0.07659632,0.023158295,0.092623636,0.015329158,-0.026487306,0.044500344,0.18323697,0.041100055,-0.24693571,0.09651318,-0.014401397,-0.03788671,0.0016439246,0.17256126,-0.035858832,-0.037041437,-0.17382742,-0.036370464,0.07951145,-0.1631337,0.14033315,-0.095401146,0.03464837,0.15662728,0.21982925,-0.08460045,0.016090062,0.21251553,0.12715541,0.031314336,0.2654274,0.12504436,-0.17595701,0.11005488,-0.07826054,-0.051079445,-0.0699719,-0.029732991,0.19016075,-0.04370033,0.015871527,0.21154104,-0.06549495,0.11302955,0.19555601,0.0945825,0.0053842217,0.3004184,0.033169724,-0.28918782,0.3122903,-0.0036513156,0.05888762,0.099603586,0.018009624,0.06772968,0.0063486625,-0.016917892,0.17844196,0.0098297065,0.29020897,0.06642344,0.1515571,0.06164632,0.17237668,-0.10907785,0.09190833,0.03989205,0.1337382,0.07310564,0.15595491,0.064758524,0.08655285,0.082361214,-0.15223452,0.03130422,0.026492653,-0.00006380502,-0.118343115,0.20538974,0.20511277,-0.19737808,0.09112522,-0.118153304,0.12086163,-0.023909625,-0.012988886,-0.20485233,0.18714978,0.03879889,0.18941851,0.14726967,-0.13050276,-0.042568065,-0.15071605,0.035517085,-0.065302,0.10981621,-0.033108447,0.03970575,0.13325258,-0.22587086,-0.08263725,-0.055532735,0.25287306,-0.33008423,-0.0071162162,-0.03197466,0.27391937,0.008578619,0.08588519,-0.24429059,0.15807715,0.048642404,-0.12222236,0.082889035,-0.06343631,-0.29732293,-0.1248195,0.004074581,0.03135469,-0.0770977,-0.06719009,-0.029132592,0.2566689,-0.03188991,-0.03373414,0.058507983,-0.018191416,-0.03238823,-0.009321961,-0.053796444,0.004611994,-0.263483,-0.10242116,0.07579619,0.107206516,-0.19748762,-0.12744828,-0.078332126,-0.16701134,-0.01760265,-0.2439364,0.04919465,-0.02712403,0.04704243,-0.05659438,-0.04749228,-0.14714295,0.0072159017,-0.21464323,-0.006959403,0.16703367,0.1263582,0.09459369,-0.08660633,0.15297554,0.0029124948,0.052625217,-0.002131296,-0.20536375,-0.24192461,-0.0385797,-0.25385314,-0.1935598,-0.1975708,-0.13006268,-0.16318452,-0.023602586,-0.037578613,-0.13588348,0.09681105,0.00068262854,-0.08811831,0.11451993,-0.15564443,-0.122119546,-0.044607185,-0.27354836,0.17954591,-0.25240922,-0.021476371,-0.15952961,0.024709038,0.008754325,-0.17088649,-0.14218308,0.050959583,0.05007144,-0.06987575,0.041740578,-0.09798407,-0.15100616,-0.19957124,-0.052103646,0.005747689,-0.12910151,0.07327951,-0.1492208,-0.1653455,0.07680699,-0.24106441,0.048550826,-0.035974097,0.07552246,-0.011445917,-0.14938174,0.11973943,-0.3397376,-0.11169808,0.1827338,-0.13368173,-0.23813975,-0.1476745,-0.03918513,0.18721698,-0.17118964,0.042571023,-0.3436923,0.01895701,-0.22421364,-0.031141335,0.057592437,0.083958074,0.14554337,0.2257889,-0.18480973,0.05227557,0.04841512,0.05086017,0.02663329,0.11927031,0.18536964,0.1045759,-0.15932658,-0.023403747,0.056546062,0.1607468,0.15070933,0.07777793,-0.15928304,0.18337817,-0.023958944,0.1229591,0.18197817,0.021382136,-0.06906879,0.29816043,-0.24539836,-0.04982179,0.060626216,-0.12108761,-0.03169764,-0.09083458,0.25014117,0.08294554,0.1942119,0.0899765,0.13072589,0.0860937,0.11380376,-0.04918023,-0.06865237,-0.16366749,-0.086208224,0.067795984,-0.09579658,-0.1322724,0.07751841,0.18873595,0.24164538,0.05361843,-0.20545812,-0.19802424,-0.01876762,0.17165838,-0.016474752,-0.0006808172,0.020513875,-0.15354243,-0.13576914,0.055106074,0.08190568,0.08570211,0.10956198,0.03747593,0.0040330966,-0.19375488,0.06085001,-0.08471238,-0.08259573,0.26478103,0.2649303,-0.1550945,0.21419993,0.22692347,-0.0685711,0.19195788,0.0957811,0.13956363,0.039953385,0.012411855,-0.068897165,0.049527466,-0.08369655,0.076747596,0.1483177,0.053123944,0.009163053,0.02962155,-0.18000804,0.15541531,0.016091915,0.11292386,0.083122104,0.11617013,0.010519274,0.14657125,-0.14634386,-0.09327669,-0.033729464,0.0978572,-0.0554966,0.019370813,0.21990423,0.23847014,0.13654128,0.10527768,0.049399845,0.07082716,-0.1755648,-0.000024191097,0.06010285,0.33847636,0.020670293,-0.01894769,-0.00512314,0.07283031,0.06384478,0.10613648,-0.14423752,-0.15114999,-0.14493792,0.073827446,0.18834564,0.20111528,-0.118651964,-0.026805192,0.029610133,-0.15801425,-0.14566243,0.0046598115,-0.07927868,0.0007601502,-0.051560123,-0.01442829,0.12124839,0.100883864,-0.29805937,-0.05822632,-0.11652694,-0.15705298,-0.06924047,-0.07858698,-0.05618814,0.090303496,-0.23574655,0.15776688,-0.12898737,-0.022744,-0.12351261,0.15298808,-0.08653077,-0.20334034,0.06195233,0.063755505,-0.09289534,-0.05701345,0.10859208,-0.00340605,0.008723052,0.16695851,0.13042809,-0.025871838,-0.07453367,0.097164705,0.17406464,-0.039427776,-0.05334873,0.038775586,-0.0350613,-0.16685294,0.047076236,0.12398326,-0.18207704,-0.12520391,0.08466105,-0.105512746,-0.25705126,-0.21218874,0.14800644,0.09890507,0.14662762,0.14475824,-0.13017708,0.018850477,0.2073213,-0.038232572,0.27220386,-0.05865342,-0.21197434,0.04504007,-0.08276028,0.1529449,0.13554612,-0.1326863,0.08125261,-0.22944635,-0.20861994,-0.07362818,0.14931951,0.11019072,0.014959597,0.11740078,-0.057613485,0.107470825,0.09503143,0.2630541,-0.1196662,0.21043012,0.18775313,0.158742,-0.0056326212,0.13725574,0.10780687,0.048904758,-0.04527042,0.07881531,0.17976284,0.07698354,0.08290459,-0.023974266,0.3074622,-0.01942901,0.05378051,-0.16273127,0.15773901,0.10121526,0.12954049,0.19790088,-0.049977638,0.0005783006,0.15522264,-0.111852676,0.16160412,-0.04473766,0.41218883,0.08634204,0.16961884,0.14447565,0.015203493,0.04671703,0.014004412,0.13984807,0.077991456,0.1500984,-0.26317355,-0.09716314,-0.1022593,0.23239881,0.14734755,0.05287337,0.0713668,0.029007372,0.10061885,0.10478101,0.06129443,-0.18668538,-0.13352992,-0.20823653,0.03941387,-0.21897005,-0.05193396,-0.17786255,-0.013382244,-0.007654239,-0.20004655,-0.035790697,0.063749656,-0.07310538,-0.14838238,-0.10094477,-0.09208329,-0.026310543,0.13237643,0.20127471,0.034305446,-0.052941836,-0.12685245,-0.25105563,-0.084068626,-0.13843118,-0.12826853,0.15849078,0.21796896,-0.16753446,-0.12024023,-0.09560024,-0.05021693,0.08342372,-0.079287365,0.083268,-0.10141324,-0.120693006,-0.060817312,-0.10761017,-0.24018846,-0.07248174,-0.071335055,0.060868338,0.018561563,-0.049686927,-0.11648374,-0.03387128,-0.06674791,0.013451269,0.22719674,0.08551131,0.040426534,0.16318278,-0.06535981,-0.08561769,0.12053544,-0.21252754,-0.20408201,-0.376291,-0.0054256194,0.10282729,-0.23095761,0.038430657,-0.04831826,0.2024555,0.049495403,-0.11929728,-0.08076956,0.2534995,-0.1835888,0.14159873,-0.029328411,0.052890252,-0.24487719,-0.13328397,-0.08029126,0.08896937,0.091019906,-0.048266597,0.10532837,-0.08670373,0.2165333,0.12750024,0.2072598,0.023368457,0.023634084,-0.07091388,-0.11490116,0.05720712,-0.12477756,0.20074227,0.018343475,0.026714372,0.04831162,0.22564866,0.15728323,-0.011768658,-0.030368809,0.048466794,-0.04533842,-0.025735712,-0.15838023,-0.12220433,0.337573,0.09744006,0.0896867,0.05979275,-0.071700566,0.1147589,0.0765964,0.0076185414,0.18077116,0.01317708,0.16513197,0.03733407,-0.10857554,0.09365764,0.11327885,0.022936305,0.09323568,0.20070627,0.27704555,-0.05464336,0.14208882,-0.22222763,0.05985219,-0.099685796,0.108217396,0.17576075,0.337394,-0.030631242,0.022007976,-0.05555112,0.17029795,0.20993298,0.16621281,-0.07200894,-0.0026399407,-0.08868905,0.18250678,0.21197294,-0.114968844,-0.029763736,0.0073063676,-0.11721989,0.048375852,0.32548672,-0.08095933,0.0062601147,0.028346332,0.0599754,0.093976684,-0.06843433,0.2005892,-0.10984278,-0.029376332,0.27531096,0.08949613,-0.12164795,0.22276895,0.009034696,-0.039246403,0.18611583,0.017930279,-0.10216684,0.15745188,-0.088674426,-0.04781346,-0.115199864,0.082885474,0.15315542,0.13292897,0.12959452,0.00797748,-0.1156331,0.10402713,0.009253772,0.0032746021,-0.04913556,-0.159437,0.27065372,0.09169939,0.19708502,0.13317282,0.02104612,0.056396537,0.1474869,-0.10564336,0.0657695,-0.025685374,0.026530985,0.097427785,0.21098346,-0.16571051,-0.1796384,-0.05290411,0.17785417,0.11262903,0.10484228,-0.0035621987,0.12295452,0.2681545,-0.10049408,0.111763194,0.08062972,-0.15861872,0.2022682,0.15568237,-0.18279734,-0.090099975,0.07223886,0.09468222,0.25219643,0.085804485,0.03318672,-0.11477859,0.06254815,-0.082403675,0.07813462,-0.09201121,0.12532799,0.022481013,-0.25180867,0.11908391,0.12304488,0.13617888,-0.06731712,0.06362653,0.17671232,0.06638034,0.18162648,-0.06751661,0.10280932,0.11224139,0.017256167,0.12878995,-0.055016186,0.15761393,-0.01963298,-0.25364956,-0.005655067,0.22878681,0.09032619,0.111232676,0.0625067,0.012840514,-0.054138537,0.04505358,0.035337187,0.16221336,0.017770646,0.16441372,-0.15300809,-0.13993718,0.16777574,-0.046840705,0.012958228,-0.057434957,-0.310683,0.008090918,0.111580774,-0.12346076,-0.045902885,-0.033919714,0.0343387,-0.05686451,-0.09897583,0.20859486,0.11768242,0.012993002,-0.15973182,-0.31194487,0.038990382,-0.082909204,-0.24795045,-0.09801894,0.028547905,0.010520863,-0.05381413,-0.08579336,0.04708841,-0.14153636,-0.20498668,0.03757458,0.10715484,-0.009929744,0.17794843,0.09554517,-0.0006920662,0.053953685,-0.053039845,-0.10336526,-0.08132867,0.25367776,0.044428498,-0.18222803,0.025523664,0.19572937,-0.052714825,0.09969622,0.108703405,-0.23785149,-0.09600686,0.06412074,-0.15464461,-0.0424516,0.2714242,0.018750127,-0.172842,-0.11592312,-0.02140166,-0.03897399,-0.033443257,-0.08273812,0.03342369,-0.05787136,-0.08825988,0.02879364,-0.21478629,0.1696517,-0.21299052,0.09600505,0.24547519,-0.087904945,-0.057053678,-0.15486974,-0.1467766,0.19093007,0.11458095,-0.055932686,-0.09143339,0.008660109,0.073297374,-0.16227198,-0.17378645,-0.083746806,-0.12785126,-0.032918546,0.03905287,0.016542414,0.32525852,0.11049066,-0.3075367,-0.068209276,-0.08182084,-0.24079502,0.09002511,-0.15324622,-0.18306017,-0.04080385,-0.09576482,0.07076609,0.010556717,-0.0883394,-0.11241264,-0.1621535,-0.1731209,-0.09393135,-0.08800394,-0.11250693,-0.0045002284,-0.055008125,0.0205688,0.057745535,-0.07668169,0.06607606,-0.007409884,-0.0012906456,0.009029665,-0.09786391,-0.17821194,0.19646755,-0.104668856,0.012067778,-0.051759847,-0.16074887,0.04975343,-0.21121521,0.26849416,-0.16208285,-0.105206504,0.028616382,-0.15907568,-0.06681996,-0.015133416,-0.049615428,-0.0446745,0.09520467,0.0664811,0.019910445,0.012254733,-0.1845955,-0.17418171,0.09541014,-0.076775625,-0.12314313,-0.058953688,0.0011799594,-0.029455515,0.007723483,0.1448554,-0.19364195,0.0105068,0.056598376,-0.040011175,-0.002027971,-0.13220988,-0.06092204,-0.21848786,-0.02943164,0.077135116,-0.011908363,-0.06060631,-0.206743,-0.24839242,0.09941618,-0.19347091,-0.34954488,0.07083165,-0.11491381,-0.008110563,0.24557957,-0.20419717,-0.08356948,-0.023705103,-0.11011764,-0.20281124,0.116191715,0.090869606,0.11199869,0.08123609,0.24987552,0.10627246,0.018974027,0.010849491,-0.121712685,-0.18841644,-0.21955656,0.015362961,-0.023454774,-0.1284291,-0.033955358,0.100902446,0.15223625,-0.23123941,0.026137307,0.06753803,-0.040315546,0.12031975,-0.0096319765,-0.009806831,0.043096412,0.01205219,-0.058119427,0.17505139,0.0018703796,-0.16939914,-0.14199136,0.0475584,-0.002455438,-0.027060447,-0.28826487,-0.036494885,0.035286304,-0.18220727,-0.24520232,-0.025762158,-0.123881996,0.04772519,-0.046349455,0.01589847,0.3008903,0.36101115,-0.059687298,0.13925174,0.18052155,-0.047641397,0.18605475,0.053152774,-0.029958189,-0.031047825,0.05375138,0.28167292,0.14261618,-0.046449285,0.09303292,0.06736208,-0.10653116,-0.031568658,0.10214005,0.04792723,-0.011307125,-0.17660202,0.12908879,0.19772857,0.18145883,0.0728123,0.029889537,-0.053037636,0.061141904,0.091204196,-0.04431698,-0.14857024,-0.1174372,-0.049216334,0.07522165,-0.007627045,0.18640661,-0.034346353,0.1675619,-0.13263361,-0.07432081,-0.01037217,-0.08169645,0.24492128,-0.045606498,-0.012780529,-0.19079186,0.02256507,-0.33541524,-0.23268282,0.0047581815,0.022303497,-0.17495781,-0.10926101,-0.074291036,0.015360719,0.09190641,-0.03176336,0.207021,-0.1395701,-0.18923765,0.18317276,0.021200968,-0.07011357,0.013036559,-0.023404356,-0.13706738,-0.18460943,0.04124939,-0.052238442,0.10177364,-0.0068933805,-0.23361851,0.10152094,0.057375588,0.037048962,-0.13325933,-0.043309048,0.037470467,-0.1433261,-0.08139179,0.1063718,0.061374914,0.02174731,0.18319868,0.15100482,-0.20991232,0.035419423,-0.14628293,-0.08195856,0.0032501277,0.065400474,-0.085503906,0.22486594,0.0071804137,0.20531586,0.105016425,0.068627626,-0.14568512,0.069486395,0.10630822,-0.11625759,0.06518555,0.13175954,-0.08943603,0.049675386,-0.04817914,-0.020052437,-0.16061275,0.15777014,-0.09683123,0.21836257,0.08921681,0.055291444,0.0744709,0.23256817,-0.1334183,0.05924769,0.08198081,0.21372183,0.07705331,-0.066346854,-0.12374525,0.12750502,0.09262228,0.2274335,-0.048383266,-0.11235207,-0.15379198,0.067128666,0.15014555,-0.08821356,0.29103097,-0.03512203,0.11116149,0.1617263,0.14876445,0.04123873,0.24360743,0.099026434,-0.11943545,-0.18717657,0.033660542,-0.042005807,-0.037848487,-0.09275133,-0.12099731,-0.019374263,-0.16353785,0.02458543,0.08545494,-0.065777935,0.10997427,0.006720168,-0.0038041917,0.10368317,0.07896436,-0.11605053,-0.17177975,0.21681319,0.010267996,-0.14476787,0.047952984,0.03325124,-0.21159859,0.032983817,0.10470214,0.28913018,0.015210232,0.062212095,0.17828132,0.1821464,0.0634779,-0.11574665,0.12856947,0.007816919,-0.077225536,0.22062029,-0.21018441,-0.052812293,0.13089612,-0.16118985,-0.08798751,0.16303493,0.10568732,0.049350105,-0.049246274,-0.028610742,-0.07897467,0.0050537717,0.09898032,-0.014546305,0.18640663,0.04716846,-0.34370208,0.024789177,0.10015697,0.20338944,-0.15928645,0.18414375,0.15216814,-0.0007517609,-0.027290761,-0.041415196,-0.17394316,0.21074648,0.17340645,-0.09780403,0.22208749,0.11931072,-0.14853561,-0.061371014,0.062012736,0.01234538,-0.082517825,0.079171695,-0.07740751,-0.029413138,0.048371866,-0.014266414,0.12735541,0.08979602,-0.21321979,-0.04391696,0.010584769,-0.18925032,0.13639939,0.010697616,-0.1467534,0.06280637,-0.021047955,0.11930865,0.033339314,0.15393609,-0.0021295135,0.06574473,-0.04976248,-0.04499919,-0.011946759,0.20737167,-0.03792651,-0.010787748,0.06226996,0.043442756,-0.14162056,0.15011747,-0.123071626,-0.061626326,0.014778192,0.31172365,0.06872612,-0.020683434,-0.30730948,0.05932674,-0.11194803,-0.06960004,-0.1244256,-0.07781135,0.05347475,0.13064241,0.034669656,0.06707937,-0.14281064,-0.061235536,0.025372472,0.16578308,0.12874497,-0.15093079,-0.07679365,-0.030442938,-0.07101548,0.052993957,0.0081706885,-0.11230483,-0.09113317,-0.1250448,-0.021402363,-0.092582226,0.120289564,0.105859734,0.103213154,-0.19430715,0.016774839,-0.011435306,0.11604982,0.040136334,0.11280531,-0.18753722,0.29071403,-0.11554103,-0.0040793726,0.12288508,0.17196216,0.19945504,0.080551706,-0.13782713,0.31482872,0.07804399,-0.007323898,0.14314276,-0.010364021,0.10551097,0.02998805,0.15325917,0.17899542,-0.10303936,0.051415373,-0.093777575,0.04249706,-0.011332058,0.06144672,-0.08765624,-0.016495429,-0.043341573,-0.009499619,-0.0018756617,-0.09092877,0.084534764,0.072044104,0.24050558,0.13978535,0.010608851,0.07090651,0.1451936,0.29587153,-0.0868351,-0.1197058,-0.20429218,0.05637072,-0.046790916,0.078876525,-0.04481117,-0.021945614,-0.010463019,-0.13642278,0.26901323,0.046330787,0.11263817,0.017992608,0.08645414,0.0071955477,0.4919535,-0.0031282746,0.18446912,0.13640763,0.13408174,-0.10859183,0.24853496,0.17649595,0.10103052,-0.010228784,-0.09906807,0.052546058,0.14478374,0.08443592,-0.09297799,-0.17894869,-0.09707386,-0.13305451,0.044863246,0.078885585,-0.10944483,0.061597783,-0.07789206,-0.05826986,0.14283082,-0.15088871,-0.2172241,0.03036674,-0.1269851,-0.09805839,-0.26286286,-0.04783985,0.18400432,0.094750404,0.14119314,0.1231507,0.21852466,-0.005097019,-0.031950135,0.07666276,0.1950427,-0.34138247,0.063601054,0.0706633,-0.052676465,0.028015887,-0.17607287,0.03447896,0.23294887,0.0848932,-0.06867846,-0.04481137,0.07881821,0.045634575,-0.011131732,0.16946965,0.08709653,0.09542026,0.021130089,0.11260425,-0.0012869784,0.12565757,0.2062538,-0.07993178,-0.052164227,-0.021663928,0.210878,0.10799424,0.24103428,0.02642117,-0.14938354,0.2062531,0.061478972,0.026487926,-0.06447902,0.17489354,-0.15183575,-0.040912442,0.030156404,-0.11952227,-0.096472874,-0.0017386082,0.05162955,0.0024204247,0.015901066,0.011716639,0.27445835,-0.072497144,0.09258881,0.20076591,-0.12781475,0.22487651,0.0045643207,-0.082386225,0.20424208,-0.085710704,0.114013225,0.16853286,0.040624924,0.14862342,0.05781313,0.025062716,-0.029505728,-0.15130454,-0.0017198967,-0.15944928,-0.31020367,0.030680463,0.11445495,0.07134896,0.08942612,0.034913216,0.228549,0.1275055,-0.056652695,0.16513802,-0.07762937,-0.0071849073,-0.13689813,-0.005529239,0.0038113773,0.24465661,0.066895895,-0.13518442,0.06452106,0.094829395,0.17476934,-0.006676413,-0.0036441265,-0.022762682,0.030119848,0.025578476,0.039996497,0.2638043,0.25445378,-0.097044185,0.020878002,0.046407685,0.042473234,-0.12396218,0.2870155,0.1537311,-0.07636638,0.15537214,0.053806048,-0.02325424,0.0006062611,-0.0027827814,0.014496785,0.2238261,-0.1677056,-0.14863642,0.07655688,0.18283783,0.000049465143,0.20634206,0.020598015,0.15011254,-0.16052432,-0.027923124,-0.25846922,-0.024928471,0.21552734,-0.11346269,0.07351473,0.12678301,-0.16399805,0.07509234,0.040774588,0.046358433,0.026351854,-0.10929383,0.2642937,-0.051654644,0.21355136,-0.05548487,-0.16853039,0.015791465,-0.042815443,-0.15919237,-0.16061945,0.0069315084,-0.1319009,0.025678432,0.06588477,0.232613,-0.17099111,-0.06899915,0.03947836,-0.00078443467,0.0045350525,-0.058117542,-0.036906652,-0.040425625,0.018097427,0.23963702,-0.089206696,-0.04882362,0.032436587,0.16570924,0.22810735,0.17232262,0.1854475,0.12490554,0.011407311,-0.088575915,-0.06687811,0.002714063,0.060568422,0.11343406,0.04560903,0.012776075,0.0787701,-0.0016981909,0.19770876,-0.17674807,-0.019666215,0.0532744,-0.010537614,-0.012011483,0.12183191,-0.008304347,0.018422531,-0.01602831,0.06630459,-0.22696622,-0.061330322,-0.003872692,-0.07456083,0.0021782953,0.01510243,0.13599578,-0.13140044,-0.19893011,0.06418971,-0.049548816,0.09980885,0.10066966,0.014713589,0.022554845,0.023053633,0.0052261646,0.022553844,0.07106419,-0.29106358,0.19747594,-0.22800067,-0.0023120556,0.09570817,-0.1374047,-0.14832382,-0.10915345,0.027947133,0.18632853,-0.08607042,-0.0783566,0.18739046,-0.008505875,-0.24329615,-0.12876572,0.33027562,-0.007360253,-0.018173646,-0.016834144,0.06184132,-0.30580825,-0.0037617343,0.12025394,-0.1699307,-0.107259385,0.09176911,0.16748558,-0.04341009,0.09371983,-0.18440416,0.036911197,0.15718803,0.031424504,0.14061381,0.30705655,0.09351103,-0.053374358,-0.053426057,0.009841881,-0.016688893,-0.0094734,-0.07419719,-0.07731981,-0.043618694,-0.09374531,0.034583874,-0.015504042,-0.012168508,-0.15907066,0.21445933,0.06031035,-0.014320571,-0.3178563,-0.023135554,-0.035474412,0.011696449,-0.10696483,0.07849361,0.0835281,-0.0883858,-0.054596733,0.041910034,-0.018862143,-0.26116684,-0.1629147,-0.01731792,-0.14597282,0.18002634,-0.17355244,0.06344775,-0.079019554,0.0046560224,0.34039822,0.07644555,0.0162105,-0.09676169,-0.1416166,0.04290407,-0.09295689,-0.35603198,-0.13613693,0.01748948,-0.036802996,-0.2648054,0.10363373,0.19073619,-0.024475543,-0.075349234,-0.14624283,0.02162662,-0.042321183,0.041091252,-0.063231096,0.0962061,0.12866625,-0.13594697,-0.09901818,-0.03886835,-0.12696043,-0.09316933,0.02394119,0.12711988,0.06825026,-0.12988655,-0.22503158,0.03296023,0.15204401,-0.0047748326,-0.10772803,-0.11266492,-0.088186465,0.14393154,-0.05436892,-0.14336023,0.009192884,-0.2594477,-0.14226015,-0.2326122,-0.030369116,0.040236827,-0.0319671,0.16534191,0.077726424,0.027935715,0.20605077,-0.07316327,-0.044121955,0.061448894,-0.22807346,-0.038277987,0.178567,0.026942912,-0.05263789,0.04961821,0.10320684,0.13408194,-0.120744064,-0.18603002,0.04408101,-0.12694336,0.108200654,-0.048530392,-0.2715714,-0.03689424,-0.19934286,0.16274795,0.013193029,-0.022182433,0.059805367,0.18232591,0.16944654,-0.019286329,-0.1131199,0.19691058,-0.18695027,-0.24442358,-0.046851438,0.16044769,0.02361049,-0.10670593,0.056940995,0.05117415,0.035072405,-0.05303103,0.067119636,0.17363071,-0.12535049,0.019290162,0.028700352,-0.0015361748,0.045515295,0.14796919,-0.1028862,0.21561566,-0.30721182,-0.057178274,-0.09111017,-0.17366537,0.15645601,0.026099464,-0.21294469,0.0009522714,0.008067116,-0.16394855,-0.09147713,-0.06839431,0.07262617,-0.2246838,0.17116207,-0.007198218,0.2527643,-0.037668925,-0.018509762,-0.14280838,0.1873952,0.007279617,-0.0010944827,0.0010311818,0.14464371,-0.061572853,-0.24033445,0.027233614,-0.05164054,0.17621039,-0.15474792,0.2542008,-0.034488093,-0.19904345,0.20798373,-0.07818241,-0.067588024,0.012675913,0.054771006,0.07986154,0.0540691,0.08999005,-0.07204649,0.012628878,0.09701041,0.07748024,-0.07619527,-0.15232743,-0.23237607],"biases":[0.050519112,-0.03736082,-0.022796806,0.04349467,0.043663003,0.050752297,0.04191096,-0.014800848,-0.05343119,0.023336735,-0.056154784,-0.03118361,-0.028274793,-0.031060642,-0.039368603,-0.054672465,-0.006799723,-0.009263326,0.04845897,0.0038640467,0.0046321545,-0.004158386,-0.0042436817,-0.00040909424,0.006580121,-0.022239774,-0.0052193273,0.008914241,0.008271624,0.0050184736,0.004099009,0.0024361352,0.04124796,-0.08466977,-0.07922094,0.05290257,0.045565315,0.05444863,-0.041771017,-0.073653914,0.055412557,0.039491314,-0.008149597,0.06985002,-0.044442456,0.064435944,0.054485314,0.05250161,0.000048937683,-0.050443564,-0.025658008,0.032855242,-0.015379115,0.029652966,0.0037237993,0.0017552134,0.035041723,0.018024174,0.011359538,0.008031674,0.011989228,-0.01305376,-0.022289626,-0.015471494],"in_dim":64,"out_dim":64,"relu":false},"w_k":{"weights":[-0.07088006,0.055452246,0.17327948,-0.08028537,0.11893817,-0.16751644,-0.121759586,-0.19682537,-0.13389483,-0.06990278,0.20211306,-0.22712605,-0.07413448,-0.055167068,0.23472995,0.15458788,-0.21159603,-0.22732289,-0.031720586,-0.069899194,-0.17149904,-0.052199442,-0.12555365,-0.14579353,-0.0175019,-0.18727566,-0.13714464,0.121153995,-0.01588235,0.14032894,0.17405915,0.047312714,-0.036441427,-0.21412963,-0.06535253,0.052515857,-0.17522155,-0.26020333,-0.22279613,-0.1320236,0.017861258,0.16632397,0.14927936,-0.0031520661,-0.16447693,-0.045500446,0.06983229,0.17530283,0.069432996,-0.19378349,-0.06269909,-0.18461199,-0.0942559,0.08593246,-0.018580876,-0.19939218,0.021594407,0.12842202,0.14045809,-0.06589291,-0.06710852,-0.1873874,-0.018985853,0.17140156,0.14594394,-0.17163481,-0.1410419,-0.15813202,-0.15110466,-0.1365569,-0.06379412,-0.038892217,0.03685028,-0.020410247,0.015732493,-0.03116985,-0.03849223,0.21269241,0.11348092,-0.07563987,-0.03142086,-0.033484295,0.06355846,-0.0719438,-0.020059021,-0.06810169,0.17224748,0.27092108,0.13075672,0.19105226,0.20756347,-0.1590577,-0.11606988,0.047829174,0.07512312,-0.12907515,-0.23695287,0.1885466,-0.038220335,0.09318503,0.17232771,0.10950485,0.13541219,0.06509252,-0.1284819,-0.117726505,0.14669462,-0.06502563,-0.0014220962,0.013663931,-0.18968512,0.20989588,0.04177879,-0.13240819,-0.24835327,-0.00058362936,-0.17379159,-0.09851598,-0.056639507,-0.1374595,-0.03265463,-0.0037759142,0.10889144,-0.18069272,-0.13452922,-0.007917506,-0.051652405,-0.19324866,-0.16739699,-0.052270968,0.13667344,0.15381716,0.13718943,-0.067909144,-0.017432444,0.19268715,0.14079139,0.012784493,-0.010774307,-0.060529005,-0.15619758,0.1645909,0.04157786,0.042256765,0.061408423,0.13031839,0.12826899,0.12678228,0.15800393,-0.061847366,0.089977145,0.11641861,-0.16180223,-0.09418537,0.08973714,0.043835647,0.005245358,0.01754247,-0.0131942695,-0.22403269,-0.023883598,0.20119284,0.19278271,0.03092812,-0.1923171,0.19363853,0.005202682,0.2403803,0.09421805,-0.13545074,0.22405352,0.09910038,-0.124414034,-0.109467834,0.09270387,0.036046494,0.10576995,0.10141735,0.12424664,-0.20095924,-0.05662557,0.17907675,0.118429266,0.1880115,0.08649461,0.090129204,0.20191911,0.07779424,-0.028569644,-0.1470887,0.14138411,-0.055531513,-0.19066718,-0.0075233066,-0.05976345,-0.20722924,-0.0027350055,-0.030691247,0.18890458,-0.031918492,0.12660483,-0.22550634,-0.012228406,0.13557296,0.16994709,-0.22452706,0.22254224,-0.16240048,-0.16447109,-0.23388222,-0.06197761,-0.035202216,0.013662003,-0.1588685,-0.06827834,-0.26479176,-0.21761703,0.14504239,0.15395933,-0.13791732,-0.06676323,-0.16992676,0.19962487,-0.10392457,-0.070312105,-0.13859102,0.16195658,-0.0032930716,-0.13724853,-0.14291278,0.065247186,-0.03847436,0.0030653842,-0.0073619955,0.049485505,0.08247495,-0.14729762,0.09918755,-0.077299185,-0.07239523,-0.10286549,-0.14370196,0.16523086,-0.10517677,-0.17088483,-0.03629201,-0.017539363,0.11147084,0.051714033,-0.14313807,0.04691801,0.17093109,0.22286455,-0.07835899,-0.054858472,-0.09123174,-0.20906153,-0.08266596,-0.14683725,-0.17073454,0.13370796,0.09470523,-0.15420046,0.18491639,-0.022872925,-0.03320466,0.022708528,0.05717477,-0.07018093,-0.020244949,0.082278214,0.003932732,0.20901076,-0.0032565175,0.062569804,-0.088839896,-0.14632773,0.1782858,0.026633736,0.11769265,-0.04703784,0.023276929,-0.16044042,0.19485253,-0.09126496,-0.03767745,-0.027764572,0.23622592,-0.057339,-0.16745877,-0.25034922,-0.13672195,0.049637847,-0.17942594,0.045307077,-0.0008225614,0.17292282,0.044206027,0.093820825,-0.22469498,0.15118207,-0.16817158,-0.09362546,-0.022302123,0.0621381,-0.20042905,0.18091488,-0.06025861,-0.11183966,0.117838666,-0.095696025,0.11011696,0.065887496,-0.18666562,0.14784825,-0.15463048,0.09734434,-0.14258571,-0.060164955,-0.20046367,-0.14161268,-0.17256941,-0.13851263,-0.135488,0.093691975,-0.12116906,-0.085388124,0.060795162,0.12104656,-0.06310676,0.16352604,-0.26614422,-0.027938297,-0.1053959,-0.028365081,-0.18701611,0.019728092,-0.15128358,-0.13750778,0.2344731,0.039618872,-0.19148278,-0.15539822,-0.1689517,0.060745303,-0.0047660493,-0.16408399,-0.08478543,-0.040020056,0.20865121,-0.24788882,-0.07743855,-0.094101615,0.21193577,-0.24828681,0.011185052,-0.17716779,-0.12322372,0.10600515,-0.2561046,0.15552218,0.03254559,-0.024298752,0.09905283,0.13745636,-0.010195755,-0.083338216,0.0946377,-0.06094321,0.107978225,0.14106782,0.024839005,-0.075822525,0.1353846,0.008340677,-0.11596774,-0.014212032,0.07134983,-0.20395543,0.01595026,0.2121911,-0.14888518,-0.19267029,0.0825922,-0.10271798,0.13444214,-0.10303713,-0.1291838,0.20514993,0.16848825,-0.14273448,-0.10073776,-0.08736353,0.15282497,0.13667908,-0.19063073,0.074007414,0.15599991,0.24112667,-0.06263986,0.14972585,-0.0636603,-0.16774377,0.07218857,0.22796878,0.10511635,-0.0496205,-0.095062636,-0.118506715,0.17737758,-0.08586804,-0.12501596,-0.13030231,0.18673101,0.16887431,-0.024292178,0.1132643,0.06829567,0.10740065,-0.18743253,-0.20126396,-0.19226018,-0.13796894,-0.146569,0.124579966,-0.120371945,0.13320656,-0.06990803,-0.17931253,-0.06474218,-0.09437104,-0.111830786,0.115174875,-0.11001303,-0.0232012,0.15451588,0.010744782,-0.13812734,0.090278216,-0.015505903,-0.050900683,-0.072880186,-0.22538407,-0.042770345,-0.054212477,0.10279444,0.17785875,-0.032338254,-0.09125123,-0.14263752,-0.1570043,0.18120657,0.022515083,0.23872751,0.1803484,0.21253312,-0.13705379,0.13352655,0.1576774,0.11558079,-0.15169524,-0.08306175,-0.07732982,-0.057201523,-0.14567755,0.30724242,-0.1823485,-0.13306385,0.0010267809,0.043345314,0.0402264,0.07994424,0.028129358,-0.07960153,0.12106416,-0.2495203,0.24011491,0.06364288,0.03918621,0.027718108,-0.003534153,0.11359428,-0.06935195,0.15549277,0.048519038,-0.06315499,-0.20001715,-0.032901935,-0.011035133,-0.09463557,0.10270173,0.15794313,-0.084852725,0.1582667,-0.059980396,-0.06095727,-0.12349283,-0.06231775,0.057293355,-0.14399208,-0.013204677,0.08561444,-0.19407664,-0.104790464,-0.10932438,-0.14156044,0.019748481,-0.034280285,-0.20183863,-0.025659671,0.03246964,0.006149349,-0.030798335,-0.13741218,0.06156052,0.17537747,-0.10841594,0.11833441,0.008382063,-0.11643457,0.10287395,0.057133157,-0.12806088,0.270626,0.13779303,0.2733221,-0.027086841,-0.1637435,0.06598487,-0.0016175081,-0.11715143,-0.23095337,-0.05410015,0.16234906,0.15919586,0.16367011,-0.22341746,-0.27126187,-0.19533314,-0.037926525,0.08939599,-0.19678646,0.017993424,-0.09457942,-0.14053775,0.0071287923,-0.11016193,-0.10692786,0.062794246,0.15973683,-0.0049791452,-0.031958323,-0.13961492,-0.057452526,0.08720548,0.119238056,-0.07458144,0.013815031,-0.23209558,0.11895941,0.0046422533,0.11754904,-0.21644273,0.09666602,-0.045170557,0.19055939,0.19078898,0.12167941,0.09203071,0.003545161,-0.179742,0.09512398,-0.14131738,-0.09681498,-0.143406,0.18131381,-0.124664396,0.04564703,0.064212404,0.013397714,-0.19444983,-0.09457456,-0.09295332,-0.05100045,-0.10808286,-0.25808302,-0.011495017,-0.09155743,-0.15113354,0.024929052,-0.052310888,-0.101906605,-0.06062303,0.0055479445,-0.02959419,0.048965476,0.09418661,0.051837564,-0.13110906,0.06714496,-0.22879475,0.19932729,0.05091379,-0.024748823,-0.142288,-0.048754737,0.17994076,0.20982991,-0.09541261,0.03987199,-0.2666693,0.08460078,-0.0932542,0.04101168,-0.18017563,-0.10258527,0.20568798,0.059175454,-0.24973817,0.035926495,0.08583444,0.08041444,0.029386155,-0.16186722,0.11574005,0.15291303,0.14556657,-0.11380754,-0.34004807,-0.1527157,0.14319721,-0.026548618,0.06780937,-0.044563834,0.027179541,-0.13267155,-0.089445926,-0.047164645,0.12542619,0.23175713,-0.17090248,0.07674156,0.06674133,0.13849035,-0.038407307,0.04070958,0.07086884,0.036875643,-0.115330555,-0.00526317,0.093948774,0.033433203,0.044696793,0.17805232,-0.10611752,-0.04489137,0.04024086,0.2134768,-0.035012927,0.037603844,0.02564171,-0.022095026,-0.28966275,-0.12284161,-0.01633877,-0.0071779075,-0.09419206,-0.15323462,-0.12981696,-0.22004555,-0.31070918,0.053856477,-0.052233353,0.021815844,-0.041747756,0.0037842437,0.07782804,0.046275645,0.25814056,0.28235647,-0.18672581,-0.0061940015,0.0021613853,0.13454926,-0.12161691,0.2377789,-0.016093895,0.049902946,0.11275823,-0.16160887,-0.23375168,0.20420605,0.043453824,-0.09292695,-0.20854583,0.21251698,0.19287185,0.05938959,0.112964645,-0.11484063,-0.1902184,-0.13629644,0.1148416,0.0016926129,-0.012270303,0.18031423,0.07339513,0.19074257,-0.06987635,0.1840188,-0.10106827,-0.055270746,0.17494178,0.11248117,-0.14950639,0.16455449,0.14378026,-0.058292896,-0.15680265,0.08192776,0.12324266,0.03945765,-0.050182167,0.03609484,0.014251272,0.14471039,-0.08995489,-0.0033153961,-0.06925961,0.20698166,0.1721512,0.1207177,-0.09431549,0.027267657,0.097711325,-0.0734131,-0.090731256,0.08260162,0.13171908,0.059048615,-0.0939113,-0.07305109,0.22197747,0.11226252,0.252663,0.10174887,-0.072630614,0.19103438,-0.036952633,0.061087456,0.04873915,0.23100643,-0.26880535,0.027172675,-0.19878964,-0.0024578508,0.046661336,0.25664914,-0.015398501,-0.1876327,-0.017959036,-0.07173634,0.0331091,-0.24242315,-0.18837914,-0.07266993,-0.069953084,-0.031215658,-0.0059275413,-0.041089833,0.23306562,-0.07336849,-0.029022569,0.14308183,-0.09808162,0.12237744,0.25158545,0.16325772,0.13441965,-0.09110418,-0.01126641,0.011856325,-0.34032735,-0.15027958,-0.0868447,-0.07905835,-0.08195592,-0.17982486,0.10377032,0.22540292,0.10211455,0.18514356,0.1757198,0.06035774,0.044305984,-0.08357483,-0.1278147,-0.16365694,0.12428216,0.13943276,-0.055205833,-0.06350875,0.08631857,-0.14591812,0.14971954,-0.10865652,0.0025201042,0.030219188,-0.13645706,-0.16409437,0.109768756,0.15072007,0.056225467,0.19786131,0.23170805,0.038122028,0.13306099,0.05801558,0.13171609,0.12830107,0.027751148,0.102294296,-0.008665794,0.050334133,0.050901107,0.19864613,0.13574064,-0.030673152,-0.009781585,0.1639057,-0.22722115,-0.018742044,-0.04718117,-0.098386526,-0.15171668,-0.069621906,-0.0046443,0.21388638,0.004773965,-0.15146253,0.061961304,0.23022695,-0.15738197,-0.17746723,0.09683089,-0.054400735,0.17363115,0.10394952,-0.18027014,0.0955386,0.22219594,-0.0643275,-0.10996343,-0.13594763,-0.2284755,0.019434545,-0.26832283,-0.0032796876,-0.11282048,-0.17487028,0.107284054,0.16479777,0.18861972,-0.08510276,-0.08306734,0.054567587,-0.067830496,-0.22818975,0.11054927,0.030849593,0.19375122,0.09956386,0.19800684,-0.004140522,-0.10892074,0.13307106,0.07226054,-0.050895263,0.04172283,0.09398561,0.13793129,0.075182185,0.10515897,-0.0440486,0.0424407,-0.07958512,-0.15476751,-0.15178233,0.10583558,0.07157711,0.17097338,0.19128616,0.05049323,0.12953149,0.12926316,0.1354818,-0.23551893,0.25690252,0.07697235,0.03969564,-0.2575249,-0.16452634,-0.073768385,0.0521561,0.051929906,0.19077459,-0.1575415,0.07823988,-0.090987295,0.050402906,-0.0017110127,-0.034709793,-0.12116422,0.06378243,-0.13394406,-0.12650202,0.053007867,-0.036624994,0.10107594,-0.031422805,-0.032562885,-0.13705343,-0.036018007,-0.23466197,0.07906031,0.053661518,-0.04928786,0.20612827,0.03192893,-0.10581723,0.07133313,0.077592164,-0.07637642,0.3013957,0.084675595,0.102863245,0.09217835,-0.083746456,0.18214157,-0.15273635,0.10143234,0.03720649,-0.15485492,-0.0654779,-0.051047828,-0.024823857,-0.052334864,0.2548479,0.14729802,0.051415555,0.099699795,-0.20876984,-0.022245912,-0.06989635,0.18699788,-0.16531111,0.22821797,0.04683359,-0.04247567,0.0043510026,0.004074185,0.1617513,0.11124719,-0.011980235,0.08851885,0.004266975,-0.023474723,0.013066122,-0.15855575,-0.03977781,-0.20127591,0.09176552,0.045392428,0.25435424,-0.17081577,-0.15304779,0.14604695,0.026360044,-0.039362162,0.027356232,0.06089052,-0.04513928,0.17098199,0.27500096,-0.08075675,0.12563442,0.015019352,-0.09679722,0.06189736,-0.07438677,-0.04182928,-0.0570574,0.03572526,0.08441694,-0.18105905,0.021787142,0.044284772,-0.04796489,0.013668941,0.23678094,-0.30520955,-0.037193876,0.12126802,-0.0131152095,-0.15143901,0.2787381,0.15847094,0.24162771,-0.07843905,0.19014056,-0.08213141,-0.051253747,0.22297344,0.15708585,-0.2506081,-0.14762603,-0.028130095,-0.18872735,0.12828982,0.094375424,0.27433506,0.056518633,0.104823746,0.19116701,-0.2151611,-0.00029318608,0.041423153,-0.0441114,0.1302639,0.0011107534,0.07234113,-0.11189039,-0.027297102,0.19416043,-0.09183616,-0.15730047,-0.15439434,-0.113209605,0.19475095,-0.14787698,0.13485512,0.11417106,-0.15432845,0.12811464,-0.14975096,0.18654664,-0.09493202,-0.17685336,0.024099488,0.12413074,0.053148434,0.09441457,0.10039437,-0.12872016,0.0434752,-0.19565265,-0.17929874,0.038834665,-0.17068136,0.089655876,0.22138353,0.09002583,-0.10628139,0.118489146,-0.018648034,0.07001782,-0.12721103,-0.17974707,-0.19541714,0.04793371,0.09779145,0.027822157,-0.04439625,0.0063789026,-0.0038799243,0.11915769,-0.065224014,-0.048024636,0.2437453,0.035888445,-0.21755067,0.04806488,0.16820273,0.13113612,0.0053978087,0.07005327,-0.18383905,-0.007077039,0.1353471,0.035688836,0.07535078,-0.11562044,0.15643859,-0.13250327,-0.09814148,0.09781306,0.077588245,0.21687345,-0.18183053,-0.107391395,0.28533354,-0.14419955,0.10787615,-0.19066526,-0.028425228,-0.040161543,-0.12706706,-0.22425833,0.087139644,0.0054972274,0.11931237,-0.15378237,0.075279586,-0.118432,0.14529702,-0.028500343,-0.067995645,0.12771232,-0.08638224,0.1800149,-0.08591762,0.13100047,-0.16187178,0.06709707,-0.114403434,0.041435134,-0.20917289,0.09886944,0.0480195,0.17327654,-0.18552823,-0.070382565,0.12507853,0.024847839,0.12547794,0.022176228,0.11062614,-0.06661027,-0.06432312,-0.08730147,-0.023811989,0.051989708,-0.017301956,0.0671086,0.21568935,-0.14031994,-0.07051284,0.18172656,-0.14226556,-0.10488878,0.15169385,-0.17685893,0.058614463,-0.02211671,0.024913777,0.15453905,-0.13501634,-0.031432092,0.21413727,0.032136116,-0.12598935,-0.065741,0.09147477,-0.08062694,0.116988815,0.07583382,0.19280475,-0.17379792,0.11925794,-0.015798513,-0.2594788,-0.17333165,0.11933735,-0.176779,-0.2576022,-0.12063216,0.27381736,-0.09334384,0.04079345,0.25794047,-0.107500985,-0.00574151,0.23001985,-0.103880584,0.049317647,0.14970417,-0.098839514,-0.12760139,0.0041701826,-0.11658578,0.03843087,0.0027279796,0.1634545,0.07446687,0.12824287,-0.05749948,0.0979688,-0.2122321,-0.09111256,-0.17179002,0.083607465,0.09394728,0.035362937,-0.18458278,0.09939625,0.028674101,-0.07405081,0.028051913,0.16614747,0.023430903,0.15005311,-0.12771173,0.10872739,0.25018206,-0.09750829,0.17505534,-0.016209416,-0.04196229,0.10137719,-0.07701598,0.21164946,-0.131087,-0.051299527,-0.117561586,-0.079650775,-0.025089845,-0.16921301,0.14560921,-0.0314795,0.19455265,-0.08155362,0.049575888,0.14527246,-0.09229169,0.04500586,-0.04926411,-0.10359601,-0.064713985,0.00008519191,-0.040795706,0.09908383,-0.07869194,-0.16627337,-0.14499143,-0.09668614,-0.038372334,0.01823008,-0.13140498,0.11600128,0.08334605,0.023431813,-0.1400397,-0.0599866,0.12648514,-0.19554526,0.14260462,0.10678517,0.16037361,-0.11464056,0.19524743,-0.051335596,0.21076398,-0.21774192,-0.11922844,-0.049968466,0.05744341,0.2708399,-0.04532184,0.05266278,-0.14293441,-0.09345692,-0.13651554,-0.066055335,-0.030648965,0.119582236,-0.1092437,-0.1828393,0.049719855,-0.24795574,-0.26377797,-0.014927858,-0.18725763,-0.09361703,0.20443097,0.030045629,-0.056407686,-0.15462807,-0.16376416,-0.04910755,-0.11792153,-0.14809763,0.050376095,0.108848445,-0.07720666,-0.09266259,-0.23250662,0.035781484,-0.035134207,0.03586959,0.15377837,0.13661575,0.16297518,-0.13649733,-0.050244715,0.05187629,-0.104797706,-0.010246889,-0.015534031,0.20364484,-0.24716109,-0.05342575,0.12635925,-0.21933945,0.033669535,0.20862707,-0.06904436,-0.048138008,0.022151336,-0.045981932,-0.19623017,0.050572373,0.0648884,0.15080433,0.07052253,-0.08176724,-0.1560684,0.14073889,-0.02965173,0.29426703,0.11709687,-0.10838841,0.014696477,0.008099305,-0.16271196,-0.15310939,-0.22395328,-0.18324336,-0.12201643,0.17696035,0.03332816,0.059083562,-0.08478183,0.052526332,-0.14231545,-0.12396756,0.010858664,0.21264243,0.05283,0.047094997,-0.10592011,-0.0304812,0.14413041,-0.088946715,0.14648616,-0.22250359,0.1070112,-0.16470009,-0.10038099,-0.13854894,0.04864441,-0.20083207,-0.03887642,-0.14242406,0.21695729,-0.03522503,-0.003080011,0.06507272,-0.029380027,0.13650496,0.051694997,-0.09026465,-0.071016915,0.1151365,-0.06684715,0.16994293,-0.09552201,0.030014018,0.029421022,0.04866314,-0.03454841,0.20948957,-0.08002882,0.060020436,0.13580932,0.15127651,0.13399221,0.12432586,0.18290637,0.05057529,0.0050531486,-0.18643329,0.2689598,0.18184637,0.024759559,-0.18296969,-0.1006829,-0.13790506,-0.1706555,-0.006782471,0.19169134,0.057953533,-0.033153042,-0.2445219,-0.03414858,0.13067347,0.11730077,0.18816255,-0.012792836,-0.10235297,-0.18617141,-0.105506696,-0.09205767,0.13735761,-0.068962805,0.05887476,-0.15509437,0.24873838,-0.0716495,-0.1594085,-0.12238874,0.14432307,-0.033150226,0.10545163,0.11669844,-0.035997923,0.07832558,-0.16750206,0.13121568,0.17096041,0.16774185,-0.008234754,0.17062223,0.13697076,0.023399966,-0.14261504,-0.07082712,0.026142783,-0.16767716,0.02832557,-0.07326366,0.10277169,-0.0901578,0.11653739,0.025251709,0.19394626,-0.0035303195,-0.05819031,0.1168176,-0.06844335,0.045179866,0.102788724,-0.12393065,0.24911197,0.09035691,0.07379649,-0.13389513,-0.19518624,0.0073328214,0.037864916,-0.13036446,0.106561996,-0.116429426,0.023961604,-0.0688699,0.13544053,-0.118549936,-0.06267841,-0.2123624,-0.07320486,-0.26527828,0.068672456,0.24840295,0.005241017,0.04831901,0.116356954,-0.04078404,-0.03173332,0.13362902,-0.036124542,-0.02303568,0.2652991,-0.019999107,-0.03448072,-0.1429124,-0.09238118,0.12045871,-0.06464072,0.071306296,-0.18008427,-0.0109280925,0.042724296,-0.18890542,-0.0068346686,0.15009046,-0.22557567,0.14841878,0.22625415,0.0101050185,0.10018547,-0.047817685,0.07890609,0.027028242,-0.16215108,0.07800857,-0.14362787,-0.023580946,-0.124308884,-0.03158982,-0.24567012,0.0459424,-0.057141688,0.20162152,-0.026332803,0.07763322,0.115361825,-0.019533293,-0.23319234,-0.22169724,-0.11743472,-0.04039311,-0.3385649,0.20490408,-0.11207002,-0.0032162126,-0.031966425,-0.20231427,-0.15020287,0.21149893,-0.085774444,-0.084035605,-0.041400004,0.055810824,0.059303924,0.040327616,0.0006292501,-0.024792103,-0.002810562,0.18760647,-0.13468237,-0.07069241,-0.09602522,-0.13849801,-0.04925964,0.012897269,0.036504257,-0.05473908,-0.12720953,-0.037198327,-0.1275756,0.047522977,0.0120983375,-0.0865406,-0.23623379,0.06514908,0.0075273337,0.012308169,-0.15905415,0.12615143,-0.18298219,0.144533,-0.058805905,-0.12206717,0.113304175,0.21458209,-0.15777412,0.11963118,-0.2084129,-0.17282672,-0.033845026,0.06962478,0.30935633,-0.13074732,0.20220612,-0.16298221,-0.23253034,-0.07915401,0.077254035,-0.12835027,-0.03531878,0.0102475975,-0.0018539029,0.2393757,-0.18547484,0.0053835968,0.06717435,0.11236989,-0.011526903,0.14277937,0.08703726,0.091856636,-0.09666498,0.03944154,0.109390914,-0.18665066,0.03883144,0.13884343,-0.021341505,-0.031663567,0.02464041,0.016649699,-0.16658516,-0.09250953,0.111121796,-0.06605537,0.088775314,0.13114174,-0.1568772,0.08514333,0.089448184,-0.11544406,-0.11138594,-0.1059698,0.15083733,-0.03183944,0.14141122,-0.019770043,-0.15674627,0.18303147,0.20760013,-0.13228479,0.19893092,-0.15543056,0.18666697,-0.16759539,0.010722316,0.08873485,-0.0492433,0.16893621,0.103710264,0.016845807,-0.15523247,0.023465423,0.17565876,0.021506604,0.04501412,-0.0041553453,0.21558285,-0.1122476,0.011963492,-0.074255146,-0.08596864,0.007863841,-0.22938421,0.12627637,-0.29466605,0.016952982,-0.18486062,-0.12088293,0.07060709,0.16348234,-0.13561893,-0.044382624,-0.13265868,0.042874694,0.059421595,-0.11260684,-0.034976076,0.018494183,0.06752631,-0.23040196,0.12229128,0.06866727,0.010947292,0.061680164,0.08940109,-0.18119946,-0.026511319,-0.14817417,-0.06262693,0.17159067,-0.08532067,-0.031182421,0.122039355,-0.06357341,-0.08720232,-0.04621729,0.036751214,0.06918262,-0.13088661,-0.08454043,0.06845913,0.17758754,-0.13934883,0.17069982,-0.32177317,0.044698887,0.14078465,-0.14804989,0.018321387,-0.071482316,0.14781657,0.09531219,-0.19001126,-0.09575318,-0.061698906,-0.10271561,0.14909509,-0.13078323,0.009699029,0.071356945,-0.10846235,0.074738264,-0.12162751,0.040415265,0.25569642,0.024659216,0.110429585,-0.09999036,-0.06673422,0.020838834,-0.011903295,-0.11195185,0.033279784,-0.1465439,-0.0055909753,0.031576395,-0.21625958,-0.023874778,-0.20150125,-0.16494407,0.013443081,0.21530612,-0.072523266,0.08272291,0.1411134,0.062147684,0.14790653,0.18751238,0.0581121,-0.057031877,-0.04063561,0.03523874,-0.15621005,0.20031045,-0.015674235,-0.10310885,0.055708297,-0.112843946,-0.04983219,0.03760772,-0.18200076,-0.16209035,-0.19083802,-0.17719392,0.03383998,-0.081820555,0.23319887,0.04890033,0.31123403,0.09341545,0.12637708,-0.08696509,-0.01781299,-0.057640105,-0.115862794,-0.23506202,-0.25160772,0.11070505,-0.09679725,-0.15592371,0.05619589,-0.08273304,-0.12732583,0.14827517,0.14120394,-0.027577775,-0.12746707,0.13033563,0.14672564,0.12617135,0.07953078,0.0016815583,-0.06010997,-0.05293447,-0.0764974,-0.005363319,0.030271007,-0.15757778,-0.21614757,-0.10076324,0.2708565,0.01734613,0.08587898,0.09734744,0.04897972,-0.039792348,0.21502084,0.121401474,-0.042439282,0.0374163,-0.04290327,0.07368603,0.11769862,0.1873396,-0.15222834,0.077099025,-0.08961225,-0.10301619,0.021104055,0.11021419,0.008548545,0.015626939,-0.19798878,-0.064338654,0.043154676,-0.2370348,0.084070526,0.06464319,-0.1649018,0.034382634,-0.13731252,-0.042563573,-0.013267097,0.1529537,0.109000586,0.1467613,-0.065714225,0.11587408,-0.08317092,-0.034096472,-0.012019512,-0.26627463,-0.25039238,-0.10215341,0.030766137,0.17505161,-0.07123897,-0.11752113,-0.31182465,-0.10444528,0.09090663,0.092923395,-0.080810815,-0.054632418,-0.06176475,0.08941251,-0.11576003,-0.10819513,-0.12907065,0.050644767,0.20757101,-0.23713404,0.13070752,-0.1728057,0.09922118,-0.073348396,0.06903305,-0.08503292,-0.1468426,0.17227474,0.06242337,-0.030543145,-0.09722995,0.06391635,-0.082232,0.15826935,-0.09343303,-0.038871802,0.18125905,-0.16499951,0.07330983,-0.12305096,0.13709897,-0.0033230935,-0.018384522,-0.05051595,0.16829461,-0.020218048,0.16637842,0.12175755,0.0048860004,-0.12886404,-0.09626469,0.018374387,0.0738454,-0.15667619,-0.13434613,0.25611785,0.017555533,0.15533106,0.15437254,0.08394548,-0.15979478,0.1165925,-0.03570695,0.12419094,0.030170303,0.12172573,0.09658342,0.21204785,0.11564722,0.27441126,0.04626874,0.18432032,0.28001073,-0.101090625,0.2131205,0.10193788,0.029670682,0.17453018,-0.054208174,0.024971785,-0.037812818,-0.062132783,0.017657083,-0.20245358,0.02437291,-0.01775179,0.1666621,0.026049739,0.0384698,0.02620102,-0.2033408,-0.11407408,0.024832861,0.21369602,-0.021241575,-0.0010299963,0.08084863,0.1209729,-0.028505137,-0.17201337,0.20764121,-0.18874246,0.0127089815,0.11514368,-0.10270052,-0.21008913,-0.10223259,-0.18440612,-0.117729634,0.16399412,-0.11824111,0.111061655,-0.015742252,-0.039899707,-0.15270787,0.2103943,-0.189691,0.080136746,-0.009848198,0.05225029,0.097038865,-0.24644324,-0.10370199,0.011088263,0.033508934,0.046425387,0.023496052,0.12805033,-0.14493087,0.08256812,-0.18345776,0.13715166,0.1048875,-0.14494659,-0.07733205,0.061016716,0.051226337,-0.13421218,-0.154664,-0.09732805,-0.0193203,-0.034225397,0.17615004,-0.109729566,0.12288106,0.1714246,-0.12378951,-0.1416382,0.10764846,-0.1425413,0.14490071,-0.032471173,0.0059980843,0.15751904,