{"ego_encoder":{"weights":[0.051188357,-0.02303162,0.13215345,0.29587093,-0.26795685,0.17379515,0.13838686,0.15303326,-0.09849356,-0.0376695,-0.17001417,-0.008714537,-0.28061742,-0.22945674,-0.054658283,0.083811134,-0.38782746,-0.414733,-0.24168602,-0.018243631,0.10052522,-0.07528657,-0.0498697,0.47581488,0.4914522,0.115382984,-0.27092767,-0.26641142,0.093610376,0.26362854,0.020810574,0.30279636,0.003780933,-0.17582135,-0.07348685,0.3323183,0.11044061,0.13773201,0.08532015,0.082566455,-0.0119413035,0.19609787,-0.28100464,-0.22961459,0.09665987,-0.17867854,0.25544345,-0.26166087,0.265029,0.29240683,0.015984869,0.33609757,0.33828256,-0.17855962,-0.15671784,0.045995563,-0.30655992,-0.01697715,0.32803366,0.085056946,-0.01262476,-0.095955804,0.27319515,0.22627826,0.03845183,-0.09975104,0.13471785,-0.2771436,-0.1275392,0.15603864,-0.18565564,-0.39956012,0.30429453,-0.27907193,0.2167145,0.3560249,-0.14518827,0.089734346,-0.098672196,0.051890522,-0.3004657,-0.0040341876,-0.18736228,-0.06406746,-0.11436321,-0.011171182,0.100052066,0.06781746,-0.07264469,-0.33360237,-0.16339475,-0.20745103,-0.4199581,-0.34410015,0.10553927,-0.010336756,-0.11048809,0.2775432,0.075166605,0.44162583,0.019727662,-0.5177472,-0.20543249,0.141857,0.17925273,-0.10945494,-0.28382108,-0.07643078,0.24335058,0.15261011,-0.17409737,-0.20045686,0.008631732,-0.3295242,-0.00756591,-0.0025208672,0.12793474,0.04611484,-0.14114639,-0.3074948,-0.23077004,0.154037,-0.0639084,-0.01912022,-0.04004821,0.023471195,0.2465348,-0.164547,0.099326044,0.39014766,-0.010285315,0.32454398,-0.108521804,-0.06925267,0.15166987,0.26368886,-0.1186051,0.18282568,-0.087841325,0.01951532,-0.29636338,-0.19332859,-0.18020184,-0.44282547,-0.057402447,0.34953701,-0.09977436,-0.25685936,-0.12227671,-0.52003217,-0.11923181,-0.3471145,0.28921688,0.25545833,-0.0071582138,0.03863594,-0.18892196,0.0031564748,-0.2862597,0.10598252,-0.019355781,-0.33460674,0.1281848,0.015567167,-0.09037384,-0.009810612,0.290226,-0.05598607,-0.10303593,-0.2890205,0.000814884,0.0663848,0.26773617,0.26803914,-0.44187158,0.19511598,0.18568717,-0.034215827,0.09608847,-0.22087404,0.12119154,0.09844935,-0.1165731,0.20450276,0.14585641,0.15430754,-0.20526457,0.1429486,-0.05198586,-0.018722918,-0.13113305,0.39396968,-0.2545408,-0.10812584,0.43842253,0.055943117,0.14325197,0.10625469,0.43298867,0.01140707,0.15298,0.051116213,-0.22455916,-0.11698428,0.57159734,-0.36859235,0.05608057,-0.0440565,0.004494685,-0.08551782,-0.089891635,-0.23947045,-0.32622156,-0.25666183,0.17434058,0.044654228,-0.002578424,-0.053376313,0.30849174,0.010895044,0.023535317,0.00052235334,0.30763763,-0.079496205,0.41379985,-0.34190735,-0.023397423,-0.029940113,-0.26408657,0.20376757,0.010521133,-0.27771416,-0.1589226,-0.31723475,0.0147049455,0.1608465,0.016641123,0.12572552,-0.22938722,0.07242882,-0.22319897,0.047359034,0.29437828,-0.14880101,0.25956443,-0.37650365,-0.5983854,-0.31351098,0.005647773,0.07760882,0.13692674,-0.14268959,-0.036612745,-0.23786141,0.0052149175,-0.109948,0.027833015,-0.04504727,-0.050517507,0.23139139,0.04429956,-0.3505646,-0.022035586,-0.35666817,0.07522475,-0.108582884,0.06125979,-0.23296894,0.5226422,-0.13923042,0.09799227,-0.4374202,0.2769093,-0.29849672,-0.38691756,-0.2619633,-0.24516197,-0.25833064,-0.24338388,0.12785685,0.16360828,0.28985062,0.101130396,0.097452424,-0.48523015,-0.16810258,-0.15574047,0.1610792,-0.15496708,-0.014375234,0.32040128,0.19160895,-0.20135586,0.04364474,-0.20538244,0.09059217,0.14036472,0.33854896,-0.039775815,-0.43437123,-0.079525515,-0.0635048,0.058998406,0.1627187,0.056956433,0.31757414,-0.20815547,0.26431584,-0.18143529,0.08818766,-0.18029006,0.38095647,0.11340236,-0.29730642,0.21495573,0.05757432,0.16843094,0.1479801,-0.114101894,0.31505507,-0.060178734,-0.195168,0.06606104,-0.23892455,0.36216837,-0.1727549,0.26894704,-0.06314467,-0.06385125,-0.14880222,-0.30087876,0.15944168,-0.006476088,0.055743705,0.23403083,-0.4254901,-0.008632388,-0.2493648,-0.23876128,0.18499386,-0.19988912,0.47393525,0.27450922,0.43982428,0.009737939,-0.06011697,-0.4348926,0.012766923,0.23175342,-0.31941733,-0.36180392,-0.27342916,-0.20082785,0.19519888,-0.18532649,-0.23540886,-0.049989138,0.18007451,-0.081928305,-0.3973906,0.08423232,-0.35576913,0.13656048,0.13256288,0.15134604,-0.3393291,-0.16468543,0.08168805,0.33982742,0.30613622,0.25942993,-0.17599659,0.11964481,-0.3925468,-0.28045985,0.21813132,0.1327908,-0.016893208,0.0059852772,-0.08626591,0.29278624,-0.1342831,-0.5405709,-0.2348143,-0.17831354,-0.039310146,0.031109236,0.39654452,0.079359755,0.02686993,-0.009564894,0.5510854,0.3115333,0.16953965,-0.14984559,0.30379784,0.109940164,-0.486325,-0.26332855,0.3719892,0.029186392,-0.14254081,-0.32966575,0.09248106,-0.3383827,-0.33137316,0.014097247,0.06908418,0.16768032,0.039190486,-0.15481703,0.28759035,-0.2828517,0.1636984,-0.030161364,-0.13561559,0.212926,-0.05074658,-0.39810956,0.35815793,0.023983344,0.030871933,0.1295205,0.03617379,-0.165083,0.3254133,0.31243834,0.11100504,0.31175926,-0.10073951,0.16262366,0.14244753,-0.43135256,0.012704894,-0.050915156,-0.123877674,0.3239724,-0.02069238,0.1722362,-0.32847983,-0.23987341,-0.14504944,0.10242027,0.28962022,-0.33330202,-0.20460162,-0.24465549,0.04756639,-0.038486507,-0.27045596,0.34027267,0.2746605,-0.005440862,-0.24421799,0.066007264,0.2473918,-0.16032635,-0.115436,-0.21158457,0.20052087,-0.19741565,-0.10978657,-0.26968497,-0.07918058,-0.31888577,-0.020915959,-0.085138164,-0.337479,-0.50240827,0.20765217,0.24483195,-0.014799046,-0.28754258,-0.20455608,0.393959,-0.03012757,0.31131655,0.18214105,0.087522745,0.14518732,-0.13175116,0.15013099,-0.06762432,0.09354768,0.062859505,0.08741867,-0.060700092,0.3517435,-0.34583074,0.22331598,-0.06688092,0.20834126,-0.42040524,-0.26670325,-0.08137486,0.015649013,0.007445688,-0.36660156,-0.17217834,0.34765875,-0.06480409,0.1529876,-0.19564138,-0.030176194,-0.020545864,0.3027806,-0.0077214474,0.052650087,-0.42948556,0.036756203,-0.35158092,0.023707638,0.058969405,0.038976856,0.38450238,0.092271686,-0.05527202,-0.13153459,0.17147738,0.15912963,-0.113562614,0.10854163,0.2911529,-0.21356194,0.45850408,-0.019323442,-0.33300063,0.018161528,0.14197913,0.030142674,-0.059053008,0.20447297,0.24469654,-0.124372534,0.41106468,0.19547765,0.10318828,0.04611297,0.24451604,0.16460435,-0.025490604,0.3900481,0.0040828036,0.08103429,-0.31337288,-0.15155004,0.14741415,0.32107046,-0.1580396,-0.12722585,-0.2214115,-0.10475383,-0.02964436,-0.29579473,0.23673764,-0.10440545,-0.17701818,0.13687207,-0.08802638,-0.28450176,0.23527358,0.3029356,0.22261383,0.008597521,0.10019387,-0.18049166,0.27122977,-0.3848604,0.025318487,0.21886678,0.14235204,-0.082385294,0.13363682,0.18294907,0.08969996,0.32048586,0.175631,0.12587987,-0.20151728,0.18809935,-0.09879577,-0.14387749,0.06038597,0.10615315,-0.0818211,0.060723312,0.26850593,0.07757594,0.004601515,0.15405087,0.32349437,0.33438098,0.088890985,-0.2731259,0.028639792,0.09513534,-0.32576653,0.050805893,0.03715448,-0.12602139,0.119790204,0.33027658,0.27722275,-0.10691208,-0.0054467274,-0.04263741,0.033269938,-0.09753596,-0.07625951,-0.22773455,-0.018633367,-0.04250985,-0.2076369,-0.1447138,0.1033637,0.012518755,0.3324048,0.30439717,-0.18498562,-0.13854066,0.19937871,-0.047330726,0.27051985,0.18072324,-0.33681142,0.38095504,0.2986061,0.17147447,0.28693515,-0.033234462,0.26973104,-0.01744078,0.19373286,-0.3290742,-0.04392159,0.09922818,-0.15518102,0.07107111,-0.072669074,0.10692335,0.014058464,-0.26571256,-0.046226624,-0.43741474,-0.18896966,-0.17251724,-0.048702188,0.096921586,-0.014203424,0.22822669,0.21410799,0.06411535,-0.09722104,-0.21286331,-0.034544807,-0.14704861,-0.018652255,0.283759,0.079314515,0.16709284,0.3326536,0.17268498,0.28691208,0.04726025,-0.2448333,0.11470582,0.10399945,-0.12760517,0.39090344,-0.39041135,0.06169855,0.24781045,-0.032578874,0.0013901108,0.0034149801,0.03628616,0.008064561,0.10317556,-0.4625223,0.19004467,0.091930754,0.15509957,0.017659867,0.12875484,0.09750856,0.23010461,-0.35425338,-0.28480735,0.3332752,-0.25008103,0.030130027,0.14428446,-0.18421184,0.19360729,-0.15369128,-0.17008978,0.06723043,0.12872052,0.23188932,0.10680576,0.36123574,0.25219098,-0.21385491,0.12516558,-0.4037532,0.23539647,-0.2781973,0.28566948,0.043618787,0.06270425,0.20397562,-0.28713408,-0.06490448,0.21124342,0.013664558,0.042283084,0.18162592,0.12061225,0.06390377,-0.21913363,0.009235221,-0.61613727,-0.3351685,-0.38446397,-0.34100422,0.17829199,-0.003908642,0.23860416,0.23984061,0.06605296,0.15838483,0.17129916,-0.25841802,-0.40315294,0.20868064,-0.037040804,0.049153402,-0.006091591,0.013382564,0.19478999,0.23583436,-0.3161821,0.10920763,-0.17058323,0.060762595,-0.10097802,0.004589843,0.41045097,-0.4294236,-0.6569816,0.038048375,0.026359001,0.0038308802,0.26052386,-0.12885891,-0.22931089,0.12963575,0.16126965,-0.050563022,0.027435983,-0.0713265,-0.23838386,-0.25338438,-0.05960542,-0.069425695,0.19161297,0.35921115,-0.33335504,-0.4120646,-0.15683262,0.15972553,-0.19131587,-0.21233284,-0.3049712,0.60717803,-0.26734194,0.2589991,-0.158494,-0.06553287,0.014240301,-0.32490835,-0.011153493,0.1862771,-0.3961181,-0.18534102,0.014210074,0.20198964,-0.18428247,-0.086359896,-0.49642015,-0.15504035,-0.00042038277,-0.04974755,0.0064249677,-0.22856198,-0.20905308,-0.21156566,-0.31038237,-0.17556018,-0.28435007,0.33077645,0.1311914,0.28669435,-0.09471273,-0.16961378,-0.25054878,-0.089923896,0.19829309,-0.50271505,0.23176306,0.11939676,0.07559919,0.1652904,0.13092595,-0.29912192,0.17793526,0.1386711,0.37848508,0.2517849,0.34663537,-0.06013503,-0.3348213,0.2591057,0.030033834,0.020436881,0.039159294,0.14559326,-0.04468614,-0.28035817,0.04934863,0.2091377,-0.069348805,0.10650403,-0.0010909091,-0.16462311,0.17558004,-0.22621043,0.19320099,0.036472134,-0.033557624,-0.14769208,0.41450396,0.27801752,-0.26163286,-0.3524627,0.29677576,0.02222056,0.24965614,-0.09772501,0.08268279,-0.15732223,0.19227566,0.16502102,0.21663734,-0.053333923,0.19548544,-0.11350192,0.16624466,-0.013744549,0.14332189,-0.041351546,0.15131707,-0.45970386,-0.14946821,0.22229157,-0.25132948,-0.041646242,-0.3611712,0.2289488,-0.0076014413,0.0694125,0.048785575,-0.14585637,0.45926243,0.28606513,-0.14120269,0.3986507,-0.2101724,-0.15794921,0.043229297,-0.033106834,0.22552252,-0.17657453,0.28067166,0.08355575,0.070960686,0.15847738,0.16267247,-0.052238952,-0.04718161,0.15659739,0.068423174,0.32546023,-0.13302438,-0.23765127,-0.036761716,0.05972937,0.12772317,-0.290056,-0.15881173,-0.21102358,-0.1914259,-0.009984807,-0.48881233,-0.09534424,0.1827052,0.21807218,0.30923444,0.021586401,-0.17218906,0.13981938,0.27690017,-0.3820963,-0.13108571,-0.18672302,0.118651286,-0.12973146,0.18245971,0.03889263,0.05840984,-0.19281974,0.0890821,0.29360127,-0.55734235,-0.25922272,-0.1333405,-0.12591211,0.34191617,0.24374896,0.24918431,0.22207251,-0.09111584,-0.021800911,0.28396082,0.20584929,-0.08073052,0.04426768,0.334494,0.106046155,-0.15390813,-0.28084236,0.08306314,-0.16793445,0.20029728,0.2476242,0.035140127,-0.11746478,-0.09497655,-0.04002509,-0.33381784,-0.09377109,-0.2228252,0.29815283,-0.090322785,-0.06921496,0.27341038,0.004869789,-0.2089721,0.28844053,-0.04341497,0.29954582,0.16831702,-0.29397368,-0.106804304,-0.25942087,0.18526532,0.14767571,-0.14983353,-0.02564819,-0.23059733,-0.04571751,0.09743875,0.21993104,0.30118644,0.39463416,-0.26799393,0.11423601,-0.20338269,-0.29429013,-0.12969007,0.031635735,-0.009370996,-0.27049336,-0.13905467,0.06359775,0.057776526,0.30028838,-0.21569869,0.013259887,0.2720722,0.10157261,0.22603832,-0.3791534,-0.30252773,-0.03758227,0.06673255,0.1837026,-0.3949654,0.064998545,0.1547145,0.35661766,-0.045801576,-0.06390657,-0.27299747,-0.09368111,0.071929954,0.20260996,0.007480141,-0.1222976,0.2701074,0.16782883,-0.033045445,-0.20881024,-0.09235303,0.17684987,-0.15494412,0.24614698,0.2933989,0.23189886,-0.047984958,0.051656637,0.27986076,0.053279065,-0.313689,0.328875,-0.24824198,0.042616803,0.26423642,-0.0036974333,0.36824605,-0.033129748,0.33883917,0.25302273,0.22166535,-0.10228662,-0.28275144,-0.096045524,-0.05446983,0.080623716,-0.22330457,0.35877994,-0.1036105,-0.14350675,0.21434978,0.10117849,0.09504829,-0.19919622,-0.2041446,-0.28459883,0.05349224,0.12197093,0.15262331,-0.15197925,-0.17609812,-0.2459663,0.06538238,0.109568335,-0.1908368,-0.13190925,-0.15307848,-0.24385674,0.12166544,0.33768693,0.22166397,-0.35278705,-0.05400653,-0.27192703,-0.1420545,-0.23593923,-0.10314112,0.08851692,0.09104098,-0.041815218,0.020929325,0.45723283,-0.2087175,-0.09944868,-0.3612638,-0.059582844,-0.19009817,-0.21743016,-0.21081121,0.20662048,-0.13424057,0.05553626,-0.06927975,0.1521775,-0.15927474,-0.12428871,-0.38328952,0.29234734,0.13972612,-0.30888554,0.13438697,0.14692967,0.028804215,0.14673531,0.17383479,0.30182868,0.044183284,-0.16178828,-0.087867126,-0.3906587,0.20572038,0.4590493,0.17129655,-0.22427896,-0.03214543,-0.13197912,-0.28262582,-0.18391064,-0.29187983,-0.08151531,0.01472675,-0.19476315,-0.120183356,0.21975401,0.21298465,0.41583845,-0.20378882,0.02523251,0.15220447,0.012170507,-0.26097333,-0.23495908,0.17594574,-0.25232336,-0.20075823,0.18201442,-0.15266468,0.049226917,-0.19390517,-0.1463648,0.07742576,-0.29874122,0.2865755,-0.042333316,-0.029332504,-0.34727675,0.042247526,-0.02649417,-0.19945028,-0.27571958,0.102628864,-0.39228922,-0.08395503,-0.27960998,0.18161942,-0.051505443,0.52759284,0.1990143,0.35682598,0.2934042,0.16933134,0.069819674,-0.13621895,-0.12150167,0.13862729,0.12820376,-0.14059548,-0.31720185,-0.017382454,-0.024223125,-0.019657893,0.0016589721,0.006559448,-0.11215138,-0.0036827961,-0.24575761,-0.06473577,0.11038601,0.09528305,-0.2149983,-0.25329515,-0.25470778,-0.48477462,-0.3303318,-0.23793408,0.09991323,-0.047343556,-0.15438224,-0.22814006,-0.013923599,0.032665797,0.22862065,0.3264249,-0.07386686,-0.026257899,0.09539011,-0.022470135,0.13743639,-0.15985872,0.48611054,0.34571084,0.18435593,0.2624852,-0.5687776,0.18008171,0.017274342,0.17067039,-0.022476826,0.3007172,0.24107759,0.52604616,0.27324843,0.06836201,0.09260456,0.048885595,-0.103687435,0.035620168,0.30436343,0.064105615,0.22499356,-0.16668908,-0.18990628,0.37939313,0.13159677,-0.023499856,0.09790243,0.07504117,0.31664026,-0.027853673,0.068777464,0.3104324,0.20194626,-0.37248826,0.18838824,0.1922362,0.14909162,-0.37971318,-0.28372788,0.0828748,-0.13997702,0.20357053,-0.1505555,0.0601184,-0.084232196,0.39235625,-0.2125927,-0.13817446,0.26097184,0.10729676,0.31468585,-0.086518735,0.14758667,0.05101412,0.074288,0.013140936,-0.28917357,0.17130363,-0.11118708,0.21160826,-0.41202688,-0.1526984,0.21367227,0.11160333,0.09802064,0.22029892,0.04737297,-0.30236533,0.079919666,-0.2812183,0.03119566,0.09961636,0.1811094,-0.2808637,0.12307959,-0.25311068,-0.047359746,0.31746843,-0.327253,0.14444076,0.2195727,0.004221283,-0.056466408,-0.25345594,0.08582142,0.02588201,0.22548482,0.29521146,-0.022532372,-0.14121549,-0.06533197,0.2511485,-0.39135182,0.24608777,0.120093316,-0.0066337474,-0.07074583,-0.08740154,-0.31532738,0.0031689932,0.24950834,0.09246346,-0.16652086,-0.15514252,0.2624895,0.2796809,-0.13829684,-0.065832205,-0.28274357,0.211522,-0.26441616,0.101563625,0.08136029,0.16036837,-0.10229038,-0.31233272,-0.15516716,0.12173859,0.13886763,0.01619592,-0.20807578,0.23203579,-0.0004712082,0.37711993,0.19103713,-0.25399336,0.5927018,0.11669737,-0.10767765,0.28870276,0.25822356,-0.43467107,-0.10394742,0.21400298,0.117709,-0.008076369,0.17425092,-0.27790457,0.108992845,0.21988055,0.211792,-0.08794891,-0.24610478,0.23937525,0.2871668,-0.017932972,-0.23528312,0.20493875,-0.2269158,-0.05147009,-0.24063927,-0.02025695,0.18862502,0.37917554,-0.07403908,0.11191567,-0.24524519,-0.46939698,-0.0741831,-0.071681574,-0.25108945,-0.24703062,-0.22526014,-0.27150157,0.22793783,-0.16169576,-0.07608644,0.18386367,-0.31376654,-0.039791774,0.19815786,0.055534985,-0.09180831,0.03998191,0.08363699,-0.33939517,-0.17524341,-0.22105572,-0.27247524,0.055287648,-0.03060339,0.072754264,0.5967167,0.12372485,-0.12895933,-0.17478335,-0.17433725,0.21019123,0.31943145,-0.13295335,0.23822306,0.09184458,0.0955001,-0.06042999,0.10692312,0.3227711,-0.27173442,-0.3689215,-0.050978404,-0.028975444,-0.0017389238,0.34864673,0.20713072,-0.06768377,0.0665546,0.48590514,-0.39878285,-0.37967476,0.1121558,0.14511234,-0.36982515,0.06121933,0.26143265,0.23932417,0.26796287,0.051934745,-0.061768617,0.169421,0.13899192,0.07650926,-0.18125483,0.14668556,-0.16426836,-0.25176105,-0.03267595,0.19098142,-0.4797648,0.124835424,0.20177647,-0.31644794,0.20687659,-0.14212455,0.27508605,0.08876278,-0.36739406,0.2492738,-0.24875532,-0.14477743,-0.018200599,-0.015653828,-0.23347409,-0.058842476,-0.03995444,-0.12598246,-0.075557075,-0.17163682,0.07104797,-0.008616903,0.15065673,0.21846798,-0.5370261,0.18876132,0.16006325,0.15734684,0.22085527,0.14679782,-0.5080243,-0.18525267,0.22334157,-0.010003821,-0.21262005,0.34646127,0.15343146,0.3786452,0.25306395,-0.18049715,0.2692966,-0.1893056,0.07086952,0.09212648,0.029380068,0.16894293,0.11021428,0.15339758,0.31642017,0.0043664044,-0.31567153,-0.01788351,0.0050271805,-0.18077624,-0.3583739,0.12952243,0.18096104,0.14434227,0.09750552,0.26587602,-0.063693106,0.056761455,0.10517566,-0.028881129,0.28623006,-0.16265476,0.10999066,-0.40122193,-0.3341298,0.000482454,-0.24189588,-0.024836862,-0.07170726,-0.20757386,0.12696758,0.12375402,-0.03226943,-0.025859045,0.016386062,-0.42526206,0.27450562,0.11284553,0.052430447,0.056636475,0.3642133,0.39318755,0.012971508,0.062304128,0.15367319,0.15748034,-0.35612813,-0.083908424,-0.020249108,0.14813869,0.06488009,-0.23628381,-0.24457026,-0.13623562,0.4241222,-0.11406364,0.14992675,-0.0062112203,-0.22132668,0.22384933,0.14527547,-0.25641876,0.14478816,0.1879873,0.23341064,-0.19614239,-0.070095144,0.051219802,-0.238497,-0.2282326,0.28150028,0.09797765,0.23383239,-0.26295722,0.03736531,-0.23442896,0.04444931,0.1352786,0.038758434,-0.070449166,-0.06781929,-0.11996917,-0.35892788,0.3373536,0.13090299,0.23789376,-0.39658278,-0.0770033,0.19343725,0.07723688,-0.19194095,0.18387981,-0.23738426,-0.09982789,0.07973541,-0.06272521,0.26999858,-0.23267819,0.34037563,-0.35592932,-0.10297749,-0.33368433,-0.3171717,0.05130278,0.275933,0.07883074,0.11171733,0.5308369,-0.28896815,0.31790933,-0.2547518,-0.0458011,0.039452344,-0.3085825,-0.12967002,-0.07191701,-0.16402273,-0.1282764,0.035946835,-0.2890181,-0.21182854,-0.063795835,0.105596185,0.23795898,-0.13358982,-0.24105117,0.113289654,-0.11922925,-0.2772372,0.15129504,0.13371179,-0.4092156,-0.23572034,0.10102387,0.46433118,0.045159616,-0.054803103,-0.26442626],"biases":[0.19699737,0.07585096,0.06353994,0.018071577,-0.09785731,0.03705393,0.095085,-0.055479243,0.024553778,0.09987554,0.1306434,0.09294111,0.060119558,0.1041365,0.086506136,0.11015884,-0.06620572,0.10127172,0.033884354,0.00073364103,0.11806038,0.04439735,-0.02392228,-0.031309295,-0.037457366,0.06420171,-0.107673556,-0.015953623,0.053184506,0.064369455,0.008439518,0.008975723,0.025744565,-0.08831658,0.12560272,-0.020663861,0.1646447,0.05509093,0.103827484,-0.036189247,0.14753084,0.09026568,-0.0100309625,-0.04639749,0.032629274,0.03937811,-0.035838317,0.14199506,-0.008865,-0.011292683,-0.02754192,0.08186882,0.08075114,0.048188154,0.036292378,0.083902806,0.01416237,0.053528517,0.1843485,0.056422517,0.03800266,-0.016965501,0.01833031,-0.02011781],"in_dim":25,"out_dim":64,"relu":true},"entity_encoder":{"weights":[0.041507892,0.25361007,0.117282726,-0.104763165,0.21703778,-0.090367064,-0.048820022,-0.107623026,-0.0038763308,-0.20775346,-0.0017711072,0.5012945,-0.04002368,-0.029370992,-0.20749016,-0.06851902,0.29337847,0.20300034,0.24103701,0.17632034,0.38385606,-0.15585648,-0.13735299,0.19714504,-0.011366408,0.10442082,-0.114808805,-0.048032843,-0.049842253,0.31778887,0.36528727,-0.03673821,0.033062287,0.25635517,-0.08940844,0.25646466,-0.39935622,-0.0009780545,0.33382753,-0.0014546212,0.38221398,-0.004353038,0.39385837,0.17125173,-0.09105314,0.047934867,-0.24888892,0.17999136,-0.009418082,-0.006579534,-0.1699852,0.29738048,-0.09923851,0.30167904,0.15215151,0.0657454,-0.26306576,0.07258862,-0.053912416,-0.19138362,-0.3489654,-0.5234114,-0.008701533,0.067266315,-0.25897232,0.20896818,0.24277607,0.13327016,-0.08840194,0.06619032,0.1257329,-0.018701004,0.076836355,0.094361216,-0.056655698,-0.44411737,-0.41071364,0.11482667,-0.12829685,0.08948603,-0.08836189,-0.04496952,-0.36860985,-0.1726495,-0.119196475,0.025165407,0.042307697,0.21269886,-0.3194668,0.2220089,-0.05661761,-0.20470625,-0.3377335,0.044122953,0.09036507,-0.009321874,0.34289917,0.20264257,0.115884185,-0.052859,-0.17826022,-0.30080405,0.22595261,-0.31693858,-0.08852674,-0.25012714,-0.47320607,0.043444827,0.013168763,0.14717452,0.26799744,0.19656695,-0.07013914,-0.24568905,-0.17063291,-0.031023342,-0.23471585,-0.22332574,-0.48471925,-0.22937764,-0.013065406,0.44910944,0.2786148,-0.13958572,0.23484616,-0.117940016,-0.33862472,0.11776712,0.1850903,0.013336564,-0.25569662,-0.11915537,-0.36569434,-0.04808074,0.29382673,0.22746348,0.0748829,-0.10094356,0.11559053,0.2035738,-0.19394584,-0.4152897,0.10712261,0.1647916,-0.24367982,-0.12149531,-0.061519235,-0.11704055,-0.32338563,-0.15892944,0.16432936,0.08401454,-0.31795797,0.015520067,-0.3591734,-0.21316601,-0.1870492,-0.19488439,0.20279802,0.32160679,-0.06961079,-0.13212894,-0.0709031,-0.2978671,-0.2552372,-0.2395287,-0.14914833,-0.25299418,0.29067624,-0.08140945,0.24003911,-0.0601443,0.04250854,-0.00062808814,-0.06392814,-0.02469535,0.19362836,-0.15856788,0.2245817,-0.16787596,0.0011481555,0.10635983,-0.39449823,-0.2636932,0.30492532,-0.18925966,0.16521603,-0.09618733,-0.0501663,0.21213123,-0.028468763,0.029488612,-0.2560538,-0.072922125,0.14546204,0.4367941,-0.11533897,0.0048424657,-0.15481886,0.20194457,0.21613333,0.061532184,-0.23071297,0.09182011,-0.045256503,0.31896186,-0.1971271,-0.08623992,0.42248803,-0.07483438,0.40698946,0.5794961,0.17124549,-0.23931071,-0.28407887,0.0603269,0.17889857,-0.26520312,-0.21256942,0.15599349,-0.11951988,-0.109938994,-0.4352346,-0.22108242,-0.010941553,-0.2875292,0.001864509,0.31618428,-0.0011180249,-0.17841204,0.40434697,0.4823751,0.264476,-0.014888891,0.099777244,0.15536182,0.082852565,0.04619918,0.07127626,-0.020556422,-0.66473156,-0.5874295,0.037660398,-0.2397045,-0.22446993,0.18984243,-0.36230105,-0.1700569,0.18558674,0.1250347,0.2281232,-0.29616907,-0.05667728,0.06629771,0.26600972,-0.32678613,-0.27969587,-0.1109918,-0.11150761,-0.013517843,-0.16185579,-0.16191348,-0.061733015,0.013679097,0.31462255,-0.4262423,0.20855178,-0.116823465,-0.24312395,-0.31697863,0.17500927,-0.28331745,-0.19612253,-0.2930788,0.10462261,-0.17659461,-0.12438772,-0.14520195,-0.11069675,-0.11113361,-0.03945942,0.16473004,-0.2538535,0.27429163,-0.0007882479,-0.10166253,0.22253186,-0.113253236,0.0184788,0.15052117,-0.006741625,0.21737528,0.16068387,-0.10465446,-0.12760031,0.036247354,-0.004334003,0.12934434,-0.2508282,-0.00811889,-0.2536544,-0.21193574,-0.35992593,-0.18985924,0.12037116,0.3892291,-0.26638484,0.14351986,0.05206951,-0.11657023,-0.4982907,-0.35772887,-0.052947156,-0.27354914,-0.03236458,-0.04895311,-0.55368,0.023796361,0.06000714,-0.19849476,-0.16994947,-0.21129334,-0.33664116,-0.135346,-0.036004186,0.060765784,0.14964901,0.0701518,0.10096333,0.017394459,0.14291802,-0.17555818,0.1663097,-0.059206538,-0.16185692,-0.21418405,0.25405142,-0.28301603,0.049979605,0.008636022,-0.4880916,-0.3973598,0.10045746,0.115475915,-0.102117345,-0.23955472,0.11232014,-0.010103712,0.08415564,0.07195883,0.060804486,0.118883714,-0.2562384,0.15443465,-0.21565321,0.07188989,0.08872917,-0.109005384,0.29867673,0.25791243,-0.13922176,0.22502568,-0.43369412,-0.12119961,-0.22267951,-0.074250475,0.35650176,-0.14642656,-0.12296279,-0.12247249,0.06623422,0.08784568,-0.095453665,-0.31645337,0.23415571,0.13610905,-0.030060116,-0.032472067,0.06940833,0.014515562,-0.14961314,0.06757838,0.074125886,0.119255364,0.15848337,0.14983128,0.22533582,-0.012399462,0.088356726,-0.013970042,0.5165267,0.38626745,0.30360222,0.064501956,-0.15343808,-0.047774177,0.1526846,-0.0719554,0.14183298,0.059258867,-0.2938444,0.18440266,-0.30655515,0.31799516,-0.36670354,-0.11652611,-0.24054018,-0.05242948,-0.11956982,-0.06321038,0.3711084,0.24651586,-0.05449495,0.28864413,-0.28740865,0.07112511,-0.23261142,0.28785384,-0.28746772,-0.050767854,-0.21358632,0.2038523,0.10891225,-0.05790414,0.05500748,-0.104610786,0.12002287,-0.13148248,-0.38641885,0.22096694,-0.08097962,0.33016503,0.3151775,-0.02961462,0.10653636,-0.23062585,0.1407195,-0.18985958,0.024573239,0.041443404,-0.1105013,0.31884894,0.30702928,-0.30326605,-0.08912102,0.04440955,-0.06463872,0.08681801,-0.07502194,-0.38162425,0.29360068,0.31644177,-0.27333242,-0.109658435,0.340001,0.08094387,0.07699901,-0.050935306,-0.1947198,0.06230668,-0.3594829,0.025163906,-0.3734085,-0.22827353,0.059417885,-0.06846821,0.07446305,0.078932166,0.3002306,0.014250242,-0.12318137,-0.14314179,-0.48875815,0.28961715,-0.19285138,-0.0054766973,0.043960445,0.26823613,0.2501915,-0.24779686,0.40539154,0.3415607,-0.120936945,0.010569737,0.20096077,0.106357284,-0.29494402,0.020515708,0.3490246,-0.30929416,0.4280992,-0.21782054,-0.19600593,0.1509644,0.22835515,-0.15070249,0.1579727,-0.06300452,-0.28117973,0.18946303,-0.3951525,-0.21692948,-0.24858567,0.10371139,0.039244443,0.06023569,-0.16606227,0.092218846,-0.12665884,0.24026252,0.049941655,-0.18575603,0.08194804,-0.18280622,0.16941181,0.071788445,0.040131215,0.16212629,0.016741622,-0.14589055,-0.08615037,0.22239523,0.052021407,0.15460013,0.15668507,0.46644446,0.06728996,-0.28023684,0.029746782,0.2061045,-0.09169569,-0.23243402,0.09435767,0.11138272,0.28816402,0.43141413,0.08954173,-0.27102235,0.17727448,0.18874982,-0.019579522,0.2909752,-0.076806724,0.15320733,0.31759918,-0.1473804,-0.048455942,-0.15923315,-0.0033070552,0.038750857,0.0896398,0.1451715,-0.34142908,-0.07380577,-0.09667029,0.28031644,0.037864737,-0.015652386,-0.096438475,-0.35488927,-0.48907882,-0.2958956,-0.45147625,-0.07523285,0.09969906,-0.20807494,-0.006281649,0.21971777,0.29365382,0.18876718,-0.40317598,-0.33978742,-0.19502567,0.02339523,-0.27936524,-0.18447015,-0.27610877,0.010964353,0.07560654,-0.11715299,-0.06849675,-0.14967005,-0.20915157,0.14887686,-0.12869136,0.044119813,-0.23152341,-0.3752879,0.13366365,-0.05465092,0.29614714,0.24611421,0.29961997,-0.119551234,-0.13314036,-0.00057445536,-0.09597554,0.05145407,-0.20135383,0.2129673,0.2319193,0.04384131,-0.23617095,0.12793534,0.18751962,-0.025889914,-0.18068495,-0.24776134,0.027315939,0.009640895,0.31168616,0.3495141,0.3669015,0.027033355,0.045048434,-0.018105127,-0.0674376,0.03801584,0.046398886,0.19689305,-0.18738282,0.26241776,-0.2166415,0.12567098,0.098779455,-0.008415728,-0.06577173,0.10254295,-0.36338228,-0.16905382,-0.3915118,-0.16407482,0.0029177524,0.24246602,0.060332417,0.17742129,-0.34885758,0.12725374,-0.14547753,0.23198411],"biases":[-0.0640661,-0.03127471,-0.012229525,-0.051193573,-0.07750154,-0.03713454,-0.08140942,-0.021896495,-0.040030632,-0.097469024,-0.054854292,0.04637546,-0.07453631,-0.013294626,0.026680358,-0.034853224,0.04806193,0.030539727,-0.01816267,-0.042768598,0.013964749,-0.040509727,-0.06460355,-0.019525932,-0.020792993,-0.05448251,0.022031708,-0.021911455,-0.064429946,-0.032392576,0.053067323,-0.006181828,-0.0028603878,0.0018464248,0.041420214,-0.047962297,0.047598265,-0.021294415,-0.09748556,-0.030166807,0.0018642185,-0.083204776,-0.032449134,-0.041023117,-0.05566338,-0.06990808,0.011399229,-0.098476574,0.036223654,-0.07105351,0.026964953,-0.093083195,-0.04101125,-0.020168832,-0.011119006,-0.006808704,-0.009377675,0.04769938,0.0,-0.04537131,-0.038681265,-0.03064204,-0.09851402,-0.04579944],"in_dim":10,"out_dim":64,"relu":true},"attn":{"w_q":{"weights":[-0.12711604,0.0059483154,0.13081518,-0.18535994,0.15562005,-0.14966771,0.13180918,-0.14632836,0.2235307,0.23219682,-0.02682425,0.03290514,-0.09799039,-0.08305728,-0.18325044,-0.09369121,0.19801597,-0.0046435036,0.06277117,-0.022201953,-0.08557791,0.12903495,0.0003930376,0.08776528,0.09812959,0.13685383,-0.054826252,0.24624921,-0.14163905,0.09721566,0.0707054,0.13578367,0.07136551,-0.0873606,-0.18399751,-0.034995444,0.11273062,0.22267905,0.14162901,0.17875762,-0.17290743,0.20813051,0.1902265,0.20522307,-0.045061965,0.21630207,0.043284222,-0.002926162,0.19309716,0.11946398,-0.056122284,-0.088574365,0.112329334,0.12625736,0.17821392,-0.14064947,-0.051476527,0.06187447,-0.09171217,-0.062133644,0.03608049,-0.110289045,-0.024381028,0.20388848,0.1562372,0.17093758,-0.016323755,-0.17826046,-0.015865501,-0.18721929,0.057353303,0.17032097,0.081715435,0.036769453,0.08746568,-0.20943353,0.18182012,-0.14574009,-0.10918253,-0.0204872,-0.21585205,-0.04714888,-0.054104492,0.11397587,-0.06126768,-0.19349578,0.018936625,0.05325051,-0.08929427,0.18608572,-0.1603329,-0.16937646,-0.14468056,-0.19617383,-0.15708402,-0.13432887,-0.02676967,-0.064101785,0.15760808,-0.046338134,0.16507857,0.17166878,0.0036996787,0.15257996,0.21655388,-0.1314593,0.0562903,-0.021912139,-0.09084772,-0.17554541,0.0033060187,-0.096793294,-0.053192623,0.0529999,0.19383147,-0.030991355,0.13185409,0.058305293,-0.19490443,-0.17048523,-0.12892707,0.040617246,-0.05463624,-0.026679218,-0.059002277,0.19151315,0.12510718,0.14918289,-0.18308876,-0.035393614,0.05032284,-0.17948005,-0.028527029,-0.0642593,0.047555786,0.16355047,-0.12358786,-0.045660347,-0.20278189,-0.010032616,-0.097719,0.05104576,0.15063077,-0.045405213,0.11526735,0.09146228,0.14530239,0.09919636,-0.18867634,0.019305062,0.07699632,0.11333171,0.033816665,-0.17983478,-0.18019338,-0.09701419,-0.064069174,0.107853875,-0.12870787,-0.20053135,-0.08271222,0.08683864,0.11070169,-0.18678357,-0.094808325,-0.09513371,-0.031050935,-0.19737016,0.15294483,-0.2645786,0.14657809,0.029757526,-0.023348765,0.17290299,0.067864306,-0.13323572,-0.13476297,0.18342751,0.09437905,-0.034203455,-0.20517777,-0.16175508,0.112263344,-0.07557524,-0.18046194,0.14625543,0.12851252,0.137192,0.063402146,-0.16991653,-0.22858427,0.14107163,0.18030202,0.08602852,0.17192882,-0.054899022,0.10945404,0.044872183,0.15584671,0.09924764,-0.019223368,-0.028584216,-0.22206222,-0.079167075,-0.055968646,-0.026454255,-0.08401058,0.0690342,0.16372107,-0.041437738,-0.19302703,0.12995814,-0.10815356,-0.045392215,-0.1360591,-0.20866604,0.17205606,0.019879071,-0.04662661,-0.21373932,0.03433857,0.20554158,0.011893263,-0.041184746,0.13075112,-0.076897636,0.17562743,-0.099088825,0.031745918,-0.15732506,0.18196239,0.01103327,-0.109349094,0.050283246,-0.18135105,0.1395286,0.14442085,-0.108502194,-0.06820653,0.11528916,-0.052735705,0.19546536,-0.14683746,-0.0024061366,0.032995485,-0.21917185,-0.15434211,-0.16666703,-0.066689,-0.09667116,-0.11191042,-0.11818437,0.15209845,-0.13820083,0.080266416,-0.17956503,0.20642798,-0.01913377,0.06773481,-0.06311924,0.0080319205,0.07676991,0.15749732,-0.041227143,0.04741977,-0.19777411,0.17943853,0.1838606,0.2193156,0.13881785,-0.13747084,-0.011765319,0.0017841974,0.13797572,-0.15428533,-0.099213354,0.06491062,0.04044957,0.09546878,-0.07146989,-0.15076315,-0.04289522,-0.116279475,0.09268994,-0.20438123,0.047495034,-0.2192762,-0.040202238,-0.18942055,-0.12699527,-0.038435098,0.015778193,-0.15280013,0.16412568,-0.043003086,0.13907161,0.16874816,0.21205449,0.071439795,0.030794507,-0.13608317,0.15233557,-0.10705453,0.01081426,-0.059545115,-0.07910071,-0.2046865,0.2737837,-0.10326017,-0.118047304,0.09948327,0.016675193,-0.050400205,0.085137166,-0.2282183,0.0042371536,0.18639907,-0.08088628,0.015073832,-0.099805415,0.0036010519,0.009661656,0.113955125,-0.10695215,0.12905037,0.16290261,0.07976056,0.034572132,-0.014281975,-0.082495786,0.1601516,0.17827758,-0.25112236,0.044416133,-0.05857684,-0.22550526,-0.14047554,-0.0019576661,0.15205143,-0.12336887,0.16509736,0.09571294,0.09763115,-0.16721289,-0.09099001,0.21871582,0.053999197,-0.1085882,0.06491273,0.24362387,0.16799398,-0.09096908,-0.12984903,-0.058932114,0.039287522,-0.17598948,0.037699807,0.0048648333,-0.014045982,0.16922162,-0.09561043,0.083080895,0.039301235,0.18679403,-0.027074298,-0.1276642,0.2339963,-0.041170064,0.21086623,0.18349917,0.15682298,0.12417293,-0.20422882,0.18838191,-0.15606269,0.24969268,-0.16507018,0.06474865,0.03431098,0.01782537,-0.026388727,0.05643751,-0.020985566,-0.07692073,-0.21953295,0.13504088,-0.010134165,-0.039207146,-0.20151351,-0.14459924,0.121614516,-0.011045816,0.1444367,0.16041723,-0.073881,0.17945403,0.06644934,0.15639569,-0.1582071,0.12447636,-0.15810598,0.07869804,-0.10491832,0.18418269,0.1847726,-0.16144866,-0.0824735,0.14574598,-0.12079722,0.083591565,0.25512052,-0.088284716,0.168054,0.03829409,0.13699405,-0.083554745,0.0021714482,0.0020572315,0.07794889,-0.03550832,0.00096651266,0.1252612,0.16204803,-0.044266988,0.08108321,0.20316313,-0.09505532,0.0042977645,0.1617653,0.21028523,0.10660187,0.0371746,-0.083306834,-0.17067188,0.08575654,-0.10068274,-0.0032819007,-0.01633936,0.054523315,0.15398861,-0.13225889,0.13172166,-0.07125089,0.1833271,0.1813723,0.06747477,0.08398732,-0.13138062,0.11219422,-0.21589409,0.123156436,0.16176532,-0.053398058,-0.21956089,0.041663337,0.12543559,0.09688255,0.025655832,-0.2844748,0.207296,0.13087873,-0.07637271,0.22694406,0.19097753,-0.075532205,-0.072186254,-0.08302997,-0.092071645,-0.18168026,0.004645363,-0.25725007,-0.09382092,-0.007119704,0.15183571,-0.1709749,-0.07409909,-0.19186847,-0.11681452,0.17338012,-0.17461072,-0.07650969,0.017618682,0.07397621,-0.107412145,0.026971253,0.110299945,-0.1613834,-0.0382393,-0.07761836,-0.101997934,-0.15890585,-0.13751033,-0.06353617,-0.023214972,0.17025349,-0.04551301,0.1804341,-0.10205712,0.08565532,0.040610693,-0.029812736,0.06691283,0.03709213,0.08626923,0.18416227,-0.023261907,0.016053263,0.014636652,0.070299,-0.27969965,-0.10316236,-0.036279194,0.027303262,0.18837506,-0.18749064,-0.064596474,-0.12649356,0.062731504,0.09924864,-0.15712103,0.16241962,-0.09593813,0.15677847,0.054421388,-0.11869306,0.09791502,0.042342618,0.2609352,0.1922227,-0.18188813,-0.03982488,0.12469363,0.078190975,-0.09774414,-0.08222377,0.0022897923,0.009503801,-0.05364953,-0.10358924,-0.12401993,-0.17854828,0.064639635,-0.024020098,0.025224103,-0.04676282,-0.062485684,-0.09206151,-0.050079834,-0.2598604,-0.11583969,0.009906272,-0.2640355,0.029463306,0.042110935,-0.16624504,0.06076417,0.086143754,-0.1594721,0.31254214,-0.22297469,0.17069797,-0.053910248,-0.10714074,-0.025333023,-0.0028280383,0.21132213,0.020664766,-0.047374,0.031544536,0.13960454,-0.13205977,-0.11978998,-0.04866985,0.03911045,-0.10478171,0.230194,-0.21459924,0.089465596,0.033787627,0.14951207,0.16712391,-0.21456175,0.20928639,0.05929368,0.14010471,0.100959785,-0.018015977,0.1686408,-0.14938204,0.069638275,0.02116135,-0.04899334,-0.024071353,0.101560846,0.00010931909,-0.15093462,-0.08740957,-0.1649147,0.08063881,-0.029184915,0.20559444,0.08500689,-0.06815442,0.03161998,-0.06733723,-0.20587404,-0.08568162,0.058193102,0.14105777,-0.17664711,-0.0849934,0.16829991,-0.22110502,-0.17776275,-0.15511227,-0.07936601,0.06778373,0.13567014,-0.035999186,0.095396265,-0.120318376,-0.21703687,-0.060956333,0.0064774165,0.013268371,0.13880502,0.015841452,0.05405547,0.04241561,-0.1061071,-0.09272784,0.05900944,0.007885276,0.23443782,0.2221361,0.045275796,0.032859307,0.08165135,0.1383061,-0.14172308,0.0968745,-0.071437426,0.07887532,0.20344763,0.039643936,0.050659582,-0.05416627,0.02170099,0.06790098,0.029137457,0.025586702,-0.090652235,-0.0807926,-0.19462648,-0.13318308,-0.050472423,0.029587246,0.1679084,-0.17090216,0.17710815,-0.10377508,0.07481791,-0.16484764,-0.3122507,-0.055309527,-0.009196205,0.07421853,0.14556311,0.13409367,-0.014256243,-0.07270267,-0.024546804,0.11770456,0.23778743,0.1279834,0.23200652,0.0926542,-0.014320771,-0.23464215,-0.17400892,0.21535721,-0.097472675,0.22297864,0.11018835,0.039231036,-0.097734265,0.27971333,-0.034714803,0.092072815,-0.157141,-0.11384987,-0.124965206,-0.17303704,0.04561793,0.06296352,-0.12103713,-0.18657178,0.20910916,0.026312318,-0.10584483,0.06599728,-0.057544902,-0.088595845,-0.016857998,-0.10167459,0.05659599,0.08921739,0.015846046,0.08168268,-0.012864841,-0.004747681,-0.2013361,-0.097399235,0.05668079,-0.117889576,0.076415405,-0.00022371631,-0.037172526,-0.0014010003,-0.2217331,0.08096234,-0.22910649,0.12841831,-0.009321179,0.2071501,-0.0783351,-0.1370531,-0.27933723,0.12941796,-0.12235231,-0.06464937,-0.11988941,0.018249843,-0.024666669,0.13133855,-0.07634972,-0.18131019,-0.046992376,0.0801996,0.1613853,-0.099280186,-0.0009597504,0.0014905934,0.0057348236,0.17255464,-0.21224928,0.16463627,-0.09687936,0.027935915,0.047921337,-0.12894876,-0.13316365,0.09102876,-0.23405007,-0.025947256,-0.14941823,0.10796908,-0.08540389,-0.23497687,-0.00065155246,0.1679226,0.12959792,-0.1109794,0.10986836,0.190186,-0.06441273,0.18969104,0.21540202,-0.1119598,-0.27250287,-0.07684188,-0.1487407,-0.14475173,0.11089567,0.13126883,0.10523143,-0.03523877,0.032836914,-0.13049681,-0.05099143,-0.09829974,0.05602336,0.0621802,-0.02303773,0.08365967,0.0370169,0.01660076,-0.2849146,0.051502533,-0.2101663,-0.14068209,-0.015381515,0.23200674,0.006133962,-0.13204527,-0.26564372,-0.0778933,-0.27356976,0.03308965,0.23078738,-0.001315921,0.10232507,0.1644594,-0.035953846,0.11196199,-0.097940385,-0.19879495,0.08943831,0.123750724,0.018140322,0.12088731,0.094967365,0.10566475,0.14524455,0.07736528,-0.08459377,-0.08675135,-0.12757038,-0.072643094,-0.14993176,-0.10561004,0.034498464,-0.020489395,-0.027018957,-0.092369385,-0.17460838,-0.23173527,-0.11097026,-0.10499315,0.10480149,-0.106419146,-0.20483272,0.081989355,0.07741068,0.09929137,-0.14394322,-0.22227818,0.09703123,0.189219,-0.2572696,-0.21774612,0.07926455,0.008286279,0.1234793,-0.15722135,0.25320777,0.14466459,-0.06540452,-0.053863566,0.14731802,0.1988264,0.14526269,0.005973423,-0.21457677,-0.2982209,-0.014038499,-0.036985267,0.056755584,0.09758961,-0.044312894,-0.07496352,-0.23950507,0.10001987,-0.11116381,0.14913714,0.14852026,0.118434876,0.22287655,0.13071543,0.0920479,0.15920539,-0.033584114,0.10182298,0.008485707,-0.010042463,-0.033502642,-0.083158664,-0.17506258,-0.0994494,0.1334837,0.060635574,0.049721934,-0.03921197,0.21054405,-0.052301854,-0.055620894,0.004764689,-0.12522435,0.10121837,-0.02188623,0.10995633,-0.040815946,-0.18668006,-0.15933293,-0.135184,0.110079795,-0.07071537,0.14604294,-0.0026234088,-0.009017494,0.13326469,-0.11632729,0.04650651,0.034913376,0.0590323,-0.089159615,0.065595016,-0.05653649,-0.14517598,-0.04680516,0.14951774,0.091739915,-0.22338392,0.19486928,-0.0038823192,-0.061164346,0.20068434,0.13558337,-0.11640608,0.10356171,0.15676564,0.19356431,-0.18128285,0.17772433,0.06287173,0.14386189,-0.07933232,0.091979705,-0.007946493,-0.16798604,-0.12333875,0.14785689,0.21889088,-0.05577238,-0.014491814,-0.10049681,0.11485737,-0.113239385,-0.19249175,0.070204176,0.03132492,-0.03639232,-0.082885206,0.13188894,-0.09275369,-0.15534554,-0.120853126,-0.12559727,-0.19681258,0.005998622,-0.16232632,0.10003692,-0.06611384,-0.0760453,-0.15212476,0.08755454,-0.0272824,-0.24494112,-0.11726708,0.14021906,-0.15913269,-0.16923201,-0.031888258,-0.080689,-0.20612852,-0.048260193,0.03679321,-0.19200177,-0.13820915,-0.08592788,-0.16580777,0.07209032,-0.011234883,0.042797074,-0.05792437,-0.076010846,0.10342663,-0.042236533,-0.11056758,0.2321708,0.16474476,0.08800363,-0.13617477,0.10689657,0.14617197,0.23428531,0.018004062,0.14934687,0.23417574,-0.14442629,-0.26279017,0.048088532,-0.20712565,0.11407922,0.08453303,-0.13292423,-0.0025428857,-0.09749919,-0.1679017,0.09584025,0.031717222,0.010153093,-0.13486524,-0.15813619,-0.0420204,-0.15069269,-0.08736084,-0.07327412,-0.075525455,0.13166049,-0.0040853056,0.071692646,-0.071198545,0.3263938,-0.028483346,-0.19004963,0.048522223,-0.009608012,0.12885399,0.016480453,0.20674072,-0.034021344,0.11078748,0.0011147975,0.074381605,0.068691365,-0.061551526,0.2343157,0.063803755,-0.21160536,0.00021179252,0.050303273,-0.066012815,-0.14144266,0.13124824,-0.080037005,-0.20379116,0.09545758,0.14891303,-0.16875191,-0.08386515,0.048173197,-0.058268525,0.08120681,-0.13328892,-0.09635431,-0.19835733,0.048547417,0.124022685,-0.093453035,-0.0889253,-0.028911756,0.025755383,-0.15850809,-0.15612918,0.031328063,-0.026125066,0.117896356,-0.045654472,-0.11354708,-0.10766638,0.1635588,0.33522075,0.07918948,-0.13317512,-0.036163475,0.022429144,0.13543996,0.22905853,0.113834135,-0.21833685,-0.121208735,0.13727348,-0.051600587,-0.091135606,0.06601988,0.0031645899,0.26615742,-0.007504592,0.15332647,-0.11195019,0.04559591,0.06401832,0.05207847,0.09442772,0.13649411,-0.023982912,-0.15406877,0.20344907,-0.112787694,0.063817054,0.0022610389,-0.12055429,-0.052277822,0.04341569,-0.008069503,0.22364785,0.13202009,-0.25491178,0.037831105,-0.057785425,0.08019412,0.10302661,-0.12370169,-0.090966314,0.0107091125,0.17320621,-0.026346743,-0.039377008,-0.2075725,0.112636566,0.0072840415,-0.057734307,-0.0021774666,0.12832971,0.17813103,0.278995,0.1830872,-0.18152681,-0.15119575,0.1170275,-0.08982839,-0.102733366,-0.10904384,-0.25095448,0.0463318,0.007812208,0.08158149,0.1407049,-0.219339,-0.06629615,0.073536925,-0.09303619,0.005356538,-0.008652259,0.049938776,0.09374494,-0.034423295,-0.042826433,-0.032604787,-0.11955245,-0.0045879516,0.021897685,-0.1856907,0.1472676,-0.20487836,-0.21023881,0.0024065292,-0.0061794156,0.3378981,-0.09352936,0.02795106,0.0060216677,0.07080047,-0.028681811,0.04837142,-0.08195549,0.08055814,0.10351292,-0.15935609,0.16307034,-0.23760025,-0.16486454,-0.27707455,-0.042791,-0.22874886,0.16518666,0.013570609,0.16048737,0.05584115,-0.037237294,0.007901698,0.1976834,0.12133837,0.08347505,-0.07200109,-0.00675161,0.18093915,0.031031352,-0.032637253,-0.02085024,-0.06581779,-0.012862738,0.08098857,0.12084984,-0.20128332,0.20372047,-0.0040079076,0.033914994,-0.0027559306,0.15776345,-0.07966353,0.07515694,0.04806687,0.15338002,-0.07251787,-0.07662126,-0.030687662,-0.18154962,-0.124730095,0.22178859,-0.029791199,0.26827157,0.027276019,-0.15698418,-0.07133743,0.17345388,0.09586409,0.14146832,0.010715667,0.011871881,-0.0071022254,0.1019707,0.037128605,-0.21758778,-0.13722233,0.00035125378,-0.09555306,0.04169011,0.044390485,-0.104226604,0.0091054095,-0.12443851,-0.04633152,-0.22881287,-0.024661526,-0.012453055,0.03949343,0.15686813,-0.17841381,0.10404797,-0.14747983,-0.19822271,0.1725656,-0.14156312,0.07090037,0.020586854,-0.0022946217,0.037722357,0.08148012,0.21316099,0.23682229,0.09815175,-0.27522138,-0.008310526,-0.04146332,0.028849548,0.11585678,0.16639611,-0.14543849,-0.17508869,-0.13911675,-0.15915015,-0.034881238,0.10015977,0.05859501,-0.12360383,-0.02701567,0.07774424,0.08115987,0.025477221,-0.039548714,0.101447515,0.04363453,-0.019641418,-0.020881616,-0.10123136,0.1325938,-0.1490933,-0.14282757,0.21160373,0.006271908,-0.08921237,0.12696101,-0.16167332,0.07740291,-0.08177216,0.0076016765,0.18721482,0.2949126,-0.053098097,0.13855553,-0.039835475,-0.08710514,-0.03594148,-0.10975351,-0.19862382,0.00066890713,0.17649497,-0.015078762,0.17029843,0.1615833,-0.19675979,-0.12431161,0.12504707,0.12824559,0.045795154,-0.09848796,-0.07060381,-0.13319851,-0.03730591,0.020464106,0.029874746,-0.28305188,0.020522183,0.16774501,0.12700655,0.06123528,0.094812706,-0.10768513,-0.066004686,-0.117006235,-0.04509995,-0.07327703,0.17325279,0.004799025,-0.27872235,0.059834804,0.15131716,0.25250205,0.029088022,0.036918506,0.16403213,-0.19344924,0.16668206,0.032155726,0.10365264,-0.064806275,-0.234872,0.04778148,-0.12913057,-0.07380119,0.025495276,-0.13667712,0.035019845,-0.11963764,-0.05239212,-0.21062644,0.105337344,0.14663802,-0.14454082,-0.14220761,-0.13550876,0.011236982,-0.09029609,-0.20330249,-0.17396004,-0.18154603,0.12799767,0.12837677,-0.18496406,-0.13721234,0.04624754,0.2743168,0.12670024,0.07463182,0.059291445,-0.17969352,0.03046155,0.07556553,0.007820987,0.1510375,0.082174145,-0.036875304,-0.068848506,-0.22669585,-0.15589643,0.083881974,0.06561953,-0.022816062,0.04615501,0.03032886,-0.0002753301,0.020058598,-0.11201039,-0.07432474,-0.0756774,-0.18411164,0.21436104,-0.2647572,0.10941405,-0.1379691,0.17772235,0.0624749,-0.015547844,-0.18399546,0.028400047,0.09313113,-0.020490745,-0.22578634,-0.058031086,0.16712432,-0.014114721,-0.20839807,-0.051491532,0.06210501,0.0641194,-0.05316066,0.054575615,0.03960566,0.13037553,0.245924,0.13393214,-0.12402077,0.1641805,0.028562194,-0.16574849,-0.10795497,0.04796602,0.07208242,-0.0072878753,-0.0049414677,-0.18745114,-0.118149966,0.021660399,-0.0929594,0.054437414,-0.026499314,-0.16040346,0.09133231,0.0410672,0.21719742,-0.089112304,0.07126177,0.08983045,-0.057940617,-0.21900906,-0.18658672,0.044966903,0.028906317,-0.07929289,-0.040279042,-0.003381843,0.039619494,0.0711937,0.0682146,-0.051563587,0.022311376,0.051155157,-0.059978757,-0.14416587,-0.10718597,-0.16973472,-0.012321296,0.14532417,-0.19348043,0.032238368,-0.19874974,-0.25900564,-0.35098776,0.33056056,-0.031976037,-0.017957585,-0.14982398,-0.16536146,-0.045053605,-0.04502289,-0.059282076,0.0089595625,0.059754826,-0.02720744,0.084746346,0.079092205,-0.0689185,-0.2914292,0.13345614,-0.01614793,0.112062536,-0.21046743,0.008228141,0.029172154,-0.20523924,0.31415653,-0.14939475,-0.03737075,-0.21531783,-0.08587839,-0.24928361,-0.08509128,-0.085712686,-0.08312255,-0.009144392,0.106632024,0.13566218,-0.21110968,-0.050474722,-0.17820385,0.02333866,0.0612658,0.010909846,0.18501545,0.092918575,0.07181721,-0.061148312,0.08691001,0.055662554,0.109058656,0.0069969622,-0.05775231,-0.16537373,0.08728089,-0.044174854,0.014765465,-0.0175015,0.101426885,-0.29199126,-0.16149205,0.16855466,0.08713271,0.03390221,-0.0796474,-0.16714919,-0.031636674,-0.10800846,0.074609965,-0.12918733,0.22143264,0.116917096,0.06447599,0.07336568,-0.08092861,0.07254773,0.11452812,0.14509632,-0.060216047,0.03507421,0.09325552,0.0119997375,0.049261667,-0.07587541,0.11164862,-0.10839602,0.27531192,-0.03175972,0.037500728,-0.13353312,-0.0632152,0.025733428,-0.060007174,-0.15859652,-0.17982714,-0.014123929,-0.017331256,0.11896399,-0.15829207,0.15500142,-0.2246,-0.24089378,-0.19659744,-0.046272628,0.08812542,-0.004163542,-0.19217385,-0.023386383,-0.11075687,-0.21246146,-0.099104695,-0.0105649475,-0.11480485,-0.026242262,-0.20967144,-0.07940493,0.1332104,0.07639954,-0.055397674,0.07894892,-0.03224824,-0.039550427,0.09208715,-0.07997305,-0.0017063012,0.07406809,0.019975815,0.08658004,-0.08341763,0.046684008,-0.1543456,0.18344165,-0.019120222,-0.21349128,0.10560225,-0.07289361,-0.0039544613,-0.17977777,0.003435195,0.047647294,-0.08110684,-0.07041458,-0.19821577,-0.11977238,-0.09438446,0.010008805,0.103443034,0.29324034,0.0493848,-0.19361512,0.17728202,0.052738782,-0.004250103,0.08379567,0.12587273,0.23133327,0.027112067,0.2548887,0.11513535,-0.06162128,-0.13669586,-0.08325456,-0.15730022,0.247896,0.056666177,-0.058930952,-0.1093542,0.10845044,-0.09853386,0.023161547,0.024664897,-0.12424402,-0.03303687,-0.010548902,0.072216846,-0.14496958,0.03425995,0.085180506,0.07271826,0.15230636,0.17244548,-0.0865303,-0.04200158,0.23957974,-0.046581905,0.1269603,0.11626644,0.046089415,0.054254875,-0.1592096,-0.0858311,0.034260318,-0.29962206,0.13748334,0.101816244,-0.08877938,0.0082931835,0.028619546,-0.037940804,0.12457858,-0.15793283,-0.2026156,-0.054528054,-0.02418851,0.12607722,0.14913556,0.07502489,-0.060419455,-0.03550667,-0.0037054506,-0.02616601,0.055216778,-0.09301886,-0.10432667,-0.04570095,-0.21258876,-0.3168413,-0.022629686,-0.011006791,0.028044768,-0.059620455,0.038292043,-0.019448072,-0.09099562,-0.074558355,0.018391188,-0.12079397,0.022310637,-0.15168293,-0.06675499,0.09976714,0.21963936,-0.2307283,0.07478097,-0.10312644,0.13138855,0.12359808,-0.114293694,-0.031372603,0.049342733,0.15672372,-0.21736524,0.17387116,0.039585903,0.08705061,0.10216932,-0.08114381,0.060335524,0.055012472,0.25720719,-0.1493779,-0.018859157,0.15028515,-0.050877683,0.12340247,0.20508935,0.23606782,-0.12131598,0.18432008,-0.16949971,-0.13867792,-0.07400398,-0.01635522,-0.029002322,0.14230962,-0.24358295,0.0627119,0.17094807,-0.2917372,0.095884204,0.015325467,-0.06148241,0.11718449,0.097386375,0.05109371,-0.09254019,0.09944525,0.024491975,0.08066152,0.14819793,-0.01350557,0.05960802,-0.010748264,0.28412446,0.01715847,-0.103923336,0.089242026,0.018705446,-0.083790064,-0.011083281,-0.089743026,-0.14560698,0.04132005,0.20705988,0.046936017,0.16479814,-0.05816334,-0.0867866,-0.040336788,-0.25717124,0.013941428,0.036970284,0.02604055,0.073357746,-0.037257504,-0.11846609,0.15074539,-0.001309541,-0.06327263,0.08129491,-0.09152698,-0.13126999,-0.257724,-0.070333995,0.35170704,0.122718625,-0.08106824,-0.16714023,0.2748888,-0.13737439,-0.0075259316,0.061151043,-0.067135066,0.038368803,-0.07179173,-0.06546284,-0.105308436,-0.020377504,0.19033413,0.027003061,0.07768924,-0.08978613,0.09389668,-0.20837203,-0.04004471,-0.14104135,0.2121414,0.1141127,0.09055039,0.017847693,-0.06518692,0.10329562,0.13508414,0.1027814,-0.064340994,-0.077004336,0.1592442,0.064481735,-0.15541469,-0.048756916,0.061189946,0.19333309,-0.21980529,0.08079781,0.051425137,0.07100806,-0.2260012,-0.037519448,-0.11249973,0.01719641,-0.21029583,0.045553233,-0.04214689,-0.16187236,-0.04787105,-0.07842392,0.12993275,-0.04847844,-0.18789756,0.2662968,-0.14246717,0.1537533,-0.06616891,0.066135004,-0.16754894,-0.08208382,0.17341028,-0.04632178,0.010062832,0.09149629,0.011896611,0.21482575,-0.13396811,-0.15221238,0.12406162,0.16733219,0.17899068,-0.101107456,-0.04599727,0.27575952,0.0073288972,-0.012942563,-0.09014187,0.07328398,0.0030484684,0.18210486,0.032700073,0.01004414,-0.09085523,0.009995427,0.204276,0.067482196,-0.01403969,-0.0749439,0.13094829,0.15976244,0.1791262,0.029018128,0.1167893,0.07923915,-0.06991152,0.13570306,-0.048936266,0.015595245,-0.21868518,-0.13193308,-0.079139814,-0.043743733,-0.021736871,0.14516796,0.072331674,0.09366484,-0.18742734,-0.15851387,-0.03230435,-0.026923442,-0.10877748,-0.055514775,-0.22525074,-0.15896884,-0.1334567,-0.15150368,-0.029496599,-0.12950085,-0.13493188,-0.14749207,-0.21935157,-0.03127721,0.06311658,0.088440664,-0.07077466,0.14767656,-0.021142606,0.0052592196,0.2117599,-0.10383747,0.17548032,-0.2529576,-0.011749891,-0.023168925,0.10641054,-0.043670956,0.009209212,-0.11246404,-0.0034702087,0.16306281,-0.10674664,0.23777263,0.11750423,0.15458517,-0.007335979,0.20696713,-0.09529119,0.15610518,0.10472691,0.058709983,0.16920513,-0.04628889,-0.11846526,0.05003611,-0.042568255,-0.009243736,0.14137016,0.13474797,0.023314394,-0.15633485,0.12952895,0.12018072,-0.12689874,-0.14163025,-0.035471197,0.08710364,-0.1310917,0.048411082,-0.008945235,0.11922588,-0.18018755,-0.04001536,0.11926874,-0.03210532,0.13668424,-0.12266733,0.0108407345,0.11022408,0.025082637,0.19498828,-0.097237386,-0.03064716,-0.15034203,0.16416305,-0.06227998,-0.11325079,-0.044464484,0.06708216,0.035111472,0.2278713,-0.03992475,0.03645033,-0.1422145,-0.009940912,0.0047640433,-0.07987097,0.23555028,-0.074591585,0.3559882,0.09160261,-0.00317082,-0.144094,-0.17719339,-0.11183389,0.011438651,0.22581956,-0.09004663,0.026962133,0.034367524,-0.12829529,0.29984733,-0.038956326,0.03663641,0.10221871,-0.10795984,0.19388293,-0.04417912,-0.11009235,-0.027517153,0.19409654,-0.08287686,-0.05823481,0.12715559,0.098863184,-0.1647718,-0.1589082,0.26260713,-0.15768737,0.12707789,-0.1238269,0.100595474,-0.07377006,0.018897453,-0.06361198,-0.07403807,0.041448172,0.099050045,-0.16677938,0.00682617,0.0034142921,-0.08705483,-0.10275648,-0.20655243,0.074457034,-0.07166116,0.25940776,-0.17010644,0.13013405,0.258385,-0.15957828,0.13808034,0.014809405,0.029967237,0.09475602,-0.08706854,0.16126162,-0.01306127,-0.17313159,0.0133667905,-0.08280691,-0.049481858,-0.19665597,0.13192119,-0.01503655,0.2262025,-0.013939639,-0.10648689,0.015952997,0.15162249,-0.053232916,0.06119943,-0.05021384,-0.1478078,-0.03795506,0.013724512,-0.18234429,-0.06608416,0.02460669,0.22095922,-0.18306954,0.05267082,-0.033700537,0.09319231,-0.15679903,0.1852447,-0.050053336,0.008520309,-0.2374496,0.17540337,-0.16366194,-0.11973278,-0.12526613,-0.10146323,-0.1442243,0.17936368,-0.009108608,0.011801235,-0.123993695,0.085083686,0.31030455,0.13961303,0.0038885835,-0.2375469,-0.29335332,-0.114504255,0.03263982,-0.06690415,0.049390856,0.06522127,-0.032470502,0.1299246,-0.07030529,0.20731212,-0.14934233,0.056875437,-0.030296171,-0.17783502,0.06676455,-0.06505316,-0.006769876,0.22957161,0.21053724,-0.058941666,-0.04371064,-0.07718351,-0.010296441,-0.04537986,-0.011257983,0.05578939,0.23665231,-0.019270765,-0.101578124,-0.08507643,0.1396472,-0.019377276,0.04845679,0.05146432,-0.015250112,0.12197522,0.035185836,0.102046594,0.2376761,-0.06623642,-0.025667386,0.044181816,-0.1306902,0.122010715,-0.08508286,-0.0873147,0.2288645,-0.09207467,-0.0846409,-0.09178346,0.1939135,0.13238092,0.13544461,-0.0062524364,-0.28992552,0.08867506,-0.21853879,-0.123449065,0.065190345,0.024084782,0.08621798,0.054866757,0.09041231,-0.22177531,0.07188292,0.07453831,-0.16939902,-0.10288795,-0.03676438,-0.14853877,-0.097507834,-0.04716445,0.09229266,0.00987865,-0.16737852,-0.1596742,0.21296658,-0.15225697,0.035913836,0.06846207,0.010354199,-0.0818333,0.025211813,0.112287015,-0.01678675,-0.04317304,0.0046891174,0.029612197,-0.009269368,0.06840941,-0.13685702,0.17760193,0.15675378,0.030473234,0.049953796,-0.0033493869,-0.020716779,0.17183553,0.0720202,0.12736794,0.0017302167,-0.037071116,-0.3148739,-0.24118504,-0.12816958,0.1948551,-0.062397044,0.17199948,0.16398251,0.041346926,0.1447421,0.083791606,-0.028618721,-0.072286494,0.06436928,-0.14182304,0.025305964,0.057871677,-0.032081567,0.14566807,0.095034964,-0.042553537,-0.21506074,-0.19046678,0.05656786,-0.29156497,-0.05706815,-0.0884257,0.15993266,0.113079496,-0.012976861,0.04472091,-0.032530516,-0.10675679,0.036010016,0.11383129,-0.14695926,-0.15730183,-0.17853634,0.11274128,0.040089224,-0.19784464,0.11983395,-0.16352165,0.11489805,-0.0510207,0.0830134,-0.16667473,-0.010167634,0.11071556,0.21515772,-0.16046496,-0.03873066,-0.032624938,-0.1945577,-0.20425043,-0.13576384,0.2239423,0.0576971,0.08864725,-0.17098777,0.20083708,0.031156668,0.06023278,-0.14705968,0.16287068,0.022549387,-0.03846438,-0.025487402,0.054959897,0.10944456,-0.039556522,-0.23715469,0.06892683,-0.036924206,-0.08088749,-0.043608442,-0.12288002,0.17435256,-0.2283997,0.042841315,0.16920945,0.030325389,0.034073267,-0.04255281,0.01968165,0.04712018,-0.074140735,-0.06255234,-0.10953622,0.31493554,0.045326144,-0.08400953,0.008948191,0.13464202,-0.03284901,-0.010418805,0.059155475,-0.05635076,0.15011428,0.020234711,-0.0026446132,-0.011553464,-0.19651826,0.1826524,-0.06437305,-0.05639467,0.06290316,0.19130917,-0.15871397,-0.13885418,0.05453281,0.1933589,-0.014664282,0.12490763,0.11490125,-0.008956835,0.33741346,0.0757541,0.023385271,-0.13857396,-0.090143114,0.22626434,-0.025464837,0.028706113,-0.07020649,-0.14209644,-0.2041656,-0.074610494,-0.2475641,0.25142267,0.20904166,-0.054396756,0.14635387,-0.047966562,-0.026800197,-0.036573306,0.09275847,0.042924214,0.32075268,-0.10220502,0.10368914,-0.05888805,-0.07897147,0.040460143,-0.16849875,0.04756023,0.2057751,0.02488555,0.012289084,0.14151825,0.0033853021,0.17724633,0.025762009,-0.2520533,0.1528513,0.13036747,-0.031798806,0.018947776,0.096764326,-0.010187879,-0.012150158,0.19716363,0.0575435,-0.046549186,-0.009230869,0.0740171,-0.24792221,0.17569418,-0.07630457,0.15013571,0.21370845,-0.10869658,0.17174327,-0.12112214,-0.020485725,0.07928564,-0.03706718,-0.062043767,-0.036031734,0.07219944,0.02071264,-0.25054914,0.06568736,-0.007068794,-0.064422525,-0.10773555,0.0913167,-0.0703379,-0.13952088,-0.19228867,-0.051757872,0.091412015,-0.15395606,0.10764705,-0.17367993,-0.023888515,0.15662728,0.16355549,-0.12651834,-0.017959956,0.1448251,0.06456378,-0.023657689,0.23674159,0.07886691,-0.191498,0.09434976,-0.07596568,-0.078041516,-0.068106934,-0.07844088,0.17261346,-0.09633451,0.045249533,0.15293439,-0.11343011,0.11231147,0.2312074,0.0966334,-0.019390691,0.24119456,-0.02247457,-0.31920916,0.2766942,-0.041935693,0.009481252,0.029014397,-0.06291247,0.0414115,0.0091813635,-0.060459293,0.1455064,-0.028282117,0.22331816,0.037357807,0.13990015,0.068961285,0.14441724,-0.124613754,0.04740412,0.0009657896,0.096879005,0.10012994,0.16734952,0.025781618,0.038915098,0.030150667,-0.23809026,0.0043194653,0.043652654,-0.07629653,-0.17259091,0.17817937,0.15521671,-0.22823893,0.09751932,-0.13488048,0.079456344,-0.04531936,-0.032415606,-0.20485233,0.15260802,0.0044190483,0.14996363,0.105008416,-0.15757161,-0.04734205,-0.06949873,0.06536245,-0.053722758,0.16405508,-0.02385811,0.11135623,0.18721552,-0.14726947,0.0029578095,0.013583975,0.2458908,-0.27733096,0.039006457,0.00823009,0.27834222,0.033874635,0.11717861,-0.19314538,0.20379423,0.06933055,-0.07313189,0.16338392,-0.010603668,-0.23822783,-0.06625088,0.04033229,0.05522979,-0.034840215,-0.0072325887,0.026940329,0.33681476,0.03636687,0.012835344,0.13735148,0.04867015,0.025828753,0.028639589,0.02239804,0.058483064,-0.24879843,-0.04230296,0.109970376,0.13965105,-0.14944905,-0.11337229,-0.010827343,-0.09004083,0.037178162,-0.19865061,0.11674447,0.027825229,0.08617185,-0.035016544,-0.058008753,-0.09935195,0.10323401,-0.15251032,-0.006959403,0.21563762,0.1517462,0.1443903,-0.052070912,0.18962334,0.067336984,0.1290668,0.070188224,-0.14556643,-0.1169667,0.0021049953,-0.1714376,-0.1263799,-0.112847485,-0.059191857,-0.07824222,-0.017206917,0.089394376,-0.11664433,0.12799335,0.014837886,-0.07792377,0.14359319,-0.09762191,-0.079326704,-0.025621688,-0.19228692,0.26976255,-0.14390619,0.06791074,-0.07722975,0.051996082,0.021121966,-0.13427477,-0.06206915,0.12045077,0.1315625,-0.025926994,0.08518354,-0.04207491,-0.115580656,-0.15850516,0.041105278,0.04129141,-0.05109826,0.12506984,-0.053782612,-0.11861518,0.113124795,-0.14556475,0.15399306,-0.0007684864,0.13815671,0.114568196,-0.09400265,0.19763996,-0.24215838,-0.08897673,0.17116056,-0.11628502,-0.20343494,-0.08896843,0.014249599,0.18721698,-0.0851519,0.086688735,-0.24097511,0.096920416,-0.15714118,-0.03569184,-0.01066839,0.03963881,0.10635607,0.12724108,-0.24387781,-0.0036523542,0.019281516,-0.016102655,-0.056958962,0.065301806,0.19849217,0.04386413,-0.16799925,-0.036519542,0.033729322,0.14776614,0.12409767,0.059350017,-0.17900896,0.18879552,-0.08925155,0.05921028,0.12710686,-0.03825719,-0.10454525,0.28163353,-0.24907008,-0.10172074,0.0035698966,-0.15363915,-0.09028203,-0.12564112,0.23184435,0.042612743,0.16156812,0.045319684,0.11097323,0.0081540095,0.071130596,-0.07684744,-0.16819045,-0.18298902,-0.10958388,0.015448894,-0.12317621,-0.16593002,-0.025523596,0.103898585,0.18327498,-0.032682378,-0.23529503,-0.21207854,0.005425733,0.16614363,-0.056711417,-0.081090406,-0.020746775,-0.15354243,-0.20544346,0.018118404,0.029768432,0.0005826785,0.04660187,-0.020682843,-0.008531049,-0.22921246,0.054635607,-0.05174703,-0.08416172,0.24675584,0.26237735,-0.17407355,0.18719822,0.21247032,-0.046229325,0.16449574,0.05184474,0.14202519,0.067214824,0.03240331,-0.07564351,0.008869134,-0.116749726,0.064965576,0.15152514,0.042057406,-0.028601173,0.018446863,-0.20724408,0.12171429,0.011792596,0.054335184,0.08183717,0.12058233,-0.005305772,0.11658411,-0.17137112,-0.10870317,-0.068106584,0.07929688,-0.09884881,-0.017104179,0.19990958,0.26387158,0.17780343,0.064882725,-0.0014382653,0.066416614,-0.2588243,-0.031991158,0.071730174,0.3216772,-0.042534526,-0.0072370702,-0.044565164,0.03615335,0.052951515,0.090825744,-0.15261,-0.18297133,-0.13923137,0.073827446,0.19843693,0.19711635,-0.15172382,-0.04963916,0.0035612646,-0.17806344,-0.123933144,0.036942415,-0.06979356,0.026642652,-0.051963903,-0.0040208944,0.12480292,0.12765147,-0.26743686,-0.046074543,-0.14532213,-0.14804348,-0.06984587,-0.05766091,-0.07464234,0.09979765,-0.23478404,0.14643088,-0.11574219,-0.027029032,-0.10706879,0.16976641,-0.0754755,-0.16682674,0.07220054,0.053754393,-0.10875524,-0.04612955,0.122278154,0.014622605,0.042547785,0.19694032,0.13552155,-0.02142155,-0.048763324,0.11902603,0.16868708,-0.008471458,-0.043751076,0.028586356,-0.021847906,-0.16131675,0.04995068,0.11994772,-0.20124811,-0.09804293,0.10638302,-0.05192796,-0.23963077,-0.16211332,0.14980932,0.07681049,0.10856688,0.12246075,-0.1308673,0.056434993,0.21945405,-0.038232572,0.28536656,-0.034791097,-0.19699074,0.063317105,-0.065929815,0.106909804,0.061127994,-0.14915311,0.07678491,-0.2969764,-0.17519912,-0.1609872,0.1235204,0.02767053,-0.059212733,0.048560817,-0.06037057,0.024361769,0.051964417,0.23467602,-0.104656674,0.19089916,0.15581268,0.09618715,-0.053159952,0.11182146,0.03148786,-0.025562778,-0.12717451,-0.004530365,0.15269963,0.0811517,0.068796076,-0.04452683,0.22337422,-0.08484844,-0.018505944,-0.22447793,0.11488824,0.08414114,0.08877086,0.14761451,-0.117085844,-0.0722577,0.08354363,-0.11906869,0.10060153,-0.08811184,0.39067596,-0.0005117007,0.0930861,0.09850164,-0.031317048,-0.009091917,-0.0073466008,0.08308301,-0.020603776,0.11334733,-0.29043335,-0.06521952,-0.16649008,0.18810251,0.09765521,0.05287337,0.009509515,0.0052121007,0.03942787,0.08677704,0.03430096,-0.2151233,-0.11671603,-0.18786234,0.052367873,-0.18863098,-0.062377207,-0.15157504,0.03169119,0.028479228,-0.18593952,0.021425238,0.03701017,-0.053656258,-0.11949452,-0.06836567,-0.08770948,0.0004432971,0.15725635,0.2122739,0.066725865,-0.022739597,-0.099643074,-0.21189837,-0.08333932,-0.0906736,-0.09373354,0.17017642,0.24123016,-0.13827853,-0.09100075,-0.071778245,0.018171327,0.11727974,-0.05926549,0.116375655,-0.07338826,-0.0874474,-0.053589515,-0.07965415,-0.2255005,-0.02850551,-0.036324065,0.072123,0.015604548,-0.02594078,-0.13882244,0.001660676,-0.017250977,0.0062852525,0.24875252,0.13850349,0.04965495,0.20195183,-0.048782546,-0.11746491,0.1558784,-0.16565977,-0.14225382,-0.376291,0.017829983,0.12835407,-0.23344453,0.0642704,-0.030679435,0.19825675,-0.026989272,-0.16164906,-0.11943316,0.19043714,-0.21161006,0.071752764,-0.06738031,-0.024077477,-0.33018047,-0.1942195,-0.060973763,0.020832714,0.05353554,-0.075492345,0.09996337,-0.09782732,0.19261086,0.076347865,0.15909964,0.016168317,-0.016765276,-0.14644665,-0.16128497,-0.00475443,-0.15494743,0.17720571,0.0077919867,-0.02000827,-0.010701785,0.16492653,0.07871575,-0.06878849,-0.067522,-0.013164235,-0.1000775,-0.074240476,-0.2169102,-0.17258692,0.29262075,0.06500049,0.033150725,0.030508984,-0.09084031,0.055245154,0.035009462,-0.052280564,0.09975229,-0.02972932,0.119009174,-0.04527713,-0.17177428,0.07121258,0.123311885,0.031756774,0.06350742,0.11490015,0.23247094,-0.05464336,0.087140456,-0.25147468,0.013222567,-0.14950642,0.056181144,0.15284468,0.2999563,-0.06458444,-0.01882478,-0.15189333,0.1503644,0.1697711,0.102290295,-0.122040585,-0.039656635,-0.14346872,0.19122428,0.14400691,-0.115025505,-0.063962206,-0.028776353,-0.124119036,0.019754777,0.28832427,-0.10274735,-0.0019001039,-0.025807858,0.00091511116,0.07241513,-0.119572796,0.16187039,-0.13104151,-0.042382192,0.24506223,0.038022026,-0.15316729,0.16634913,-0.017974567,-0.07957528,0.13160926,-0.01214253,-0.14575718,0.12230677,-0.10869519,-0.08560768,-0.18646131,-0.013251958,0.13353407,0.112662874,0.090153135,-0.01810874,-0.14167319,0.02442882,-0.052276075,-0.022134041,-0.13142481,-0.18794398,0.27033627,0.109857924,0.21639986,0.10662128,-0.031180413,0.0018965838,0.1474869,-0.15471546,0.028552767,-0.060832128,-0.02776729,0.04232291,0.2050231,-0.23567988,-0.21949326,-0.09168993,0.07175367,0.07057777,0.031817008,-0.059494447,0.05294358,0.18889579,-0.16201141,0.1151505,0.029804233,-0.1789603,0.16876741,0.124079585,-0.201142,-0.13125174,0.04451225,0.0661508,0.23985615,0.018069074,-0.044259634,-0.15751098,0.00017264653,-0.121232085,0.049914632,-0.10032715,0.090136915,-0.049972355,-0.30340898,0.05293634,0.07706024,0.09618228,-0.12644346,0.015375413,0.12178674,0.043082647,0.116458036,-0.11635738,0.034539815,-0.0023729766,-0.0067606284,0.11764528,-0.11020656,0.1590334,-0.055250503,-0.36391035,-0.07186704,0.19375788,-0.010820787,0.0683167,0.038776834,0.009646901,-0.04377536,-0.007316196,-0.039523568,0.10167697,0.017770646,0.102273025,-0.19039987,-0.17562456,0.10402182,-0.09674857,0.008505901,-0.042361755,-0.30269948,0.01398828,0.11424777,-0.1360423,-0.022466347,-0.021905243,0.046517786,-0.024030391,-0.095999256,0.22533268,0.09656468,0.017476229,-0.16942711,-0.3351113,0.048005283,-0.05462856,-0.22872722,-0.09635597,0.04101531,0.04724078,-0.05288604,-0.05817936,0.050659552,-0.14815436,-0.18734224,0.05321957,0.12043425,0.015843837,0.17606466,0.09019136,0.034681182,0.07282011,-0.0338556,-0.11433308,-0.057065997,0.2628269,0.0738828,-0.15050001,0.008673136,0.18895161,-0.035251256,0.13260223,0.0993835,-0.22096883,-0.08233187,0.062354285,-0.14091441,-0.032377157,0.2813359,0.051437456,-0.15868554,-0.11113473,-0.032587275,-0.03326678,-0.029312659,-0.056916878,0.03342369,-0.05541649,-0.089847706,0.028293444,-0.22843064,0.15545456,-0.20438209,0.10632267,0.2554283,-0.075260416,-0.036418412,-0.14726274,-0.09289571,0.19134378,0.15397425,-0.0032920833,-0.055582337,0.0126125375,0.09211281,-0.14222586,-0.1605455,-0.091130346,-0.13458969,0.0019507797,0.07145011,0.027159873,0.33103743,0.12573539,-0.27800333,-0.03931063,-0.034317985,-0.20697625,0.1304588,-0.14141294,-0.12948823,-0.010139008,-0.07195278,0.11119921,0.0458603,-0.06411578,-0.08157336,-0.13573693,-0.15053496,-0.072408065,-0.04944882,-0.092059456,0.0013938484,-0.028357035,0.056038972,0.09398397,-0.044198528,0.08242179,0.01827236,0.040109675,-0.0069136685,-0.048496522,-0.13197072,0.2376189,-0.061234612,0.03105666,-0.058393788,-0.13817017,0.08676735,-0.19373627,0.26849416,-0.16431299,-0.09376785,0.023208195,-0.11410039,-0.03641739,-0.019028839,-0.0041979407,-0.048204668,0.086239666,0.07741363,0.00632562,0.009605738,-0.17156824,-0.14391497,0.10721753,-0.030483276,-0.14346877,-0.031277783,0.016887203,-0.006436203,0.028954685,0.1591186,-0.1921553,0.027585909,0.06369802,-0.032616813,0.019542959,-0.08288634,-0.056551956,-0.20978327,-0.0070579746,0.07822138,-0.02115368,-0.05212672,-0.19039835,-0.24459974,0.14225493,-0.18021467,-0.3222097,0.090853654,-0.09559237,0.028040413,0.24886224,-0.18648344,-0.07572259,-0.008009902,-0.09303935,-0.20179243,0.11544865,0.10493784,0.12848309,0.089385904,0.28701118,0.122068055,0.04158254,0.031589977,-0.12810889,-0.1851517,-0.21974854,-0.006395894,-0.0118670715,-0.101048276,-0.0072920024,0.100902446,0.17915392,-0.21494178,0.036934856,0.076665275,-0.036887616,0.102103785,-0.035492472,-0.030972956,0.020440593,-0.03714104,-0.064142466,0.13511764,-0.011303178,-0.20318963,-0.17579174,0.026069898,0.012170297,-0.052477017,-0.2735022,-0.040878024,0.05080908,-0.1674799,-0.25964907,-0.055435482,-0.115082875,0.057063498,-0.0748658,-0.006059334,0.27641568,0.31812295,-0.094539575,0.11225861,0.17182459,-0.07846922,0.15069759,0.040739845,-0.05727491,-0.039562065,0.048584927,0.251122,0.1367686,-0.041575845,0.07747913,0.06691561,-0.13190453,-0.045896184,0.04889789,0.02271927,-0.034968182,-0.20796023,0.10055454,0.20329973,0.15226398,0.05028,-0.008573318,-0.09234107,0.034113493,0.09172088,-0.016497321,-0.1461238,-0.1237422,-0.06157016,0.054296188,-0.007627045,0.15852603,-0.049321365,0.14370702,-0.16893788,-0.10286857,0.0011625953,-0.08543891,0.263509,-0.034614034,-0.021030521,-0.18579361,0.040658735,-0.35184506,-0.23484609,-0.017775262,-0.0070182136,-0.17743611,-0.13630724,-0.08365997,0.0048274356,0.102246344,-0.048958078,0.19105901,-0.14403579,-0.19418591,0.17412171,0.005623792,-0.08282997,-0.002716479,-0.05942048,-0.12398476,-0.1764351,0.011823959,-0.06280127,0.10004657,-0.023585044,-0.26530826,0.08372101,0.035457898,0.036685187,-0.13270785,-0.07162401,0.023414558,-0.15386723,-0.06911217,0.10697771,0.0786639,0.029010376,0.18390529,0.15636115,-0.21011811,0.008966233,-0.13443635,-0.08603042,-0.011712498,0.03084484,-0.10337967,0.23707892,0.012333418,0.21610038,0.102902405,0.06658496,-0.16233653,0.069486395,0.100749515,-0.11186683,0.05821123,0.13042095,-0.07496401,0.046511598,-0.05598108,-0.019108774,-0.14956771,0.14523818,-0.07651913,0.22502705,0.09372131,0.052770026,0.08298801,0.22919615,-0.08679426,0.060471933,0.08364249,0.19754726,0.058071528,-0.045079622,-0.12191711,0.13113418,0.092176475,0.22867724,-0.047276918,-0.109021,-0.14782599,0.079395674,0.13663036,-0.07407137,0.3071667,-0.036007743,0.118500054,0.18227926,0.14578521,0.05817966,0.2403646,0.11287638,-0.12630245,-0.18271357,0.049484804,-0.035691284,-0.04041857,-0.105752945,-0.14459191,-0.011334657,-0.14511597,0.037464492,0.089381285,-0.050224315,0.09705293,0.0014948542,-0.0076498934,0.10280873,0.10062022,-0.10859452,-0.13746224,0.25075713,0.009293354,-0.1467189,0.051951814,0.03325124,-0.21041112,0.014548594,0.104776375,0.28558597,0.012342226,0.076334015,0.21298209,0.19477656,0.067730054,-0.09488858,0.13474943,0.058474567,-0.042899,0.25680003,-0.15853213,-0.031934228,0.14478403,-0.112467825,-0.06070547,0.18366338,0.106058545,0.07438783,-0.04129506,0.010170114,-0.059537757,0.015218661,0.122745484,0.024120236,0.19631992,0.07172217,-0.2962804,0.060998168,0.12441717,0.23607121,-0.1260038,0.21359657,0.18562107,0.02658705,-0.012543981,-0.0067968927,-0.14956,0.22053923,0.2157529,-0.056865126,0.24652883,0.13805501,-0.122934654,-0.05285893,0.084582224,0.053712513,-0.041800153,0.106385276,-0.044469494,0.00096357765,0.08459121,0.024999911,0.1724021,0.111804835,-0.19683057,-0.0075547965,0.03991831,-0.15382564,0.16602308,0.010697616,-0.12373303,0.062336348,0.012687207,0.14727761,0.053601727,0.15430976,-0.010556375,0.07829124,-0.0149745,-0.0416581,-0.0037774688,0.18516557,-0.05461411,-0.001602024,0.07027804,0.057348594,-0.13499434,0.14209312,-0.14519498,-0.06762585,-0.0053815795,0.31534058,0.07332165,-0.0095152855,-0.32689032,0.039590567,-0.101134434,-0.06858713,-0.12883568,-0.05546284,0.040430434,0.14012818,0.049717635,0.06873194,-0.13532476,-0.058023993,0.03696853,0.16820478,0.1255115,-0.17657635,-0.09509241,-0.042839848,-0.0657212,0.04744973,-0.02005584,-0.12543274,-0.100749776,-0.11628579,-0.0071577798,-0.08579726,0.12232913,0.10681887,0.074674,-0.20554365,0.026609045,0.004484153,0.12671353,0.02429346,0.08192016,-0.1920115,0.2640676,-0.12036568,0.0026807594,0.12288508,0.18471661,0.19710349,0.07414947,-0.14062186,0.3089373,0.058966327,-0.0009670597,0.1602026,-0.016138803,0.1077371,0.049568754,0.15173005,0.20022543,-0.098466724,0.045942523,-0.094081424,0.07999119,-0.010903052,0.044102885,-0.089725666,0.010734769,-0.021999948,-0.0171903,0.0006387295,-0.11614502,0.0812429,0.06876834,0.24828881,0.103740156,0.0058442643,0.07370388,0.1623998,0.31179476,-0.09276845,-0.12100449,-0.20417365,0.05150406,-0.046369616,0.07526412,-0.03234729,-0.009561112,-0.018999249,-0.13419777,0.25400817,0.04937917,0.13570286,0.021112572,0.068954356,-0.0040478124,0.4946659,-0.036677454,0.18900228,0.12788564,0.10397805,-0.11038305,0.24718855,0.16666882,0.07833206,-0.019145576,-0.067795984,0.038802177,0.15501778,0.097422056,-0.09297799,-0.16696544,-0.10798003,-0.12338243,0.047744557,0.07852606,-0.13140495,0.05151152,-0.09601089,-0.09580898,0.110766105,-0.18721743,-0.2678226,0.014783611,-0.14501129,-0.12233255,-0.2574332,-0.066429846,0.16350788,0.08509635,0.15737985,0.14134559,0.23711686,-0.019988917,-0.048887044,0.07161449,0.18550688,-0.35747063,0.03851391,0.040173467,-0.05515408,-0.002905365,-0.19941303,0.008543014,0.20270684,0.060572904,-0.07630041,-0.034943674,0.051072422,0.046604253,-0.03524611,0.15318407,0.083789416,0.082409635,-0.008096355,0.0944153,0.0069320705,0.08113564,0.18835911,-0.098805115,-0.06999433,-0.043205105,0.18972301,0.08147383,0.23084696,-0.002399535,-0.15676473,0.17024767,0.029075086,-0.010862622,-0.09913388,0.14252993,-0.17263655,-0.030943837,0.030156404,-0.13478075,-0.09241801,-0.03252835,0.016075987,-0.030026753,-0.016263146,0.04489382,0.2673923,-0.073807396,0.078639545,0.17882653,-0.104124345,0.19515972,0.030719725,-0.099971145,0.2027964,-0.0842959,0.11080314,0.13811699,0.013872981,0.14866635,0.05941615,0.0024392689,-0.052363522,-0.19323088,-0.016425116,-0.17012672,-0.30375233,-0.012001073,0.115485124,0.032548267,0.046842024,0.043423623,0.20134233,0.13323148,-0.07252184,0.16378969,-0.08278223,-0.039578546,-0.17803362,-0.013032731,-0.02764058,0.2341889,0.028229894,-0.15829968,0.060841575,0.09033119,0.14460783,-0.042549387,-0.009496068,-0.05698953,0.032973837,0.014906954,-0.0051907087,0.23662047,0.26261014,-0.10925304,-0.025182866,-0.0077376827,0.0076445267,-0.15002282,0.30186868,0.15366621,-0.07636638,0.16728769,0.048019353,-0.044429578,-0.028708339,-0.019017942,0.036851775,0.20428325,-0.17109272,-0.15288746,0.09064772,0.1793365,-0.020282187,0.21474384,0.0029345318,0.1118905,-0.17173508,-0.023548167,-0.2515631,-0.028538944,0.21533439,-0.08595369,0.06305911,0.12318284,-0.17108628,0.084562644,0.04776163,0.03197111,0.014725516,-0.1276111,0.2546874,-0.040645417,0.20126384,-0.07555522,-0.18185288,0.00048735086,-0.05102241,-0.17133883,-0.18928875,-0.00018789551,-0.12017113,0.049057268,0.054116596,0.2231021,-0.19900244,-0.059547804,0.06500441,0.012236348,0.0017820625,-0.07869489,-0.035271525,-0.027417025,-0.006511724,0.2522627,-0.0844157,-0.067492686,0.025409741,0.13903427,0.22099929,0.17600492,0.1919454,0.12912323,-0.007109516,-0.09822037,-0.06687811,0.0057221353,0.059937168,0.11272544,0.048448198,0.02117406,0.05032675,-0.025838962,0.18867049,-0.18566738,-0.061197437,0.076340444,-0.008343296,-0.032172073,0.10750644,-0.012809223,0.0077167284,0.0146699855,0.049374454,-0.24694473,-0.0931932,-0.021562845,-0.06179264,-0.015464047,-0.012542733,0.11698929,-0.14127944,-0.21831839,0.051483713,-0.05924177,0.09057359,0.07490144,-0.001402457,0.03396613,0.0063378536,0.0003787522,0.021716842,0.05689153,-0.28909734,0.17576608,-0.26709238,-0.037019912,0.06830231,-0.14623833,-0.1457407,-0.15483873,0.0013831098,0.13718458,-0.094636165,-0.085041516,0.18393841,-0.04605609,-0.24578844,-0.17243841,0.29724076,-0.021568663,-0.035040498,-0.012855258,0.058892712,-0.2844014,0.012540264,0.103616424,-0.18549359,-0.11509042,0.09176911,0.15029468,-0.056940943,0.07287748,-0.18479814,0.03274492,0.1551394,0.06603667,0.13732673,0.2930736,0.06180819,-0.07450529,-0.0017947846,-0.007204911,0.021991728,0.03644821,-0.07765649,-0.09553652,-0.047907002,-0.06672313,0.073200874,-0.03110624,-0.014528907,-0.14072844,0.25630277,0.05655174,-0.012056086,-0.30764937,0.002630581,-0.047946334,0.011215521,-0.08662082,0.119054586,0.09418389,-0.06541649,-0.031524833,0.046550296,-0.0013402202,-0.21938573,-0.12102498,0.03135395,-0.10967441,0.21265821,-0.15349135,0.07574622,-0.07726239,-0.0105244275,0.31720537,0.10821914,0.037733253,-0.092051394,-0.13066116,0.086333275,-0.07332983,-0.37274158,-0.10509018,0.024656877,-0.00844151,-0.25279427,0.10435388,0.16545065,-0.023409652,-0.019937323,-0.13063186,0.02162662,-0.055261888,0.046689343,-0.07779393,0.09224284,0.12450502,-0.12908931,-0.088974155,-0.033329286,-0.10716629,-0.079310335,0.002844462,0.15415154,0.05569313,-0.11387952,-0.21828137,0.025300996,0.11412225,0.014875816,-0.10683895,-0.10187218,-0.096756965,0.11321097,-0.050489258,-0.11541503,0.002188121,-0.25616524,-0.14036202,-0.24341053,-0.027619101,0.05302404,-0.007521847,0.1817252,0.08725766,0.024804143,0.20679867,-0.09262634,-0.04710802,0.04972139,-0.2287788,-0.046375778,0.18494058,0.022084579,-0.039351493,0.053033724,0.10837903,0.13639519,-0.1027439,-0.171111,0.057286087,-0.1393141,0.12991437,-0.050596043,-0.25679308,-0.03451111,-0.16780765,0.1839244,0.014470018,-0.018335667,0.03471334,0.16356453,0.16893336,-0.0032852422,-0.105899215,0.19691058,-0.17500107,-0.23306134,-0.04490694,0.163149,0.045370184,-0.09821514,0.036018632,0.04904083,0.042071465,-0.058762964,0.035721067,0.15488435,-0.14916705,0.0019648187,-0.0012356043,-0.021582585,0.0081522865,0.1287154,-0.115389705,0.21739283,-0.32066467,-0.09023028,-0.08926952,-0.15720795,0.14625391,0.015074829,-0.21270218,-0.029607916,-0.010352243,-0.17653047,-0.069143675,-0.054764766,0.062225454,-0.23679297,0.15230422,-0.029535754,0.2390475,-0.06792403,-0.029702747,-0.1649816,0.17441685,-0.0047680684,-0.019562788,-0.020504536,0.14095336,-0.07162653,-0.24677104,0.034268703,-0.042410314,0.15666759,-0.1463303,0.21962573,-0.04476208,-0.19018771,0.22136301,-0.082044594,-0.09988297,0.0032836522,0.015097151,0.050168883,0.047337946,0.061239153,-0.09007448,0.012628878,0.09480658,0.090760656,-0.09069494,-0.16790903,-0.2415486],"biases":[0.095267616,0.018973935,-0.08077866,0.009568439,0.050930955,0.06254461,-0.0036557436,-0.00012455422,-0.00909776,-0.016846523,-0.066623285,-0.017194986,-0.050485775,-0.046113823,0.04369599,-0.056997262,0.0052423,0.052593432,-0.086472295,0.010575316,0.040195715,0.0069710664,-0.053993974,0.02777933,0.039692868,0.046775144,0.02284644,0.057366878,0.064403035,-0.060546625,0.061654452,0.008397755,0.009503553,-0.043707497,0.0016338163,0.03174808,-0.03670412,0.030362405,0.06438125,0.059151564,-0.05365428,0.039407045,0.014867958,-0.038381338,-0.057678357,-0.04695701,0.0020893486,-0.055679306,-0.0018425704,-0.012514892,0.018383319,-0.012897692,-0.014786341,0.033370867,0.070738375,0.0038816317,0.038681738,-0.033525147,0.054832663,-0.006316741,0.0029240048,0.02135096,-0.0069294036,-0.06076962],"in_dim":64,"out_dim":64,"relu":false},"w_k":{"weights":[-0.042051,0.116879694,0.16777311,-0.12806265,0.07406276,-0.1813167,-0.12228684,-0.24625507,-0.12543006,-0.07297343,0.21542655,-0.13171741,-0.10733387,-0.062276423,0.14584579,0.17276101,-0.14979687,-0.20135114,-0.015744688,-0.11822934,-0.13451743,0.047937844,-0.09827343,-0.07921726,-0.023630537,-0.2461227,-0.1683973,0.13086654,-0.0070674326,0.13827462,0.13436228,0.058107592,-0.08186361,-0.20974131,-0.09162369,0.0867191,-0.1572254,-0.2002482,-0.21259226,-0.07961726,-0.012057281,0.13761748,0.17141199,-0.016720066,-0.1485294,-0.002800161,0.05003801,0.1621753,0.026983233,-0.19168916,-0.12857382,-0.17750588,-0.07050734,0.077304475,-0.057014767,-0.19161803,0.023751628,0.13714407,0.14045809,-0.045209747,-0.086929575,-0.16210544,-0.05232944,0.14292635,0.14723444,-0.1747919,-0.15294068,-0.16397473,-0.11080465,-0.16058083,-0.112892814,-0.055684514,0.037093073,-0.07731861,0.040212292,-0.053911313,-0.018378055,0.1708902,0.18681082,-0.06538606,-0.017346593,-0.040981572,0.0642294,-0.09939775,-0.06293169,-0.09251862,0.18962486,0.2081249,0.12337695,0.18414505,0.19093488,-0.14212105,-0.16052099,0.0935948,0.06873581,-0.11170105,-0.24008678,0.18035138,-0.03413744,0.089093745,0.1471042,0.08219689,0.062333193,0.024694147,-0.06501435,-0.068514094,0.13237046,-0.08371004,0.031312563,-0.017128767,-0.17670944,0.16442724,0.05110779,-0.17804128,-0.22759627,-0.005598454,-0.23497903,-0.12104868,-0.055464033,-0.18741195,-0.03496256,0.025811493,0.10889144,-0.14373815,-0.11954234,-0.016740134,-0.06348189,-0.21391322,-0.1728874,-0.09519569,0.13379797,0.15960246,0.14430144,-0.08760394,-0.0036707309,0.21378313,0.19828856,0.004986617,0.012530055,-0.122045904,-0.13389952,0.20476435,0.08621348,0.0069656884,0.038892496,0.11251099,0.118317924,0.21118426,0.1494998,-0.11573574,0.071516015,0.08428868,-0.102827094,-0.06393558,0.101614654,0.048587326,-0.01407437,0.058515325,0.070077024,-0.18219572,0.025603607,0.17614703,0.19749415,-0.000094992225,-0.21521951,0.17467147,-0.009870624,0.20027074,0.051473036,-0.15986146,0.21685442,0.09514937,-0.10765963,-0.12992744,0.13305981,0.013297622,0.109416895,0.08792826,0.1890982,-0.18476824,-0.045821473,0.21245033,0.12296863,0.21918926,0.11359634,0.10121515,0.20191911,0.07443682,-0.028289584,-0.17788897,0.13527411,-0.032918602,-0.17415386,-0.0018801707,-0.03276413,-0.20051056,-0.020393325,-0.015712265,0.19811119,-0.053079877,0.14200397,-0.21480271,-0.00730487,0.19082546,0.16639653,-0.19655013,0.10877502,-0.17545204,-0.15082614,-0.21417774,-0.05081329,-0.021731721,0.05658131,-0.0991397,-0.09771754,-0.18246211,-0.19242778,0.12075312,0.13008629,-0.1397996,-0.046864707,-0.18692495,0.21034975,-0.09155603,-0.10313381,-0.17355466,0.09674956,0.0031406179,-0.15353832,-0.071315594,0.10547613,0.022862144,-0.07453695,-0.02599317,0.06512169,0.080767624,-0.14385466,0.14808491,-0.108781844,-0.087478854,-0.12216607,-0.12856822,0.12788299,-0.084454626,-0.12195828,-0.020320112,-0.042827882,0.15118684,0.016318047,-0.15869106,0.04691801,0.16983438,0.19926156,-0.047491644,-0.061399944,-0.07076759,-0.21519883,-0.0056396932,-0.15668735,-0.18235989,0.103159234,0.10520899,-0.15875319,0.20111996,-0.05319483,0.008119984,-0.006861538,0.08004417,-0.07218648,-0.033283833,0.029832598,0.012839197,0.2109508,0.028952908,0.11071343,-0.13517559,-0.13712345,0.17528139,0.069228515,0.1106299,-0.13468066,0.018967062,-0.14519854,0.20074114,-0.05278685,-0.07729304,-0.12066511,0.19176264,-0.07407395,-0.14043714,-0.19151384,-0.08308849,0.10617367,-0.18747921,0.0831239,0.036328144,0.1890438,0.04434457,0.12964529,-0.20591003,0.07850982,-0.17982823,-0.09207303,0.016103279,0.061790664,-0.15968198,0.13694409,-0.0718978,-0.10813851,0.10627722,-0.086625285,0.10984951,0.07772839,-0.23629469,0.14784825,-0.17378081,0.11964024,-0.13525558,-0.060645852,-0.22056238,-0.13787465,-0.10345821,-0.15017244,-0.17653526,0.05288364,-0.14713642,-0.07583093,0.0235149,0.15563875,-0.043404467,0.18936273,-0.17690879,-0.05273432,-0.09945421,-0.099961534,-0.15677033,0.07189991,-0.12390701,-0.1253378,0.20186187,0.061977025,-0.08982786,-0.13233972,-0.10847035,0.05706599,-0.056188144,-0.19721104,-0.084036514,-0.037924536,0.2231482,-0.27232617,-0.0550736,-0.12117022,0.21530305,-0.2753918,0.044407688,-0.15409139,-0.058152497,0.10393045,-0.20495181,0.14812036,0.0057460084,-0.010444386,0.080703445,0.16958472,0.027875353,-0.09895216,0.078278795,-0.08891116,0.10773044,0.07627553,0.039486714,-0.042187944,0.12855498,-0.035325307,-0.08542721,-0.02151805,0.08958117,-0.20395543,0.041356947,0.19379841,-0.13028552,-0.2339722,0.032209583,-0.07011481,0.18903738,-0.11622177,-0.17701249,0.16717911,0.15682048,-0.15331233,-0.15100059,-0.086349614,0.13960497,0.14352332,-0.101398684,0.069862604,0.13357192,0.1439066,-0.048723396,0.21175627,-0.03289104,-0.14977384,0.023714608,0.2741381,0.20993909,-0.015097662,-0.044405263,-0.13303058,0.13248092,-0.104841605,-0.11825696,-0.122756965,0.18625797,0.13053861,-0.014904463,0.05698702,0.058603015,0.078768745,-0.17347617,-0.19393003,-0.14479126,-0.13196392,-0.10211665,0.101972975,-0.13541749,0.15810622,-0.07644561,-0.15418233,-0.01197124,-0.12457522,-0.12350716,0.06675884,-0.10541889,-0.08941607,0.16382422,0.023782218,-0.1639122,0.049615975,-0.008045447,-0.06471529,-0.06729495,-0.22538407,-0.02095471,-0.07221389,0.11779736,0.14677662,-0.056851797,-0.11468242,-0.2034337,-0.15315588,0.22513668,0.059027508,0.26521128,0.18570006,0.21767755,-0.16090247,0.12820895,0.120404445,0.0461643,-0.14543612,-0.07765012,0.0009151197,-0.070396654,-0.21113001,0.2740112,-0.21326159,-0.09475805,-0.001989029,-0.020329105,-0.005746562,0.038172804,0.039570525,-0.051177997,0.13645954,-0.26591727,0.23863472,0.057285447,0.07349497,-0.000015730155,0.011951871,0.124211274,-0.057860475,0.108246796,0.02486941,-0.12652428,-0.20246191,-0.08545174,0.011525686,-0.077897966,0.10116844,0.16253455,-0.103177644,0.12109086,-0.06208196,-0.056700666,-0.08063666,-0.055930816,0.123235166,-0.14893363,-0.019448135,0.11523938,-0.15668938,-0.11863751,-0.118522584,-0.14394058,0.019748481,-0.040796377,-0.18642691,-0.04122828,0.07481685,0.040569592,-0.08207122,-0.2029696,0.062201906,0.21334383,-0.07243687,0.13950758,0.013225076,-0.09941611,0.13263437,0.02180199,-0.11304483,0.19929093,0.10489497,0.28039625,0.08466052,-0.15522364,0.036882497,-0.04177206,-0.16629568,-0.19545141,-0.077444896,0.076679766,0.14047639,0.055298883,-0.18841907,-0.23423767,-0.19146772,-0.034243274,0.08041729,-0.18364413,0.078530915,-0.07510434,-0.09472685,-0.01534823,-0.12136039,-0.13238083,0.0427424,0.074682325,-0.02711994,-0.11878859,-0.07277079,-0.015303682,0.054480966,0.075428784,-0.05873231,-0.07360014,-0.19260652,0.11945529,-0.015979199,0.10064405,-0.14484644,0.087338306,-0.062872775,0.2135722,0.21711023,0.10754614,0.09448422,0.035400074,-0.179742,0.06998383,-0.12291622,-0.16597557,-0.11038309,0.22747421,-0.09643045,0.09448666,0.047497246,-0.029538149,-0.26826864,-0.114431426,-0.032181144,-0.09493456,-0.09901201,-0.2108392,-0.0138130635,-0.040278066,-0.2002654,0.05087003,-0.12738292,-0.11535354,-0.050475527,0.031744663,-0.005248891,0.02809289,0.13331167,0.12995544,-0.09503043,0.11136857,-0.23080373,0.15388986,0.04655632,-0.023449006,-0.11121596,-0.047296,0.16583294,0.17503734,-0.09375845,0.0395627,-0.2675523,0.119177274,-0.06937936,0.09026142,-0.1251047,-0.06582137,0.16479304,-0.01080235,-0.21749575,0.042379014,0.08955981,0.12598528,0.030636573,-0.1384872,0.043175858,0.16802981,0.10103936,-0.07838663,-0.27905685,-0.12711275,0.09803943,0.010167108,0.08112534,-0.061043475,0.027179541,-0.15710278,-0.111325525,-0.060041577,0.083066724,0.19868867,-0.1804354,-0.0062015844,0.053651277,0.15995713,-0.01674808,0.03451605,0.094050504,0.077369414,-0.07629341,-0.004761662,0.12386981,-0.059208956,0.07042043,0.21043837,0.00564794,-0.07372901,-0.00036495354,0.18147328,-0.0638269,0.13027996,-0.013682685,-0.12766899,-0.30986077,-0.20791796,0.051765513,0.042590134,-0.07751122,-0.12727903,-0.1547146,-0.17972554,-0.21461816,0.10437953,0.01595343,0.0016304731,-0.033953026,-0.041126814,0.049223114,-0.0010299688,0.24218482,0.19032033,-0.18939798,-0.02185819,-0.026593167,0.13158906,-0.10876736,0.18925686,0.036695424,0.044529807,0.12858273,-0.18797024,-0.13683093,0.22186069,0.03485579,-0.06306272,-0.19136167,0.22475243,0.21909876,0.10342182,0.112964645,-0.14047284,-0.1821559,-0.20351514,0.12802376,0.027449712,-0.03132928,0.10727397,0.08461872,0.22787163,-0.049935386,0.20930837,-0.09093972,-0.062174056,0.15338345,0.12168732,-0.18601502,0.08098649,0.15067051,-0.05280407,-0.09223285,0.035934854,0.04961841,0.008693862,-0.06558989,0.07569728,0.0032726964,0.053428717,-0.14092702,-0.040178772,-0.047966123,0.2387341,0.19871409,0.11071183,-0.089538425,0.009431403,0.12670642,-0.097276375,-0.061320774,0.06678743,0.13559827,0.03687096,-0.11297044,-0.1176128,0.2499429,0.05996843,0.24193867,0.09596273,-0.0894564,0.19422375,-0.071423575,0.03802985,0.061990168,0.24933776,-0.24154942,0.038685862,-0.13030304,-0.0015478958,0.028620033,0.27042064,0.018514074,-0.20613351,-0.010989736,-0.10617898,0.0331091,-0.284966,-0.17682795,-0.094373144,-0.028532222,0.015197009,-0.018164145,-0.10434281,0.24223106,-0.023258034,0.0074121244,0.15774699,-0.07203617,0.15749142,0.2590689,0.17485738,0.12287103,-0.17965375,0.006066651,0.026366644,-0.26720574,-0.16881108,-0.15235531,-0.110505454,-0.10108811,-0.11295748,0.08048026,0.123401195,0.05449704,0.12731624,0.20356317,0.10860329,0.06602278,-0.09889505,-0.13885494,-0.16368495,0.18769708,0.13812278,-0.0070030554,-0.07800616,0.08548721,-0.1820471,0.12666954,-0.16355298,0.007371334,-0.022827363,-0.118483685,-0.15636605,0.0929233,0.15198983,0.038534153,0.15553357,0.24279201,0.051926095,0.17561063,0.04916769,0.20942307,0.1227825,0.013660055,0.11761072,0.01997529,0.06816747,0.051274933,0.19125098,0.13574064,-0.049671363,0.0089453645,0.14045969,-0.19454673,0.019327307,-0.036655035,-0.17208771,-0.1320501,-0.062045325,-0.025550775,0.23053542,0.025001332,-0.1446533,0.0813774,0.25636744,-0.14235586,-0.15283905,0.11552117,0.0047608754,0.12419549,0.07809248,-0.18948722,0.08095998,0.22518049,0.004627055,-0.06899725,-0.14441274,-0.24645801,0.08249495,-0.18970396,0.0021593918,-0.105392754,-0.15829639,0.11278625,0.125205,0.25608024,-0.048632234,-0.084085435,0.028827878,-0.10281672,-0.26605204,0.08857159,0.09682771,0.21257812,0.09999302,0.0877311,-0.08451046,-0.10082643,0.13412006,0.05174574,-0.0029329753,0.04405811,0.08659726,0.14562525,0.08541122,0.13710713,-0.02710432,0.08095927,-0.057303812,-0.17174174,-0.12690872,0.1426714,0.07158623,0.17097338,0.16652365,0.021671832,0.15078573,0.13995427,0.18649048,-0.24677536,0.19584897,0.09109291,0.08797166,-0.20864116,-0.14956369,-0.06125526,0.063580945,0.07693789,0.16251716,-0.14151171,-0.013577867,-0.073064014,0.06639132,0.06405506,-0.0516103,-0.16066332,0.032386,-0.15328316,-0.06306275,0.03777098,-0.12426084,0.03851554,-0.09398171,-0.0070435484,-0.10276466,-0.054318044,-0.24153882,0.047179494,0.077935584,0.0012099819,0.22998367,0.07079242,-0.15367004,0.034493517,0.055931974,-0.11712082,0.24781877,0.059150692,0.044115175,0.1329498,-0.04326873,0.1404973,-0.19046223,0.11241107,0.0021913638,-0.1436026,-0.07350401,-0.020968268,-0.060733262,0.02397332,0.24559134,0.13654485,0.077807635,0.11816347,-0.19748083,-0.04935395,-0.06195665,0.18699788,-0.17600669,0.24494573,0.020087374,-0.014634172,0.037841223,-0.004343297,0.11208625,0.12064823,0.033707928,0.13138974,0.009832858,-0.009084224,0.05671168,-0.14915742,-0.04338908,-0.19772327,-0.0030861378,0.07680682,0.27916473,-0.08771417,-0.1619307,0.092867695,-0.0025552048,-0.055462647,0.093857616,0.034211166,-0.14597112,0.12655418,0.23059434,-0.04643502,0.16831666,0.022830794,-0.09580054,0.04160139,-0.06786531,0.013554744,-0.048043426,0.0902314,0.072383985,-0.17114088,0.00009535077,0.023741014,-0.09049748,0.008148024,0.19865747,-0.27680492,-0.020585867,0.09772806,-0.016676426,-0.16507947,0.25087368,0.18239231,0.23792662,-0.03157021,0.17595911,-0.0044526993,-0.050728608,0.21164577,0.17751294,-0.22454332,-0.15050985,-0.029288352,-0.1828262,0.12828982,0.08831796,0.29182056,0.04538544,0.13181922,0.22586069,-0.18964046,-0.017535413,0.04827578,-0.0287543,0.14147332,-0.002227426,0.07093855,-0.09923134,-0.0044067693,0.17042615,-0.05991521,-0.19618012,-0.13665187,-0.07420545,0.18579039,-0.15465002,0.12861066,0.10673455,-0.13059597,0.16685364,-0.11065755,0.17963792,-0.11398355,-0.12815909,0.06836588,0.13720487,0.062449742,0.12240981,0.107576296,-0.115992054,0.0858039,-0.17842284,-0.16055846,0.02366815,-0.19843249,0.08229314,0.21390909,0.14059539,-0.11230308,0.15231316,-0.04974879,0.053665716,-0.1201936,-0.17372449,-0.180368,0.0900285,0.116017714,-0.027290331,-0.0130802775,0.032279715,0.0011552718,0.18816587,-0.028510462,-0.026593331,0.26827314,0.06599497,-0.22739421,0.04660698,0.16820273,0.16982886,-0.0062538357,0.10501849,-0.18182682,0.008924902,0.12602355,0.05582612,0.076250985,-0.14248346,0.13311653,-0.14283049,-0.12909867,0.08566829,0.03842415,0.2553011,-0.24827547,-0.1257192,0.29919368,-0.15673918,0.13504247,-0.18498024,-0.034699064,-0.018467734,-0.117937475,-0.24096084,0.055611327,-0.0035182068,0.10304233,-0.14393353,0.014351477,-0.12751909,0.14467329,-0.04377651,-0.051759038,0.0903612,-0.15261279,0.12247583,-0.10882887,0.15470918,-0.13631028,0.08380187,-0.097484976,0.026857235,-0.17717914,0.120043896,0.06485938,0.16986713,-0.17675544,-0.05863243,0.06861874,0.037918217,0.10935632,0.044273227,0.10597174,-0.06555318,-0.08020851,-0.11723976,-0.044955485,0.032825317,-0.024850592,0.03612414,0.24642123,-0.1565174,-0.07051284,0.15334564,-0.13222408,-0.08047695,0.16610733,-0.185952,0.09914435,-0.009291237,0.030617746,0.1572802,-0.14661798,-0.018865332,0.2225533,0.046471797,-0.1579046,-0.035733204,0.057326987,-0.055680405,0.12200131,0.05746679,0.12519464,-0.20001785,0.099235035,0.005459933,-0.2196246,-0.1934963,0.11203982,-0.124131575,-0.2146594,-0.10646094,0.21741727,-0.06174613,0.10490615,0.26185635,-0.058438413,-0.059934814,0.18194579,-0.16645421,0.045345947,0.1529692,-0.08066428,-0.11435102,0.017967261,-0.072044365,0.04130305,0.036827773,0.119005084,0.06470348,0.15074956,-0.006675249,0.088988,-0.17903154,-0.107218795,-0.13606928,0.08193089,0.13689667,-0.0038231125,-0.1683558,0.06562503,0.014036931,-0.08139681,0.027137086,0.17441934,-0.048090745,0.15005311,-0.12959927,0.107431605,0.23355381,-0.098829195,0.1686395,-0.03699445,-0.046089824,0.09449911,-0.084539324,0.2189972,-0.14029232,-0.07907003,-0.10405375,-0.04297865,-0.059759393,-0.1259976,0.123733915,-0.020437812,0.20625994,-0.07643545,0.08354425,0.1445496,-0.12572624,0.037937794,-0.026980104,-0.098910116,-0.082953565,0.01707654,-0.06253351,0.12518261,-0.086943865,-0.17881773,-0.1114821,-0.12551342,-0.031313304,0.04576345,-0.10605522,0.11067965,0.05763049,0.012513435,-0.15369613,-0.07111087,0.11001739,-0.21644585,0.13409625,0.12442983,0.17040594,-0.13862094,0.16322325,-0.028692001,0.1773762,-0.21138242,-0.14959307,-0.058797617,0.018723188,0.28245646,-0.05376637,0.047924206,-0.14582512,-0.092353605,-0.12749454,-0.0651296,0.008014457,0.119582236,-0.07830067,-0.18022667,0.064162895,-0.25033757,-0.26405558,-0.017837403,-0.17119373,-0.113103755,0.18334144,0.015656106,-0.08091037,-0.10350202,-0.18102431,-0.04832419,-0.07725766,-0.13802136,0.050541256,0.08236328,-0.0771022,-0.060522832,-0.22341014,0.04619649,-0.01616789,0.028602991,0.1306983,0.117031045,0.15994205,-0.11928793,-0.08643415,0.061804846,-0.114375874,-0.007137634,-0.0340939,0.2047128,-0.212651,-0.04901382,0.14470266,-0.1808126,0.07661327,0.23618205,-0.034558635,-0.012287204,-0.015589856,-0.01362941,-0.21506712,0.07180448,0.046679,0.15741357,0.07388701,-0.072540455,-0.18064453,0.17066623,0.01343176,0.2784217,0.11405806,-0.1014706,0.030814283,0.029516464,-0.13751975,-0.16209869,-0.20759796,-0.16574374,-0.07696371,0.17696035,-0.0054818694,0.050629444,-0.12785798,0.029954813,-0.17467307,-0.11472375,0.012353167,0.21954198,0.06196455,0.07434374,-0.11361721,-0.03897605,0.16847658,-0.0903156,0.12458284,-0.22969426,0.0730837,-0.15644766,-0.120838456,-0.12066333,0.04081874,-0.22930178,-0.026709532,-0.1316934,0.18399838,-0.049484644,0.005437385,0.038308356,-0.02202775,0.14466842,0.06612428,-0.07763333,-0.091426305,0.13343757,-0.059841074,0.1539995,-0.10527672,0.017024187,0.046281647,0.04444341,-0.05323808,0.2021538,-0.118817925,0.03128401,0.1664403,0.13323747,0.15915936,0.14481665,0.20451291,0.049639326,-0.000078666664,-0.20659566,0.25093684,0.18325515,0.036717262,-0.19494529,-0.12868923,-0.15605313,-0.18603075,0.017409103,0.17497109,0.03404735,-0.030422524,-0.2445219,-0.005288611,0.12121085,0.14510262,0.19403912,-0.01227575,-0.09339288,-0.20968571,-0.083568245,-0.046934396,0.17848296,-0.06602384,0.09230797,-0.1340459,0.26418477,-0.09259949,-0.13807037,-0.15970147,0.153254,-0.022282293,0.09549312,0.10702685,-0.049141675,0.058128078,-0.172717,0.16126356,0.21132714,0.15763918,-0.0677537,0.2004913,0.22081724,0.04354166,-0.11932995,-0.06084228,0.03536044,-0.15208262,0.07515128,-0.055161707,0.13012323,-0.09895306,0.1169816,0.02286682,0.17779233,0.011669382,-0.062082455,0.16243574,-0.11829087,0.04562284,0.11317554,-0.1059305,0.26694766,0.084834106,0.06804636,-0.17937955,-0.16301998,0.03282206,0.05852285,-0.09174015,0.13297802,-0.087622456,0.05207199,-0.029134046,0.11869983,-0.1203753,-0.06267841,-0.17125177,-0.08418779,-0.22867474,0.074325524,0.2771892,0.012484182,-0.0100224465,0.12424368,-0.0072004157,-0.009805797,0.15715526,-0.03153964,-0.010549073,0.2548417,-0.023218371,-0.022890965,-0.120654345,-0.051953636,0.13393635,-0.08142105,0.052066628,-0.1825316,-0.028824171,0.0487278,-0.14310314,0.015448994,0.12615503,-0.2144893,0.13036206,0.23561437,0.019068046,0.1305018,-0.027520016,0.070675574,0.01013083,-0.120925106,0.08792607,-0.13806713,-0.032381956,-0.10830325,-0.07047002,-0.27321738,0.07060728,-0.067677885,0.16297811,-0.061521187,0.07766835,0.110802695,-0.007959471,-0.22073242,-0.21838507,-0.096510254,-0.08629546,-0.30152938,0.20686187,-0.101410665,0.04712724,-0.0133622745,-0.18154576,-0.14420176,0.23180008,-0.0659572,-0.105596535,-0.041400004,0.046419024,0.06600007,0.024750225,0.022189248,-0.0023561202,0.00570749,0.18092938,-0.12233176,-0.048580837,-0.06823883,-0.1458448,-0.006539917,0.04025593,0.052955788,-0.07404223,-0.11274337,-0.08325783,-0.1344856,0.03784532,0.015429543,-0.083656475,-0.24548768,0.061167747,0.00076865766,-0.00035407458,-0.16852894,0.11083498,-0.2419946,0.15616155,-0.0066203373,-0.11415918,0.12849717,0.2151149,-0.14157584,0.14234139,-0.19471823,-0.16093467,-0.011963689,0.057641257,0.3141058,-0.12312375,0.18600251,-0.1647171,-0.24114066,-0.04150931,0.054560065,-0.122646585,-0.02177243,0.025082143,0.022825168,0.22426535,-0.20209317,-0.01515277,0.075290374,0.12880862,0.007128718,0.1511153,0.092931576,0.10945558,-0.07573256,0.053369135,0.09011087,-0.17041655,0.03883144,0.16681743,-0.035168085,-0.01461668,0.021942263,0.02582691,-0.18337317,-0.08962865,0.0870057,-0.09163212,0.07654438,0.10338242,-0.16508688,0.039537404,0.09850929,-0.11156468,-0.113523975,-0.10743867,0.12731738,-0.018728072,0.18433447,-0.016672345,-0.15741242,0.18647271,0.18803662,-0.13798326,0.18590939,-0.14506909,0.17560409,-0.185914,-0.015819704,0.060999993,-0.08822457,0.15518816,0.06536484,0.05714435,-0.14275262,0.03510464,0.16787472,0.023211684,0.03667937,-0.014349318,0.21226564,-0.12930155,0.025210898,-0.107876904,-0.057209603,0.006839035,-0.25378618,0.09568163,-0.2774976,-0.0025684896,-0.18029992,-0.11241414,0.059437204,0.11937449,-0.13080963,-0.039016385,-0.11177383,0.076254904,0.04825325,-0.107098535,-0.053709738,0.045413226,0.06752631,-0.24721012,0.11332441,0.04457118,-0.014150628,0.028305983,0.0774733,-0.1803804,-0.034484107,-0.15639877,-0.06429162,0.16375573,-0.11377928,-0.042036273,0.10510941,-0.059555817,-0.09638163,-0.03707618,0.06284826,0.06417232,-0.10622126,-0.0796034,0.07329047,0.17769879,-0.14190724,0.17201662,-0.3317798,0.03038217,0.16616361,-0.14644378,-0.0027628737,-0.08038698,0.15072139,0.08668242,-0.21088627,-0.10059285,-0.07706292,-0.10617836,0.13822761,-0.10132265,0.04021674,0.06824063,-0.104948975,0.068616755,-0.11777919,0.032181457,0.25736755,-0.00022088896,0.10556582,-0.09544329,-0.08706771,0.016505396,0.0066071125,-0.12654573,0.047348935,-0.16366097,-0.014096082,0.032720443,-0.22211443,-0.027731217,-0.20794743,-0.17569686,0.041602567,0.21204247,-0.072523266,0.077672884,0.15113926,0.08209475,0.13367626,0.17697708,0.039131947,-0.03664577,-0.061441805,0.0088348985,-0.17547143,0.16355573,0.047243986,-0.10250917,0.07713891,-0.07795231,-0.016066635,0.016028052,-0.21501683,-0.14794323,-0.14093031,-0.14834698,0.052719638,-0.07380886,0.21278597,0.05816536,0.31062993,0.08037608,0.11906703,-0.11498142,0.018151047,-0.07544693,-0.10880158,-0.259139,-0.25702474,0.1478515,-0.071493074,-0.12599309,0.10123442,-0.044651486,-0.08530822,0.16086961,0.16000919,-0.069344535,-0.0939674,0.12554449,0.16966882,0.08493139,0.09238502,0.007622264,-0.06517752,-0.09535295,-0.046993535,0.014428848,0.0065254476,-0.15911944,-0.1990605,-0.08646592,0.2901423,0.060146026,0.078301564,0.10702806,0.073647976,0.011940331,0.21502084,0.092544936,-0.05184565,0.015561803,-0.08016957,0.03267927,0.11276879,0.21611108,-0.17222308,0.030706603,-0.12318483,-0.13695538,0.011932311,0.10438755,0.025982866,0.034781843,-0.20253286,-0.092908196,0.04296782,-0.21647614,0.10807068,0.08620354,-0.14685516,0.042934008,-0.14484571,-0.03889907,-0.03556103,0.17393436,0.1253488,0.15200864,-0.08048699,0.10306854,-0.11818548,-0.030791255,-0.0429669,-0.24883094,-0.27184537,-0.11165413,0.04262746,0.18200552,-0.07083389,-0.101242684,-0.29697555,-0.105614245,0.11277306,0.094026305,-0.059831973,-0.08419264,-0.068276756,0.06806206,-0.13946174,-0.09614553,-0.13769414,0.045828573,0.1945798,-0.25562024,0.13103597,-0.16393447,0.11363808,-0.062956646,0.05475955,-0.09003889,-0.12625857,0.2059219,0.06242337,-0.04601847,-0.09603145,0.07030065,-0.10946668,0.12497834,-0.11167295,-0.025602512,0.17673144,-0.17835869,0.06268572,-0.100582756,0.117841035,-0.000153029,-0.085026145,-0.02198796,0.08279702,-0.010366366,0.1402759,0.09055984,0.013033807,-0.12455053,-0.10596298,0.03933035,0.081408076,-0.19738604,-0.15981275,0.24174024,0.041297134,0.14518066,0.11732632,0.093397215,-0.14734809,0.09477595,-0.0016279832,0.07216503,-0.03017782,0.07766006,0.07371634,0.2383948,0.13908756,0.27070352,0.08201146,0.15387526,0.28849468,-0.10992863,0.23224272,0.10763137,0.044088118,0.19357373,-0.103227474,0.013095599,-0.054076396,0.004336079,-0.017966785,-0.18705565,0.022428785,-0.06554083,0.12836903,-0.025304526,0.025597142,-0.025631433,-0.18999743,-0.13014731,0.024832861,0.18712987,-0.0046477513,-0.0043907063,0.10354258,0.13577865,-0.022675445,-0.15209267,0.23405373,-0.17182866,0.040113084,0.11524662,-0.08391428,-0.19469088,-0.08451069,-0.21916978,-0.0687424,0.14335056,-0.12999517,0.10443664,-0.028948668,-0.03320269,-0.16290602,0.20600303,-0.20875202,0.06262824,-0.016009308,0.07659698,0.033330034,-0.23102014,-0.084251955,0.010692922,-0.025965221,0.034521423,0.03379279,0.16250746,-0.14685266,0.08242952,-0.18816271,0.111251116,0.07299929,-0.12253922,-0.10262231,0.057322446,0.038406644,-0.096904054,-0.16227137,-0.06160441,-0.015759092,-0.04266944,0.21010946,-0.11918282,0.08870947,0.1462834,-0.11799294,-0.14146258,0.10837698,-0.17579387,