{"ego_encoder":{"weights":[0.022459375,-0.032429766,0.12224815,0.25031722,-0.27505374,0.23449607,0.13874842,0.10918203,-0.09113153,-0.07713186,-0.14330971,0.05263885,-0.18701676,-0.23007102,0.00026992126,0.063459344,-0.27376476,-0.3540201,-0.24340658,-0.070968926,0.07323088,-0.09740403,-0.054010186,0.52032727,0.5225167,0.11376666,-0.28430018,-0.268062,0.09038704,0.25851485,-0.0073924586,0.3035195,0.028012048,-0.18338886,-0.03217774,0.27560878,0.05264728,0.12842286,0.085588165,0.081741326,-0.004245766,0.16504124,-0.21895376,-0.22533996,0.02896441,-0.19978276,0.22371982,-0.2897122,0.3469083,0.28041002,-0.027604902,0.2930325,0.29103908,-0.13116057,-0.17042384,0.055428695,-0.30728304,-0.023229819,0.30880627,0.0974683,-0.030756773,-0.06578032,0.23112623,0.22685052,0.07587878,-0.11075172,0.20204204,-0.2995486,-0.14068134,0.16810077,-0.1931106,-0.38311473,0.27075383,-0.2158896,0.21734528,0.3446403,-0.16576561,0.07455392,-0.06777011,0.059172835,-0.26475155,-0.0040454865,-0.2448542,-0.00966049,-0.07587382,0.017218783,0.06760763,0.043868467,-0.07282547,-0.2994775,-0.17458376,-0.14821044,-0.3994459,-0.31345266,0.057743378,0.022964826,-0.1234884,0.27789778,0.10557693,0.43707597,0.0466793,-0.47905958,-0.21052502,0.13152629,0.14448667,-0.10393882,-0.2845442,-0.09115981,0.23045999,0.14425167,-0.07733547,-0.15206066,-0.0058987928,-0.33041397,0.041297518,0.01871056,0.12593348,0.047178607,-0.14811595,-0.3314476,-0.24540061,0.15686575,-0.04141605,-0.05875978,-0.044212963,0.0003684442,0.23805913,-0.17611372,0.08423242,0.39938477,-0.035519693,0.3253514,-0.09046006,-0.11657685,0.13640445,0.23329304,-0.100719266,0.09931983,-0.088112496,0.003831057,-0.29815975,-0.20648058,-0.1539461,-0.37754324,-0.05248667,0.417611,-0.0739688,-0.25050473,-0.16475318,-0.5423467,-0.09745964,-0.2674962,0.25005543,0.23256934,-0.020872032,0.03418339,-0.1894643,-0.008895522,-0.2294966,0.08123704,0.034168296,-0.38126376,0.157912,0.015612362,-0.030910838,-0.0084581,0.27719584,-0.086761646,-0.14264926,-0.2682018,-0.03636991,0.04404782,0.25672254,0.3205186,-0.3751232,0.14893304,0.17011656,-0.018197093,0.06153704,-0.19573238,0.1398513,0.09872052,-0.14994627,0.21472012,0.120387696,0.13163537,-0.19857301,0.1477122,-0.052121446,-0.004418598,-0.14556864,0.41714355,-0.21907274,-0.11126209,0.34608117,0.08565287,0.19235004,0.115046114,0.43241006,-0.013065163,0.13289428,0.10308255,-0.20344204,-0.09927462,0.54850525,-0.34095216,0.05621912,-0.040479492,-0.0052405964,-0.07305854,-0.107511215,-0.25853956,-0.34254232,-0.25738496,0.16237608,0.061659317,-0.06463172,-0.070320226,0.27971512,0.030120933,0.040899295,0.028674077,0.32199636,-0.100185566,0.37187693,-0.39048436,-0.09847859,-0.07886994,-0.28886873,0.19396923,0.07357143,-0.2784373,-0.2582536,-0.332323,0.061806813,0.15669376,0.03842096,0.10794853,-0.22999585,0.07262666,-0.19750135,0.06832101,0.32001245,-0.12234845,0.25017235,-0.3576843,-0.5762535,-0.31050962,-0.013186604,0.08094048,0.13537505,-0.1065649,-0.03820552,-0.21693337,0.00634468,-0.17115293,0.027900808,-0.022943769,-0.018390764,0.22727735,0.052430667,-0.3134492,-0.08777966,-0.35775286,0.096070684,-0.15390106,-0.007586543,-0.20006149,0.49485102,-0.15580128,0.07068534,-0.43369052,0.23315883,-0.26368114,-0.38993558,-0.25329497,-0.25126073,-0.2679742,-0.21397811,0.11076281,0.1564794,0.29057375,0.06895898,0.12276949,-0.44520262,-0.12038714,-0.16852087,0.16394664,-0.15532865,-0.012041355,0.29870164,0.16472605,-0.22720224,-0.00268032,-0.16965161,0.07005093,0.09634075,0.32183233,0.011761382,-0.4169603,-0.095576786,-0.01682074,0.047708374,0.1780272,0.091294095,0.31578946,-0.20869781,0.29693598,-0.3023013,0.084021755,-0.2060017,0.37532195,0.09676556,-0.29802954,0.19057721,0.08042304,0.17652568,0.15938023,-0.12493857,0.33012313,-0.029390201,-0.1231066,0.090318866,-0.29732496,0.29477277,-0.14317195,0.25945127,-0.110075556,-0.09873688,-0.18183433,-0.2780443,0.15980324,-0.068857625,0.08755777,0.26888633,-0.36497414,0.032477584,-0.26378134,-0.23947808,0.16141479,-0.14944938,0.43207386,0.2906196,0.3967997,0.011132221,-0.07355719,-0.37903044,0.041776594,0.23392649,-0.3363828,-0.31702435,-0.26788387,-0.23644365,0.17099619,-0.18058512,-0.2426853,-0.050124723,0.15444162,-0.025928687,-0.39957246,0.094041854,-0.30452833,0.16447528,0.13292444,0.17247343,-0.33709908,-0.18877888,0.12817378,0.32265747,0.313004,0.21188347,-0.17190838,0.12313927,-0.34007543,-0.19343813,0.25957096,0.15017654,0.058991686,0.015869208,-0.008395435,0.15357053,-0.13464466,-0.39176217,-0.21489279,-0.32748285,-0.061137617,0.0069210283,0.30903518,0.079540536,0.023201719,0.004352023,0.51495326,0.30353996,0.17049146,-0.14090765,0.33779377,0.193663,-0.38197413,-0.28935924,0.357534,0.050245736,-0.09308591,-0.3030613,0.13883047,-0.30082434,-0.33447248,0.0141326375,0.036910024,0.19772266,-0.021437898,-0.18065707,0.25303316,-0.31165028,0.16412625,0.027021797,-0.13178673,0.27036914,-0.071128845,-0.33132204,0.40032816,0.051546752,0.019800315,0.11022816,0.006502816,-0.12119593,0.32271174,0.29586112,0.1077926,0.34125522,-0.10332097,0.13351634,0.1428091,-0.4249243,0.018665697,-0.062416833,-0.11974403,0.31152266,-0.08240859,0.17277855,-0.3409768,-0.25535524,-0.064888135,0.06663692,0.2561248,-0.35200515,-0.20519856,-0.20788725,0.020792611,-0.06984067,-0.28031668,0.32145894,0.252905,-0.019053318,-0.24210243,0.09026391,0.24861987,-0.16069977,-0.11394611,-0.21729194,0.22201489,-0.224165,-0.10573323,-0.3076864,-0.079361364,-0.37017712,-0.0015789623,-0.032857854,-0.3248581,-0.43428898,0.23481993,0.29244685,-0.037019502,-0.23785971,-0.21619625,0.38765576,-0.034872636,0.3129039,0.20777269,0.10168121,0.16141643,-0.13618873,0.15049255,-0.05566207,0.07124689,0.03547922,0.13724604,-0.069364175,0.31859678,-0.34691542,0.19310483,-0.08470075,0.18035671,-0.40719575,-0.24430496,-0.0495729,0.059914816,-0.036923517,-0.31330612,-0.16346298,0.36119735,-0.05996201,0.13443513,-0.17874387,-0.04269108,-0.03131142,0.2768003,-0.007744045,0.076691285,-0.43482208,0.056950953,-0.34200695,0.012165716,0.053780753,0.039067246,0.3683235,0.0777529,-0.0329575,-0.07643255,0.16100568,0.15085538,-0.12067411,0.033061113,0.2883989,-0.18378226,0.45281824,0.02745746,-0.31673068,0.019688668,0.12407629,0.056485523,-0.030269876,0.20501532,0.22276546,-0.15271132,0.39951384,0.1764542,0.12603684,0.08041913,0.24523917,0.10928616,-0.022273887,0.42833886,-0.019695189,0.06869739,-0.2890817,-0.15341353,0.17853187,0.33340904,-0.169139,-0.11694694,-0.15754764,-0.09471357,0.0133494465,-0.22809897,0.29630646,-0.16798145,-0.17756052,0.19456327,-0.13602914,-0.30938867,0.21705498,0.2600039,0.18421547,0.008620119,0.03559761,-0.24626887,0.26342258,-0.34536576,-0.0022259809,0.22431464,0.2084163,-0.12572615,0.14472033,0.13498737,0.07677442,0.37183344,0.21206787,0.1408827,-0.15721147,0.26149583,-0.15707105,-0.14423905,0.07760153,0.1028638,-0.1373083,0.057270374,0.23393248,0.005994395,0.0046128137,0.120154575,0.32825392,0.26656827,0.025122084,-0.24690095,0.0067330194,0.09963806,-0.30576357,0.05084552,0.015182386,-0.16398717,0.13373138,0.31339544,0.30333585,-0.070684634,0.009108587,-0.061337218,0.03336033,-0.07778298,-0.095224574,-0.29932797,-0.00097541924,-0.04881342,-0.19418733,-0.14507537,0.08236033,0.042179935,0.3238329,0.25717834,-0.15136686,-0.144456,0.19705193,-0.066731274,0.24157861,0.1936367,-0.33723155,0.4127262,0.28184676,0.16255496,0.21064883,-0.033728912,0.28791058,-0.017485974,0.17105918,-0.28417444,-0.030630482,0.11603551,-0.11463653,0.089101166,-0.072849855,0.12742116,0.025372379,-0.20274945,-0.053223405,-0.38539466,-0.25141823,-0.18961123,-0.0749392,0.06982486,0.060422074,0.22541638,0.1395049,0.014082143,-0.07457172,-0.20996574,-0.04628948,-0.13058202,-0.01869745,0.27643907,0.019861167,0.16860738,0.32728675,0.15742742,0.3014924,0.047395837,-0.2219523,0.05096164,0.03610049,-0.09801757,0.37939036,-0.33584815,0.057032093,0.22860606,-0.031682055,-0.015997568,-0.028349817,0.06460266,0.037748415,0.16755354,-0.38032112,0.1629007,0.09609407,0.15546113,0.019340914,0.11946268,0.020748727,0.29379636,-0.2681876,-0.27860138,0.33422327,-0.2248747,0.0027699035,0.14188741,-0.15158953,0.1956411,-0.14113909,-0.16041344,0.050636604,0.12031408,0.23824371,0.13219808,0.3205744,0.23568104,-0.19089136,0.106875256,-0.38806382,0.20147587,-0.2789204,0.3035388,0.061388027,0.046056524,0.20103322,-0.24631625,-0.13706736,0.21178576,-0.012142035,0.059449483,0.18037906,0.079179585,0.07987009,-0.21724483,-0.015413421,-0.57991284,-0.36416692,-0.37353426,-0.3964375,0.21123518,0.011110572,0.2578578,0.24218835,0.07694727,0.12762874,0.1718415,-0.2711933,-0.3335284,0.17575483,-0.023679009,0.06668467,-0.012305802,0.013416461,0.2297003,0.2297695,-0.2961477,0.07178376,-0.1665492,0.022264166,-0.14624146,-0.0042499304,0.38312694,-0.4337516,-0.6318234,0.03454019,0.006631266,0.02815549,0.21949108,-0.079171255,-0.24252781,0.12999731,0.19701086,-0.078257814,0.025059054,-0.13312624,-0.29960668,-0.26243603,-0.059783056,-0.13134962,0.118454754,0.35883635,-0.27251473,-0.36345378,-0.102089785,0.21866515,-0.22173148,-0.17865571,-0.33734843,0.57549155,-0.23515278,0.26444733,-0.12862222,-0.046945557,0.033764277,-0.32878557,-0.0111873895,0.19113371,-0.3881516,-0.21092477,0.0027347812,0.20891741,-0.18657227,-0.08663107,-0.46870056,-0.14615689,0.004925736,-0.060835507,0.06127078,-0.20684828,-0.18213315,-0.21030866,-0.24391197,-0.15163496,-0.2590271,0.31550044,0.102379866,0.2863168,-0.103584394,-0.14053059,-0.24040906,-0.09019507,0.18899828,-0.49890536,0.25227454,0.10518819,0.027661888,0.16099258,0.13128752,-0.33563834,0.19031422,0.11233289,0.40437084,0.24969634,0.34517255,-0.04035466,-0.28220508,0.2825092,0.021320593,-0.021126892,-0.00032464057,0.10298636,-0.006972094,-0.23792294,0.032404266,0.2354689,-0.069529586,0.07163706,0.010637795,-0.14509888,0.1569741,-0.21789943,0.17903943,0.036562525,-0.070720784,-0.165493,0.3953879,0.2727824,-0.22165075,-0.27766085,0.31612235,0.038537245,0.2934988,-0.105252825,0.03805785,-0.18076096,0.21128497,0.22388937,0.228183,-0.029060654,0.17225584,-0.11379416,0.17223394,0.007945001,0.10519619,-0.025776267,0.1466794,-0.46130675,-0.14982978,0.20547426,-0.26547465,-0.033684086,-0.33024988,0.18847212,-0.024870938,0.15610458,0.09383716,-0.12615621,0.46532574,0.33412826,-0.17755137,0.37159732,-0.20458439,-0.14129397,0.0035370234,-0.034548506,0.22608876,-0.17702858,0.28122097,0.075137,0.063304976,0.16791534,0.17807172,-0.052374538,0.016536603,0.083935365,0.07061279,0.2769715,-0.12685105,-0.30793202,-0.15342559,0.0076669566,0.09962711,-0.28818592,-0.15096207,-0.19853857,-0.14114925,-0.006352649,-0.49604106,-0.11426348,0.18490838,0.21861452,0.26905817,0.070575185,-0.18803053,0.1899917,0.28242448,-0.35119835,-0.13144727,-0.15100156,0.105485424,-0.1564727,0.14533363,-0.016059948,0.052216258,-0.21946204,0.06394174,0.27316564,-0.49610284,-0.24061023,-0.11457354,-0.14556974,0.32380715,0.2252798,0.19507669,0.18796925,-0.09138701,0.00014516382,0.28795245,0.20067813,-0.041287173,0.0045439075,0.32751954,0.10631733,-0.14425367,-0.28117475,0.07943125,-0.15638049,0.14212462,0.22934888,0.027417872,-0.08666292,-0.09277532,-0.08523959,-0.30385175,-0.14467841,-0.2221414,0.30080175,-0.104051635,-0.037863087,0.30663618,0.0048810877,-0.22231159,0.2505674,-0.022573208,0.31965634,0.15983509,-0.3122396,-0.107075475,-0.2645209,0.19089133,0.14905028,-0.09033009,-0.024933731,-0.19449775,0.005567127,0.1117681,0.21996424,0.28074977,0.36225408,-0.2990656,0.078780696,-0.18634076,-0.26531956,-0.07913241,-0.007834824,-0.009393593,-0.23871617,-0.16528207,0.053405724,0.07367962,0.25791574,-0.24508083,0.013293783,0.20508102,0.12423885,0.29405037,-0.34702876,-0.29082334,-0.056747332,0.024617547,0.15102784,-0.40151694,0.08883994,0.14652257,0.35688624,-0.117314,-0.030307813,-0.30024162,-0.11218748,0.060248155,0.2031523,0.03017438,-0.1457363,0.29294077,0.16445139,-0.039370228,-0.25253943,-0.0926242,0.15649633,-0.18927138,0.18459354,0.2567749,0.21819654,-0.015049032,0.05300802,0.19437617,0.033155683,-0.3008081,0.28175443,-0.2688444,0.002943504,0.21380249,-0.049685847,0.3630625,-0.0008282013,0.33987343,0.22994529,0.20662051,-0.05368615,-0.32017544,-0.09524803,-0.06387631,0.08081645,-0.18454053,0.3705689,-0.062054273,-0.102795936,0.21623914,0.076121435,0.12977119,-0.19437595,-0.23863845,-0.2232586,0.026763806,0.1378993,0.18195823,-0.1631656,-0.20261799,-0.26417282,0.0049199234,0.10983951,-0.1639891,-0.11696304,-0.16631152,-0.2442466,0.07742064,0.35117564,0.22220631,-0.46310905,-0.04333033,-0.25884536,-0.16706754,-0.20045412,-0.09221035,0.122257926,0.05252549,-0.04349912,0.11844543,0.33341268,-0.20997599,-0.094423376,-0.37610826,-0.03672409,-0.17225511,-0.21623322,-0.21135356,0.20714341,-0.1740177,0.034509603,-0.07044794,0.1287679,-0.18126619,-0.12465027,-0.39689445,0.28350085,0.17749988,-0.28202236,0.10367339,0.21256258,0.070275605,0.17607069,0.20890322,0.25823754,0.01178483,-0.16445713,-0.08259598,-0.39990005,0.18624447,0.410795,0.14820139,-0.22482775,-0.058778707,-0.08115667,-0.26054424,-0.17637229,-0.24042054,-0.08278573,0.014769203,-0.21042943,-0.12528682,0.20311408,0.114651196,0.31405655,-0.15816833,-0.009793885,0.16423336,-0.021399317,-0.19368911,-0.24132524,0.13437675,-0.24322817,-0.25643358,0.1367144,-0.2102121,0.10117097,-0.19444752,-0.16926317,0.053850736,-0.18316095,0.29876196,0.057140246,-0.016165525,-0.34836143,0.049376864,-0.02522351,-0.18584442,-0.2501747,0.057478525,-0.37956282,-0.049860753,-0.2071981,0.17272314,-0.036581025,0.46275344,0.18820435,0.32524678,0.29022223,0.18793005,0.12135984,-0.13023049,-0.12186323,0.14433575,0.12340321,-0.17530778,-0.30901903,0.009015295,-0.024973694,-0.019703088,-0.0105444435,0.0045974865,-0.13160655,-0.023141455,-0.17125823,-0.07307065,0.10534604,0.060180403,-0.2066722,-0.25853974,-0.26142797,-0.49982825,-0.30750418,-0.21205756,0.113553226,0.0042270827,-0.17903198,-0.22873688,-0.020331338,0.021137118,0.19200073,0.33394742,-0.12714468,-0.007968267,0.09566128,-0.103838526,0.11873963,-0.23179917,0.48713326,0.3434298,0.21316193,0.26035497,-0.62541264,0.17372705,-0.014990408,0.17190471,-0.029764684,0.32447973,0.19701426,0.4671068,0.26653528,0.07436477,0.092875734,0.077985,-0.16007085,0.0351059,0.35083407,0.071952604,0.25448892,-0.16716312,-0.2166178,0.39349198,0.09184985,-0.087442495,0.042613395,0.029816907,0.32336858,0.012531557,0.07188417,0.3207777,0.15577647,-0.3779508,0.18018617,0.15856251,0.12357871,-0.39251533,-0.29289332,0.083102934,-0.121311165,0.17142875,-0.10794104,0.09777285,-0.12295082,0.36358994,-0.21313505,-0.1462491,0.2193469,0.08614647,0.3469353,-0.052414283,0.14315303,0.0883515,0.083541766,0.0075473604,-0.30012804,0.16003612,-0.10083451,0.21195006,-0.39164415,-0.1281821,0.18335311,0.11586717,0.098291814,0.21464099,0.067854404,-0.2924458,0.04220352,-0.25712726,0.020931361,0.099887535,0.21193016,-0.28293106,0.080790825,-0.29207528,-0.07785523,0.29032984,-0.36706075,0.1268262,0.18970028,-0.0049447077,-0.049880728,-0.24434993,0.10809924,0.03982393,0.19058004,0.24871764,-0.0067654066,-0.14157705,-0.11073295,0.2674685,-0.37296525,0.28902367,0.15256299,-0.06637105,-0.070926614,-0.1013156,-0.2846567,-0.0053703184,0.22095408,0.051346526,-0.18807603,-0.15737845,0.2685389,0.23355015,-0.0952999,0.000107441156,-0.26422155,0.2356819,-0.2376325,0.12858124,0.06962836,0.14170858,-0.10256155,-0.29192853,-0.1670777,0.12326823,0.1724972,0.039194312,-0.19550405,0.23267284,-0.019057862,0.36987585,0.13327162,-0.20751336,0.57258165,0.12568052,-0.122071624,0.25818372,0.262506,-0.38148126,-0.07923503,0.23982485,0.09422787,-0.039723538,0.123426415,-0.29337204,0.13220668,0.2204229,0.1835249,-0.04871762,-0.21288203,0.2850589,0.33400103,0.00033032178,-0.23595618,0.2157857,-0.18100858,-0.029773792,-0.2557903,-0.010800791,0.13058469,0.2846222,-0.079734884,0.08230674,-0.22974928,-0.4181155,-0.08598019,-0.104006544,-0.24178505,-0.26903588,-0.22494632,-0.24583209,0.22853465,-0.1762937,-0.12538439,0.14492583,-0.27269608,0.013533131,0.19351427,0.05567057,-0.093821675,0.05014074,0.088337325,-0.2829746,-0.17814273,-0.22505236,-0.23979943,0.07113255,-0.04213134,0.103046045,0.56353223,0.09504714,-0.13108245,-0.16939719,-0.16204965,0.22032945,0.25147566,-0.13331491,0.26432112,0.110190816,0.113920584,-0.04540497,0.08225798,0.28947133,-0.27245754,-0.34598485,-0.08709097,-0.016234942,-0.023783457,0.28498143,0.19738768,-0.08904838,0.028604325,0.48413908,-0.3798753,-0.36382228,0.06993317,0.05044524,-0.37879282,0.05318398,0.24392846,0.23601608,0.268686,0.043308377,-0.046619315,0.18038192,0.11575699,0.021066284,-0.21488708,0.14704712,-0.12776694,-0.27084303,-0.02669744,0.1584233,-0.4523162,0.14452586,0.19651194,-0.279731,0.19743419,-0.10414576,0.23183246,0.08949205,-0.3291048,0.23923853,-0.25248456,-0.12310444,-0.035584666,-0.015699023,-0.23190446,-0.023488179,-0.092858315,-0.08532544,-0.08863164,-0.1640403,0.07122875,0.056591738,0.11669297,0.22949815,-0.5231969,0.12574238,0.19617659,0.18282092,0.16519845,0.10340692,-0.4544572,-0.18174568,0.23725532,-0.02279303,-0.22635317,0.3315181,0.18036044,0.30686107,0.25378707,-0.1222773,0.23752868,-0.21750018,0.10642704,0.05992404,-0.020071702,0.1694538,0.08290068,0.13233319,0.3142012,-0.044684913,-0.29991025,-0.070723414,0.031932462,-0.18487671,-0.41434798,0.1766028,0.21586297,0.14805342,0.09956089,0.16782205,-0.12344072,0.0006645209,0.18250208,-0.028960045,0.22088976,-0.105533846,0.13951544,-0.32558644,-0.29511064,0.10208241,-0.24261901,0.032513753,-0.04176049,-0.13319972,0.14934966,0.10499434,-0.15598361,-0.06847965,0.03631786,-0.44930634,0.3562819,0.15526152,0.09026508,0.061738137,0.3952144,0.361546,0.040608443,0.039808273,0.15403475,0.16307038,-0.3435698,-0.066258885,0.0001923808,0.062289584,0.021406969,-0.23696926,-0.25724006,-0.15362023,0.41674387,-0.071018726,0.15185122,-0.016396834,-0.20481145,0.20352793,0.10715403,-0.28497937,0.13411509,0.206919,0.26335365,-0.2126845,-0.07330567,0.005902216,-0.2426459,-0.22882943,0.2951672,0.12028976,0.22258282,-0.20019162,0.050349146,-0.17254546,0.044584896,0.12369714,0.034180056,-0.07771033,-0.13199829,-0.111235455,-0.37752548,0.3105715,0.10946563,0.23755792,-0.32255366,-0.0901676,0.2031851,0.07209253,-0.19147646,0.19673894,-0.2901391,-0.056050275,0.079916194,-0.044050097,0.22055481,-0.1821675,0.3935056,-0.31241125,-0.109357625,-0.3346324,-0.30146852,0.12014005,0.2196268,0.12123087,0.09375721,0.4406476,-0.26658732,0.30059555,-0.27607366,-0.06288881,0.07600787,-0.31239223,-0.09972934,-0.006474349,-0.1524658,-0.14249946,0.000408197,-0.28974122,-0.19169182,-0.078356475,0.06554942,0.3205624,-0.17470026,-0.26736104,0.113578826,-0.11546039,-0.29158682,0.11742758,0.11081468,-0.39072374,-0.20939726,0.049019735,0.44488224,0.050980844,-0.121746555,-0.24076392],"biases":[0.17850958,0.06762657,0.07366673,-0.0015273611,-0.10712188,0.057076313,0.051148117,-0.033658106,0.04401226,0.11013941,0.08081714,0.071938075,0.12444053,0.06840159,0.041855056,0.03321343,-0.037918616,0.12817627,0.040617142,0.009264924,0.08189368,0.064955525,0.025161576,-0.009240208,-0.005180506,0.059742086,-0.087821394,-0.013843983,0.056012582,0.0786842,0.042389553,0.01125676,0.06339579,-0.062170926,0.11134857,-0.03342006,0.13120922,0.019146396,0.101822026,-0.004019255,0.13852169,0.05951562,0.0614137,-0.01700385,0.0029472234,0.03518313,-0.020233478,0.15191083,0.02112599,0.00012779716,-0.03568302,0.048363812,0.057771105,0.01000362,0.06416313,0.05026103,-0.020684691,0.009065106,0.13382159,0.009684213,0.047203336,-0.01465944,-0.012114059,-0.026578961],"in_dim":25,"out_dim":64,"relu":true},"entity_encoder":{"weights":[0.027778218,0.24575289,0.12141022,-0.10009218,0.22732995,-0.102656685,-0.007378761,-0.08306917,0.0032134072,-0.23468578,-0.022272294,0.42750275,-0.06281385,-0.020041378,-0.21949296,-0.03298796,0.27156883,0.17548658,0.22729036,0.18090802,0.36534125,-0.18557012,-0.11731587,0.2080774,-0.01947704,0.089339055,-0.13246891,-0.0351695,-0.10281602,0.29757354,0.3721243,-0.00056197343,0.053008884,0.27054095,-0.039622534,0.2150482,-0.3705788,0.03458285,0.18679355,0.0005449933,0.34771997,-0.050798383,0.35504174,0.15643288,-0.09423184,0.024537738,-0.25723174,0.20153257,-0.0026189622,-0.053144503,-0.21146184,0.2948254,-0.08134285,0.29954767,0.13585433,0.050299227,-0.27095437,0.09093052,0.025741702,-0.11027629,-0.3136288,-0.50319415,0.009584175,0.04518246,-0.29418632,0.21244004,0.25846687,0.15973711,-0.062164433,0.08283217,0.12971076,-0.0161126,0.085066035,0.07688908,-0.00054729066,-0.43155995,-0.38571566,0.11494233,-0.13124591,0.09579047,-0.08634108,-0.040867936,-0.35479566,-0.16481513,-0.09848219,0.053167973,0.027135145,0.20993097,-0.2793363,0.27212077,-0.007439862,-0.16132772,-0.29422435,0.03439137,0.12470478,-0.012395574,0.33581838,0.24150649,0.16001521,-0.01801957,-0.16391787,-0.27731013,0.20688955,-0.3189823,-0.07873647,-0.24490812,-0.5028362,0.041933645,0.052729476,0.16274782,0.2718334,0.17203543,-0.046223223,-0.22294329,-0.16667126,-0.07619922,-0.2506133,-0.25428966,-0.4038182,-0.22998627,-0.022721007,0.4267313,0.2658298,-0.1586972,0.27147818,-0.1166127,-0.3267754,0.13371775,0.13036504,-0.014573566,-0.22353865,-0.08322619,-0.38026154,-0.07956537,0.30320707,0.22887687,0.074480385,-0.10504984,0.10514743,0.18083073,-0.19036542,-0.37495252,0.060837958,0.17602545,-0.21839711,-0.105333574,-0.068101674,-0.14761047,-0.26956543,-0.1562666,0.21400708,0.1092069,-0.27693516,0.014645997,-0.38170594,-0.20138577,-0.17080158,-0.17724483,0.205606,0.30891553,-0.07151438,-0.11501848,-0.055218168,-0.27950215,-0.25617823,-0.22432944,-0.14518563,-0.2585263,0.29869774,-0.14196108,0.22021437,-0.083756976,-0.0031170219,0.012144039,-0.08681876,0.0088495035,0.15188855,-0.19611098,0.20521192,-0.09193941,0.051447008,0.16914359,-0.3409987,-0.24557471,0.27462074,-0.18680981,0.12640478,-0.11787257,-0.032604232,0.20948681,-0.027061114,0.04308131,-0.22200413,-0.11567582,0.12180068,0.41331252,-0.103647634,0.0106620155,-0.16109362,0.22717443,0.21432298,0.020359429,-0.23655213,0.105950795,-0.0012243176,0.30695346,-0.15810797,-0.09368898,0.17994384,-0.14976028,0.37420616,0.5491841,0.14531766,-0.22406769,-0.2938516,0.037284877,0.20598696,-0.25300458,-0.21448688,0.14415227,-0.109889194,-0.110370405,-0.43811837,-0.21629146,0.03172324,-0.28600994,-0.016936192,0.2953913,-0.020701222,-0.104851685,0.39992362,0.44990334,0.2564684,-0.0043709083,0.08447034,0.14535968,0.09187852,0.056599498,0.07505734,-0.039271735,-0.6100165,-0.48271734,-0.0018466553,-0.22961052,-0.23645894,0.19169472,-0.27757168,-0.15874778,0.26654065,0.17589971,0.21715437,-0.3250477,-0.041303944,0.04639722,0.26892895,-0.35211676,-0.21403107,-0.080911644,-0.11626301,-0.05409245,-0.17976522,-0.1630633,-0.062694676,0.033498045,0.30525076,-0.37958327,0.1898315,-0.15636422,-0.28951275,-0.3211803,0.10924385,-0.27052516,-0.23659357,-0.26559025,0.032426402,-0.18535195,-0.14721738,-0.17095368,-0.11008985,-0.0231146,-0.0449251,0.16333263,-0.23669283,0.28134438,-0.019845137,-0.11218362,0.22541721,-0.090318285,0.013572131,0.11245012,-0.023206659,0.1572987,0.116030924,-0.08887078,-0.14985366,0.0075412476,0.006738022,0.11894194,-0.2502987,-0.029770674,-0.26203778,-0.20337212,-0.3756786,-0.18605365,0.10122106,0.35770908,-0.26163846,0.10590859,-0.036980387,-0.11256136,-0.40921652,-0.32977778,-0.10519019,-0.2610935,-0.024824757,-0.074274585,-0.50760615,0.009663542,0.030055165,-0.16166684,-0.17830746,-0.20277058,-0.32985768,-0.124916755,-0.018108303,0.09897724,0.12352893,0.051780585,0.08027906,0.018767497,0.15159786,-0.21013646,0.17167208,-0.04790673,-0.14948007,-0.21247314,0.25802273,-0.28221273,0.06461084,-0.03382958,-0.48224562,-0.36447692,0.087467864,0.14547352,-0.08031895,-0.22674617,0.1070176,-0.023872958,0.059026316,0.09225119,0.105591126,0.09715793,-0.21759233,0.14103371,-0.2426532,-0.011946379,0.11203456,-0.083582036,0.26406324,0.24073444,-0.17203395,0.2428164,-0.44321612,-0.08318685,-0.17771299,-0.03579725,0.34012526,-0.17443301,-0.09642675,-0.11857943,0.122571215,0.09858591,-0.06657592,-0.32529265,0.2403135,0.12694691,-0.015242108,-0.0217119,0.07478125,0.048825294,-0.10940242,0.101114996,0.10308432,0.12804528,0.1559054,0.12925854,0.21650665,0.031664826,0.104300775,-0.005993154,0.48681062,0.37332812,0.25366494,0.040621243,-0.15210527,-0.021401275,0.15862793,-0.053520784,0.19085816,0.058735006,-0.23136301,0.22699371,-0.28572538,0.2794706,-0.39371058,-0.112257816,-0.23901954,-0.036097456,-0.16539522,-0.084107034,0.4092112,0.26945993,-0.038032126,0.3040609,-0.2526657,0.040344115,-0.19428243,0.31804162,-0.25302243,-0.07013228,-0.21507607,0.18880129,0.12871179,-0.009863596,0.008791996,-0.12909083,0.13820916,-0.10975439,-0.37911305,0.22452886,-0.11064501,0.3035727,0.31530038,-0.061064947,0.13300192,-0.28185132,0.16743559,-0.15342493,-0.0065488415,0.057715554,-0.1583,0.29548755,0.2737679,-0.30046567,-0.11281524,0.069692865,-0.06154019,0.0647481,-0.11728089,-0.34083146,0.34120095,0.35232097,-0.23111291,-0.12701544,0.35179663,0.07195976,0.1074699,-0.016841684,-0.1665806,0.07049833,-0.3828082,-0.012714384,-0.3880427,-0.20355137,0.06682132,-0.04542421,0.03418643,0.049274333,0.27762315,0.005797062,-0.09451489,-0.10896032,-0.45058018,0.31919372,-0.16404115,-0.029433003,0.07614783,0.287706,0.24692787,-0.40097973,0.42481822,0.342063,-0.11271871,-0.006897864,0.22355214,0.082230106,-0.28309134,0.029945143,0.37746495,-0.3618502,0.40434527,-0.21894157,-0.15537907,0.11841286,0.21875536,-0.1666403,0.18711597,-0.040078055,-0.24592757,0.1850576,-0.43301156,-0.22669679,-0.22902639,0.08384125,0.020499105,0.08344741,-0.13536102,0.11433897,-0.17117451,0.19152164,0.05506693,-0.15658559,0.10614052,-0.17348167,0.15178242,0.09857789,0.053023152,0.17256235,0.020356439,-0.1291606,-0.14058289,0.2059505,0.043416608,0.15758023,0.15887812,0.45614874,0.11702163,-0.25572726,-0.079080895,0.1744338,-0.1332058,-0.24615335,0.09964482,0.08431632,0.25453714,0.4355927,0.09899824,-0.25068748,0.0934483,0.09969388,-0.015442068,0.3360047,-0.03321344,0.14979142,0.32377136,-0.18538879,-0.016451769,-0.1322919,0.044597965,0.021445088,0.09838719,0.11479203,-0.315063,-0.05135773,-0.101937525,0.32177392,0.061670575,-0.0237429,-0.096691914,-0.35597396,-0.48879674,-0.27111518,-0.4405338,-0.055436477,0.105991244,-0.20632654,-0.013175265,0.21062495,0.28112727,0.19210497,-0.40736258,-0.34572858,-0.19302616,0.008655744,-0.26094297,-0.1868126,-0.29442883,0.011201448,0.07053457,-0.029240798,-0.06867753,-0.15003161,-0.20969391,0.14923842,-0.12905292,0.0442554,-0.23215574,-0.37637258,0.13402522,-0.054786507,0.28606117,0.22606105,0.250804,-0.12024202,-0.14411117,-0.008631404,-0.07098398,0.061736766,-0.19322315,0.24596252,0.23233898,0.04386749,-0.23699474,0.12809788,0.18769442,-0.025733158,-0.1812273,-0.2488489,0.027322996,0.009489988,0.30594,0.33784816,0.35900056,0.015310097,0.05599207,-0.029310955,-0.05869992,0.050343957,0.062677056,0.18106164,-0.17145391,0.27925786,-0.16840707,0.1581583,0.15208824,-0.008210502,-0.096609674,0.127381,-0.3970531,-0.16926053,-0.356258,-0.10882047,0.008052894,0.25270143,0.08497023,0.14337456,-0.3214625,0.14503936,-0.14241295,0.28720757],"biases":[-0.039232023,-0.05932109,0.0007550714,-0.015652869,-0.056460295,-0.019000074,-0.055329204,-0.022094501,-0.043374036,-0.059194542,-0.056480825,0.016056411,-0.058918525,-0.017119423,-0.0035465432,-0.016685316,0.043224428,-0.0065374984,-0.039575562,-0.036968082,0.0067676064,-0.027609283,-0.08624631,-0.009252573,-0.009027352,-0.024116784,-0.01716675,-0.047252204,-0.041198906,-0.043150336,0.015092381,-0.020373132,-0.021413546,0.0034192372,0.027686102,-0.022273729,0.020017352,-0.010454889,-0.05341263,-0.011552451,0.018326433,-0.053821,-0.010373499,-0.0040957094,-0.07796231,-0.035690702,-0.01844916,-0.07975338,0.045590375,-0.04796782,0.04881514,-0.08309433,-0.015755616,0.00088810036,0.01623401,-0.0148570435,-0.019063782,0.047912832,0.0,-0.035235297,-0.039077394,-0.018425494,-0.07396377,-0.02837584],"in_dim":10,"out_dim":64,"relu":true},"attn":{"w_q":{"weights":[-0.13754533,0.0018493243,0.09915109,-0.21505775,0.12850149,-0.18433563,0.1298613,-0.17912231,0.19311085,0.23164389,-0.057021014,0.0032529745,-0.11363856,-0.08653634,-0.1582959,-0.07729273,0.16471648,-0.017618202,0.048457753,-0.017761007,-0.10570593,0.09400785,-0.028418424,0.062270347,0.083681196,0.1125032,-0.075912304,0.21702546,-0.15267526,0.0670428,0.05140312,0.112757884,0.04693629,-0.060580995,-0.17542802,-0.042463977,0.1308364,0.21364056,0.14138274,0.17450918,-0.15772155,0.19808036,0.17902216,0.18720502,-0.076271385,0.210748,0.024073662,0.005434067,0.1790224,0.10235125,-0.07786154,-0.11169795,0.11074983,0.12429131,0.1578531,-0.13928011,-0.07397678,0.057297792,-0.09171217,-0.090798475,0.03608049,-0.13401236,-0.049937762,0.17048031,0.16673367,0.16401528,-0.01579685,-0.18588777,-0.03165509,-0.21249829,0.039915152,0.19302209,0.103743486,0.035199266,0.111222155,-0.18407086,0.19354899,-0.13998418,-0.12302887,-0.037818663,-0.18924795,-0.039219223,-0.036891732,0.109364934,-0.04169212,-0.17292951,0.045417055,0.05910622,-0.07434157,0.21429072,-0.13477588,-0.14284126,-0.15659665,-0.17878938,-0.1403807,-0.114660636,-0.026487052,-0.08292538,0.14755656,-0.058539424,0.15198915,0.18370263,-0.0031565148,0.14552869,0.1980299,-0.14567119,0.07209403,-0.003314447,-0.07028215,-0.16707036,0.026982464,-0.11915762,-0.046455353,0.07523788,0.1933373,-0.011763491,0.1213998,0.050357617,-0.17497602,-0.17258726,-0.10176916,0.04413243,-0.05463624,-0.012213916,-0.059002277,0.2042991,0.11569021,0.15484722,-0.19111401,-0.031533647,0.06493569,-0.15508881,-0.0042781364,-0.05443896,0.084885545,0.15668724,-0.1284063,-0.049829565,-0.21239993,-0.008471566,-0.10875282,0.06682219,0.1489762,-0.037495285,0.11029155,0.1016577,0.13625143,0.12391218,-0.16600291,0.02533335,0.064698696,0.11228115,0.039022274,-0.18734336,-0.1885142,-0.104221895,-0.049857795,0.108953856,-0.124955915,-0.21080373,-0.08470493,0.07949078,0.13019945,-0.15777527,-0.09445153,-0.103592716,-0.0034789073,-0.17347232,0.16710171,-0.23196726,0.14215125,0.022046741,-0.022741875,0.15939435,0.058138575,-0.10235319,-0.14291777,0.17128918,0.10670516,-0.038428508,-0.18298435,-0.13376492,0.10650562,-0.04895215,-0.19285834,0.14008594,0.12851252,0.13584271,0.063402146,-0.17321661,-0.21777527,0.16707143,0.17916608,0.08493496,0.16594464,-0.057393514,0.10833365,0.048265964,0.18221825,0.10036075,-0.022992626,-0.00778576,-0.22826374,-0.07805467,-0.05321527,-0.010650532,-0.1052085,0.05695782,0.15554613,-0.031385675,-0.1945512,0.14252718,-0.08660946,-0.04838239,-0.14214347,-0.20524806,0.17552711,0.023306403,-0.021992069,-0.21712182,0.05956382,0.2015763,0.013756299,-0.053584352,0.1373325,-0.09671497,0.19553594,-0.089926876,0.011911026,-0.16044109,0.20957074,0.006924026,-0.12188702,0.047023002,-0.18787025,0.14041534,0.14268737,-0.108961955,-0.07267103,0.13829723,-0.050556555,0.19206403,-0.12248971,-0.0029659355,0.058465257,-0.1862423,-0.1484413,-0.13850452,-0.071361355,-0.10979813,-0.11191042,-0.12201964,0.15209845,-0.13538145,0.10373649,-0.1718943,0.19229183,-0.021435244,0.06813908,-0.0651113,0.011431773,0.07372612,0.15636513,-0.04833018,0.016304094,-0.19229065,0.14300314,0.15317933,0.1976979,0.13110039,-0.11320017,-0.00029490146,-0.005530544,0.12695158,-0.17337003,-0.104321234,0.04650403,0.028100193,0.06435202,-0.080289885,-0.17685723,-0.06885683,-0.14133966,0.06297058,-0.21752688,0.039702866,-0.24725975,-0.06517043,-0.21331154,-0.10523461,-0.034000847,0.02157147,-0.13400088,0.14675184,-0.044351876,0.1432229,0.18479054,0.21448673,0.05508039,0.009753634,-0.17537323,0.13844131,-0.13020758,0.023062948,-0.07669976,-0.09870464,-0.22443883,0.24879205,-0.11063518,-0.12630211,0.07529314,0.010252221,-0.07331948,0.0890151,-0.2282183,-0.0044674906,0.18639907,-0.079724684,-0.0060797743,-0.104458116,-0.004782807,-0.0066120704,0.095107436,-0.12711091,0.10931715,0.14213483,0.08818969,0.009929806,-0.0345801,-0.08076735,0.13846833,0.15548253,-0.260029,0.03945346,-0.033694476,-0.20495377,-0.1617637,-0.013179413,0.13641909,-0.123749174,0.14618129,0.06946434,0.076136194,-0.18515925,-0.10707767,0.19865921,0.03476472,-0.13452074,0.081463546,0.22243291,0.1494018,-0.108471476,-0.15411168,-0.041899078,0.051958717,-0.16249223,0.053394713,-0.00589634,-0.011030734,0.14757082,-0.07104732,0.060689215,0.025184859,0.17165345,-0.04801632,-0.13310185,0.21578845,-0.021953417,0.19861953,0.16637972,0.13477404,0.10169227,-0.20433721,0.19069576,-0.17357032,0.25055128,-0.18414554,0.05694485,0.03431098,0.0031141932,-0.026388727,0.042914867,-0.040633224,-0.103522904,-0.214165,0.14282188,-0.008104785,-0.03333685,-0.19338864,-0.14422792,0.12890765,-0.0062015755,0.15005457,0.1696903,-0.0679766,0.18073936,0.073079735,0.1491087,-0.13580614,0.13835524,-0.15102871,0.0698333,-0.10330262,0.17888388,0.17504476,-0.15666747,-0.074348435,0.15370393,-0.12298829,0.08230356,0.23584369,-0.0851369,0.15044665,0.046631843,0.13884676,-0.07475851,0.0067548603,0.0271996,0.06609436,-0.05155579,0.024730306,0.13093902,0.14304076,-0.037010282,0.09575577,0.21281587,-0.08922398,0.01039547,0.1668684,0.21778052,0.11162674,0.041767318,-0.07562626,-0.16613771,0.083421454,-0.09446248,-0.009618613,-0.033380836,0.054246157,0.14965524,-0.12755871,0.14521319,-0.07125089,0.19027877,0.1813723,0.07327094,0.067833535,-0.13332573,0.13216242,-0.1918126,0.15141797,0.1933255,-0.025347862,-0.19400296,0.06612841,0.14435431,0.11911899,0.042629197,-0.25954726,0.23361227,0.1567095,-0.06897065,0.20362023,0.17443565,-0.05745495,-0.047375612,-0.05712659,-0.06921271,-0.16025133,0.038300462,-0.24102044,-0.060819745,0.019235915,0.16740683,-0.1575555,-0.048151135,-0.16880079,-0.09084032,0.20082726,-0.15515545,-0.055677325,-0.008585812,0.060750876,-0.08304543,0.0037266961,0.1379743,-0.13531038,-0.010744758,-0.100030705,-0.080962285,-0.14943129,-0.11890281,-0.030454727,-0.002410112,0.19100368,-0.037485946,0.2070139,-0.08732947,0.10945525,0.068755075,-0.011497177,0.090435475,0.05505995,0.11339547,0.19513413,-0.015271222,0.016053263,0.045464337,0.070299,-0.2494117,-0.07922978,-0.01084547,0.033250224,0.17590857,-0.17506535,-0.052934986,-0.13295335,0.084454685,0.085614696,-0.16524087,0.15522519,-0.08702244,0.1562765,0.044264115,-0.11244287,0.071198635,0.043450195,0.25940353,0.176828,-0.1765549,-0.035587586,0.09626141,0.05739074,-0.10977841,-0.07551414,0.010836265,0.0038672406,-0.050630406,-0.09795468,-0.12482012,-0.15789089,0.04949879,-0.0417103,0.033782374,-0.05743643,-0.07529478,-0.092424914,-0.040582947,-0.27362785,-0.11450726,0.029111298,-0.2703722,0.030069506,0.033901226,-0.17348202,0.072282314,0.08605464,-0.1479258,0.31316778,-0.19382866,0.17457613,-0.042890634,-0.1118981,-0.02338636,-0.00017815684,0.20983256,0.02842708,-0.06629293,0.035019364,0.12861282,-0.13205977,-0.12931415,-0.04866985,0.03170356,-0.077422984,0.24061598,-0.20094605,0.10387025,0.038895693,0.1627935,0.18688037,-0.19335309,0.1918671,0.079083726,0.14903846,0.09850842,-0.012292622,0.16512042,-0.135277,0.058943428,0.038420115,-0.03401787,-0.014387203,0.10113279,0.013335083,-0.16791183,-0.10051866,-0.1618748,0.09913907,-0.017145963,0.17953275,0.10461379,-0.045194466,0.044326,-0.06258391,-0.19536065,-0.10179918,0.06401013,0.12750362,-0.1601049,-0.07924629,0.1475346,-0.21490628,-0.17038941,-0.16969758,-0.06431933,0.08630605,0.1610238,-0.029452331,0.11191918,-0.118858285,-0.19977261,-0.04935855,0.009880896,0.028236851,0.16458768,0.0011813778,0.05246152,0.026270045,-0.12682627,-0.07359772,0.041164342,0.027399741,0.24898443,0.2221361,0.056930967,0.032859307,0.09533575,0.15580174,-0.1427751,0.11469411,-0.06994812,0.07879623,0.1997005,0.03726363,0.047982562,-0.033617243,0.022835407,0.0641841,0.04694508,0.030973721,-0.08998404,-0.07177696,-0.18278092,-0.14993522,-0.05842946,0.025058854,0.18633567,-0.16333519,0.18340415,-0.09833891,0.07485229,-0.16087802,-0.3067668,-0.035256434,0.016138345,0.10010376,0.13902518,0.1577832,-0.020622911,-0.0548632,-0.02701529,0.13279822,0.22225837,0.15028995,0.24330199,0.072061226,0.002087427,-0.21501867,-0.17585352,0.20546369,-0.108477384,0.21374437,0.12034968,0.040692996,-0.07822278,0.27766708,-0.020013554,0.09614244,-0.13860813,-0.09084938,-0.100204654,-0.15129903,0.070434324,0.08601457,-0.10597788,-0.15980029,0.2024352,0.026312318,-0.10222846,0.06599728,-0.049807545,-0.066808194,-0.015764786,-0.08645107,0.075752586,0.11895784,0.04726539,0.105932094,0.0172564,0.028725069,-0.18172406,-0.07578971,0.078707755,-0.09505767,0.10168806,0.01582557,-0.0319092,-0.025666265,-0.23810725,0.08091843,-0.20530386,0.147196,0.00789335,0.22844951,-0.07124248,-0.12493594,-0.25298688,0.16279149,-0.1082123,-0.05376544,-0.09011133,0.038316365,-0.00203304,0.16379066,-0.053799838,-0.1525647,-0.07151879,0.07147245,0.1701821,-0.120622344,0.020975381,0.031953923,0.000895508,0.14974488,-0.21918215,0.17701901,-0.08270943,0.056406464,0.061793055,-0.10823035,-0.14098337,0.11337256,-0.22116823,0.0063831042,-0.11927792,0.11877075,-0.06941901,-0.21815106,0.027161244,0.18079185,0.121416494,-0.1109794,0.13197711,0.190186,-0.041317537,0.2149735,0.24552207,-0.109135985,-0.26326382,-0.052115828,-0.11854667,-0.13782908,0.12495144,0.12199545,0.11656096,-0.032167163,0.027487224,-0.120951556,-0.041468684,-0.09701069,0.060776927,0.047681782,-0.023563098,0.09192089,0.048329506,0.039366227,-0.2887901,0.06841412,-0.19518651,-0.1316372,-0.010442858,0.22064652,0.032760393,-0.10587096,-0.23514557,-0.07549381,-0.26882154,0.023893686,0.23115811,-0.008945156,0.07713579,0.16005628,-0.0033304146,0.09173953,-0.1027025,-0.20218639,0.10208544,0.13767467,0.032462884,0.13078469,0.11173206,0.11262909,0.1527972,0.08038811,-0.090440534,-0.092631154,-0.10791461,-0.075077236,-0.15464437,-0.105769336,0.031947866,-0.0067667,-0.030293956,-0.07169662,-0.17439526,-0.23173527,-0.100154944,-0.10499315,0.11200474,-0.091528185,-0.18505652,0.09150602,0.083212905,0.097928174,-0.13307671,-0.23356977,0.09794189,0.16457815,-0.24397817,-0.20464511,0.08277542,0.03420263,0.1347123,-0.14365189,0.23089069,0.13708083,-0.07610037,-0.037705258,0.15443632,0.20959274,0.11420866,-0.015730496,-0.20434114,-0.27456358,-0.0028960442,-0.02974844,0.061524812,0.10903909,-0.024800394,-0.08325872,-0.22490971,0.10324235,-0.090504125,0.15127821,0.14523983,0.10287435,0.21251962,0.124226235,0.10096371,0.14283356,-0.047902044,0.085547134,-0.0040985653,-0.0017270127,-0.018218007,-0.06575298,-0.16390043,-0.0862021,0.1163412,0.06999932,0.059115116,-0.04675887,0.22287075,-0.056950755,-0.07094957,0.0066586845,-0.15883479,0.113743305,-0.019106563,0.10995633,-0.021929275,-0.18668006,-0.1483432,-0.13573514,0.114402935,-0.08567937,0.13136111,-0.013854841,-0.021896472,0.11419243,-0.13084622,0.050398484,0.023989499,0.04112242,-0.08134158,0.05160755,-0.06805548,-0.15823884,-0.034176,0.14865656,0.107045844,-0.237278,0.19838814,-0.016330253,-0.052585095,0.19888578,0.12182179,-0.13414012,0.08531556,0.14207186,0.18510209,-0.1892379,0.16439795,0.07945976,0.12159748,-0.09951292,0.07586232,-0.028368456,-0.17488515,-0.11050153,0.16807242,0.22661029,-0.07411579,-0.0036911797,-0.1127106,0.12752436,-0.13563067,-0.20416668,0.057550672,0.011872761,-0.055279642,-0.096074715,0.1387564,-0.11036852,-0.16983132,-0.12019604,-0.14765412,-0.17565672,0.024552437,-0.17227937,0.108654514,-0.07911131,-0.091741286,-0.15212476,0.07173202,-0.027282404,-0.25642157,-0.12214544,0.13078232,-0.15009387,-0.16002986,-0.015045941,-0.05905863,-0.19238575,-0.034335677,0.027512437,-0.1862862,-0.12248108,-0.09180057,-0.1471906,0.07980161,-0.0082807345,0.015272376,-0.065920234,-0.09226242,0.11878601,-0.042504545,-0.10327975,0.20862243,0.14478189,0.09807225,-0.12039894,0.11493954,0.16068506,0.23281783,0.017747905,0.16464405,0.20894967,-0.12696365,-0.24815139,0.068187386,-0.19528744,0.120693795,0.06692643,-0.15728888,-0.005557571,-0.0874625,-0.18503913,0.10302795,0.015896289,0.022593958,-0.12551703,-0.15062463,-0.024920193,-0.1413156,-0.07547713,-0.084461845,-0.06685259,0.13742784,-0.005299177,0.08611157,-0.079238355,0.309973,-0.030744419,-0.21809906,0.055473715,0.0073389076,0.12885399,0.03037499,0.20674072,-0.031077337,0.107221976,0.018117825,0.10581372,0.050807122,-0.06956546,0.22360426,0.050965987,-0.22521482,-0.018702986,0.036077384,-0.08452283,-0.16148773,0.11430175,-0.10372303,-0.2088827,0.07508211,0.16520089,-0.15130807,-0.09986922,0.046981957,-0.04690565,0.061653934,-0.15192968,-0.102098115,-0.2129614,0.028397517,0.099454165,-0.11676642,-0.08298567,-0.033962175,0.021268785,-0.17588425,-0.17359614,0.02342393,-0.044481058,0.14023422,-0.055745628,-0.10918267,-0.1140059,0.15860891,0.31117252,0.06745031,-0.1224147,-0.056796905,0.03136106,0.14497511,0.21324947,0.14695969,-0.23420578,-0.13354361,0.13945246,-0.066473395,-0.112476915,0.04835613,-0.01598302,0.24588238,-0.026852338,0.12784846,-0.12564318,0.03488877,0.06401832,0.039621204,0.09442772,0.12183593,-0.041201692,-0.16796955,0.1928577,-0.09896973,0.08308424,0.0174633,-0.10155477,-0.029258285,0.05200735,-0.001223666,0.23397475,0.14815119,-0.25199556,0.053979233,-0.047102507,0.09271692,0.10345698,-0.11654703,-0.08196963,0.010180036,0.15933022,-0.017154481,-0.046980254,-0.18560404,0.11700537,0.028735073,-0.056874927,0.007009995,0.10378606,0.18807009,0.29150218,0.19563228,-0.1701094,-0.14939179,0.12841687,-0.08036248,-0.133453,-0.09505676,-0.235678,0.05601618,0.024877012,0.09957461,0.1428199,-0.19464807,-0.065296404,0.08685566,-0.08331785,0.00055936,-0.00054962595,0.06125398,0.11121512,-0.019283162,-0.029222228,-0.019559162,-0.10337209,0.008431353,0.03398572,-0.17625336,0.15364937,-0.20373589,-0.21023881,0.017558547,-0.0061794184,0.3543188,-0.07594409,0.04650061,-0.0061275577,0.06080644,-0.039336037,0.04771869,-0.09836333,0.06287544,0.11420426,-0.17455012,0.1566359,-0.24559066,-0.18020403,-0.28752086,-0.06548579,-0.22752261,0.16662098,0.020496476,0.14439662,0.056254636,-0.061563052,0.024021983,0.22123995,0.10678289,0.065660544,-0.084302165,0.0039063664,0.17891677,0.03991993,-0.04871767,-0.03975241,-0.07337249,-0.009546839,0.07066753,0.11858189,-0.20918074,0.21619938,0.01064605,0.020403884,-0.015095893,0.15387864,-0.09612602,0.087985106,0.040025104,0.13919118,-0.095651805,-0.08392488,-0.03871106,-0.19046663,-0.11504873,0.19866495,-0.03829483,0.2730573,0.022476502,-0.1595436,-0.07192534,0.16441004,0.10669469,0.12723558,-0.0020996113,0.011871881,-0.026655978,0.1019707,0.0189005,-0.22834888,-0.1226713,0.033537198,-0.08970056,0.051677704,0.047853388,-0.091067106,0.021235222,-0.15348405,-0.036780458,-0.22127008,-0.049198724,-0.0020324364,0.050042085,0.17379944,-0.19119845,0.10889871,-0.15353504,-0.18320437,0.16624469,-0.12312497,0.05054248,-0.0005068043,0.0101394495,0.050418336,0.089186534,0.20772988,0.23756948,0.106218845,-0.25628376,0.014704859,-0.030813076,0.034363974,0.12644675,0.16940367,-0.11247412,-0.18955381,-0.15439986,-0.16259317,-0.01565848,0.07553698,0.06851647,-0.13220455,-0.017346494,0.091763556,0.09954123,0.037181202,-0.0026915302,0.10955089,0.028404769,0.009364016,-0.012427419,-0.12519537,0.14044347,-0.16611356,-0.16395624,0.21564776,-0.021245355,-0.08044918,0.13910045,-0.16167332,0.09373332,-0.08177216,0.019935807,0.19257528,0.2993582,-0.06752677,0.14904189,-0.020669505,-0.071944326,-0.021182,-0.091418564,-0.19569732,0.015407677,0.18139212,0.006941156,0.17699304,0.17829607,-0.18685453,-0.1112254,0.12597957,0.13733958,0.06054675,-0.09024609,-0.07307703,-0.12371209,-0.030814786,0.035920735,0.042029165,-0.26238924,0.02170789,0.18872868,0.13287857,0.08063796,0.111967124,-0.09778381,-0.061638802,-0.11179478,-0.035163067,-0.065854,0.17213365,0.02390014,-0.26752487,0.06893186,0.17584021,0.26986495,0.039110415,0.055157762,0.15061557,-0.17682168,0.17386845,0.019159237,0.115383744,-0.050132383,-0.22248238,0.070530206,-0.116794206,-0.059601896,0.039524976,-0.12166442,0.053209674,-0.099574104,-0.039596632,-0.20302731,0.105337344,0.15452543,-0.14454082,-0.12829196,-0.1166271,0.025889067,-0.09813373,-0.192983,-0.16494837,-0.17168419,0.14581805,0.12769535,-0.192176,-0.12671557,0.062157325,0.25431633,0.1336705,0.08372405,0.06593908,-0.1858688,0.034585394,0.08312834,0.01989834,0.1471697,0.06731848,-0.026554955,-0.056960784,-0.21601741,-0.145084,0.06496451,0.07946769,-0.043008313,0.03435192,0.04855825,-0.013743499,0.04162118,-0.08291376,-0.060598526,-0.0829647,-0.16636851,0.19785252,-0.25702667,0.098681316,-0.12099887,0.15784578,0.07561011,-0.006129608,-0.16843781,0.036893144,0.101173274,0.001143007,-0.24011622,-0.04324074,0.14854601,-0.029188164,-0.2010739,-0.06787867,0.05330964,0.047013894,-0.06880776,0.030395428,0.03661914,0.13229848,0.2547802,0.13393214,-0.10802087,0.1641805,0.03954329,-0.1767853,-0.104591295,0.06459078,0.06368954,-0.020634992,-0.017108308,-0.19882053,-0.13308032,0.0006449112,-0.10084934,0.04009952,-0.03844552,-0.17150633,0.07526144,0.032443993,0.18843743,-0.09310961,0.06063677,0.078055024,-0.056754045,-0.20095745,-0.21886092,0.03318215,0.011966699,-0.08413512,-0.057987154,-0.017500116,0.034403987,0.09979558,0.057688702,-0.052637797,0.009378467,0.029917292,-0.070437245,-0.16426875,-0.111924686,-0.157844,-0.0254577,0.1357747,-0.2054249,0.016700001,-0.21054669,-0.26639476,-0.3640531,0.34244886,-0.024274588,-0.030180784,-0.13054022,-0.17871283,-0.046347518,-0.048907474,-0.06440806,-0.0106673585,0.040398303,-0.045838855,0.06387202,0.07240076,-0.099724874,-0.29709888,0.12689519,-0.01614793,0.1000609,-0.21046743,-0.0022913136,0.01802139,-0.2183364,0.33840814,-0.16034007,-0.026308179,-0.20626816,-0.068865955,-0.26274902,-0.097672604,-0.07662126,-0.071524575,-0.035506863,0.116592616,0.13895841,-0.19878666,-0.067674905,-0.15462475,0.042179722,0.074763976,0.007915044,0.19482063,0.07899451,0.059138488,-0.049822845,0.094274916,0.033330366,0.109616645,-0.017630424,-0.05902444,-0.14845835,0.076800235,-0.02883989,0.02928712,-0.00087535125,0.086655654,-0.26916632,-0.17521575,0.17932573,0.080072835,0.054019768,-0.10756982,-0.14881936,-0.016418671,-0.090842806,0.084570944,-0.11851637,0.23723434,0.13733417,0.073960796,0.06008064,-0.07725938,0.07588528,0.09336889,0.12451711,-0.08063884,0.013004742,0.06766586,-0.006198129,0.051944233,-0.06008793,0.11164862,-0.08746282,0.27531192,-0.020041466,0.015561418,-0.13843863,-0.05480992,0.004631553,-0.07248186,-0.17075635,-0.19722281,-0.031855132,-0.02747335,0.09319537,-0.17337286,0.11884773,-0.23767659,-0.25136328,-0.22085324,-0.041404426,0.06818128,-0.026372897,-0.21051247,-0.04153017,-0.11280518,-0.19320989,-0.07863577,-0.017657977,-0.14219318,-0.042164356,-0.20066756,-0.10520891,0.1095091,0.055925325,-0.076721914,0.065652885,-0.033987977,-0.051854145,0.073276274,-0.110244505,-0.037935942,0.08315689,-0.009523755,0.06880247,-0.0993545,0.030913336,-0.17618555,0.16674261,-0.014316802,-0.24186274,0.09638945,-0.07022625,-0.026755124,-0.20950225,-0.020102553,0.020386465,-0.083946735,-0.09354142,-0.19931266,-0.1256757,-0.117105216,0.013162746,0.06640013,0.27538627,0.0493848,-0.20584992,0.17728202,0.03742158,-0.021354293,0.08065515,0.10409791,0.24163423,0.04366909,0.27083415,0.12585688,-0.042846028,-0.11695056,-0.06864134,-0.14522097,0.27863595,0.06002422,-0.042218056,-0.10383232,0.13139687,-0.09606313,0.032916106,0.034145184,-0.11797653,-0.046622068,0.008292735,0.07846739,-0.1333724,0.04210092,0.1042512,0.08699486,0.18453011,0.17046191,-0.073304795,-0.034172475,0.24757569,-0.028607212,0.13187419,0.13947743,0.050102945,0.05599396,-0.13517675,-0.074464746,0.04173552,-0.2705633,0.14873664,0.1128675,-0.0732722,-0.011437293,0.009348806,-0.033029787,0.100172475,-0.1406876,-0.18740357,-0.057105053,-0.0013594881,0.15076406,0.17057125,0.097301885,-0.03454577,-0.014629176,0.024256239,-0.0070624473,0.061180327,-0.09301886,-0.10100656,-0.04570095,-0.20318663,-0.29826307,-0.0051448713,-0.030730883,0.03840404,-0.049484793,0.04260379,-0.012838218,-0.07767388,-0.07567122,0.032669276,-0.11250308,0.038013,-0.1397102,-0.050600536,0.111126855,0.22759223,-0.22643574,0.08527457,-0.08717849,0.13127884,0.10859298,-0.12152486,-0.048916165,0.06731287,0.17133693,-0.20937403,0.17207149,0.056588843,0.07526016,0.11626059,-0.07131265,0.06892032,0.052416306,0.26184368,-0.14258198,-0.022808544,0.13983364,-0.06119624,0.13731673,0.20969741,0.25073445,-0.1080452,0.18013062,-0.15721978,-0.14980075,-0.06435302,-0.01192112,-0.051196918,0.15227625,-0.23534328,0.06603995,0.18393531,-0.28529313,0.10320755,0.025072807,-0.051589523,0.13091181,0.10300098,0.06604464,-0.080931425,0.09944525,0.035194512,0.08066152,0.15778936,0.0005762171,0.05969791,0.010309042,0.26977533,0.00057571486,-0.1199245,0.07434354,-0.00047153654,-0.101496756,-0.031591225,-0.1091317,-0.1636005,0.019468267,0.18578391,0.030893981,0.14995797,-0.060993664,-0.0984567,-0.059000086,-0.2485404,0.026867457,0.01706744,0.012361133,0.054205153,-0.055846293,-0.13458364,0.13195756,-0.026977992,-0.050125454,0.062378097,-0.098485775,-0.14838143,-0.27612063,-0.08611097,0.33479324,0.12196194,-0.08058297,-0.17845216,0.26972815,-0.14454421,-0.027077489,0.047173146,-0.07752204,0.020006986,-0.051665474,-0.044037007,-0.12465786,0.005175841,0.17273262,0.015366285,0.07310337,-0.10571195,0.07258826,-0.22692479,-0.056887917,-0.16111363,0.19406396,0.09092643,0.07333833,0.0020280946,-0.06518692,0.0886806,0.13508414,0.08773936,-0.08303119,-0.09450959,0.18561108,0.06865945,-0.1432572,-0.04086708,0.074038595,0.19952561,-0.23627532,0.087862454,0.061231438,0.042855486,-0.21635288,-0.026690591,-0.09915555,0.0076803626,-0.18760209,0.05847217,-0.0284663,-0.1662948,-0.031910587,-0.090164304,0.11437507,-0.03537597,-0.1800553,0.27068666,-0.1349056,0.15045337,-0.058302164,0.0851125,-0.17101002,-0.067957595,0.1888536,-0.03392626,0.018612945,0.11392193,-0.0042401915,0.22359341,-0.14489318,-0.13240202,0.09957408,0.17790885,0.1868609,-0.09367554,-0.036693733,0.2924808,0.02291613,0.009120806,-0.07949324,0.052568205,0.025853932,0.18530947,0.01328888,0.019083386,-0.102753095,-0.0054012924,0.19925624,0.049668837,-0.009892883,-0.06463089,0.13094829,0.17486171,0.1791262,0.038911495,0.116137356,0.08602938,-0.041611876,0.15047473,-0.034217767,0.02571365,-0.19981453,-0.11696235,-0.09036,-0.031827472,-0.007839187,0.1577643,0.08824993,0.102458656,-0.16548163,-0.15841518,-0.023690341,-0.028272972,-0.09275367,-0.06226218,-0.20766313,-0.15836675,-0.15149786,-0.13837445,-0.011570201,-0.11164612,-0.13354331,-0.14825363,-0.21141142,-0.016424164,0.086447164,0.1040317,-0.06024737,0.16242017,-0.012522599,0.03689836,0.20353192,-0.11133086,0.1857149,-0.23104243,-0.028151954,-0.009189527,0.09897154,-0.030410716,0.023848653,-0.093680754,0.012282248,0.1975476,-0.097386345,0.2338062,0.15071262,0.16173422,-0.0028953166,0.22130871,-0.092753984,0.14407618,0.11093513,0.042808965,0.1818901,-0.027757607,-0.11846526,0.07209453,-0.042568255,0.011065362,0.14999785,0.14382876,0.04322616,-0.17006879,0.11782393,0.10890125,-0.13837865,-0.15528688,-0.056633275,0.075635314,-0.15053223,0.033484895,-0.023415677,0.10515949,-0.1941672,-0.062471822,0.106738605,-0.045352213,0.12359828,-0.11337112,0.022903968,0.09086339,0.02371468,0.17970668,-0.11434771,-0.0381833,-0.16591316,0.1543061,-0.06604294,-0.12686634,-0.04927593,0.051417943,0.013725524,0.21363965,-0.05881769,0.02605949,-0.14780769,-0.012380316,-0.0052487236,-0.09649793,0.22833163,-0.08362732,0.34062856,0.07852546,-0.0032861994,-0.14853567,-0.19332121,-0.08799526,-0.004974632,0.21580891,-0.096390635,0.017678704,0.01630665,-0.14681153,0.28450102,-0.05492184,0.028692106,0.08794639,-0.12629132,0.18222006,-0.04417912,-0.1256434,-0.027517153,0.18523929,-0.094067656,-0.07205923,0.10414543,0.08831691,-0.17805293,-0.16766149,0.24524641,-0.17475037,0.1572141,-0.13592753,0.09277993,-0.080676,0.008742381,-0.07607953,-0.08941712,0.041611187,0.09867721,-0.15677728,-0.00741709,0.009343554,-0.10547949,-0.09771457,-0.18760377,0.059463475,-0.08423177,0.24668585,-0.16265135,0.12455615,0.24831541,-0.17516568,0.11665435,0.0043401024,0.027026702,0.0865132,-0.09109611,0.15145665,-0.001477891,-0.15429802,0.0115418825,-0.09712283,-0.027785432,-0.21079423,0.14489704,-0.03191166,0.2096072,-0.030767174,-0.11645954,-0.011141812,0.1445987,-0.043880984,0.037938267,-0.063026614,-0.14617296,-0.04536783,0.013304666,-0.16346066,-0.07695588,0.04689238,0.21123075,-0.19454408,0.05267082,-0.051669132,0.09319231,-0.17204742,0.17353284,-0.058666643,0.014492737,-0.22457658,0.1824241,-0.15345676,-0.09952943,-0.13452017,-0.10857467,-0.12805974,0.18961887,0.0003268334,0.02225698,-0.10662081,0.100490846,0.29817298,0.13804406,0.014753317,-0.22550532,-0.2874576,-0.10371397,0.014227886,-0.069332354,0.067562096,0.07724319,-0.017900035,0.13285707,-0.084440604,0.188709,-0.13448279,0.045988005,-0.019490264,-0.17504463,0.075070985,-0.057352353,-0.00046727998,0.22507209,0.22794929,-0.04903471,-0.032390837,-0.068237044,0.016515428,-0.042512793,0.010294904,0.052343473,0.22718543,-0.008924666,-0.09868592,-0.07311232,0.14542614,-0.0058876686,0.044068716,0.05521251,-0.008718584,0.11463923,0.03614832,0.09350054,0.24168351,-0.057049382,-0.021471728,0.044181816,-0.115133084,0.122010715,-0.061720822,-0.09451746,0.23186132,-0.097256765,-0.058964115,-0.09631321,0.19489893,0.15526944,0.13206716,0.01158266,-0.27260542,0.10857277,-0.19244204,-0.10594207,0.08484697,0.03374783,0.08551315,0.06844556,0.10921993,-0.20300356,0.08636859,0.08189743,-0.17699057,-0.105490625,-0.0150028905,-0.12640828,-0.07995283,-0.037135806,0.07660239,-0.0024505793,-0.15166768,-0.17297989,0.23419358,-0.1392403,0.049803056,0.0834258,0.020321917,-0.0728433,0.04268816,0.132259,-0.009711916,-0.022370126,0.027241753,0.04523708,0.028016476,0.06606633,-0.13463485,0.19407706,0.1407163,0.04712883,0.073134854,0.0033445726,-0.03137966,0.18775183,0.084834404,0.13409354,0.014486675,-0.050244417,-0.3002955,-0.22144449,-0.10869453,0.1948551,-0.04313953,0.17199948,0.18003416,0.035458535,0.14475852,0.065923125,-0.022842823,-0.079591386,0.064390674,-0.13569267,0.016089357,0.052106917,-0.027655602,0.14890952,0.09161775,-0.03818336,-0.20740251,-0.18602484,0.046443082,-0.2934609,-0.050188657,-0.08181141,0.15339677,0.0998249,-0.030443043,0.035124943,-0.022442594,-0.103856504,0.038959257,0.11810184,-0.15874992,-0.18221433,-0.1739134,0.100121334,0.04511666,-0.19526634,0.12652549,-0.16203743,0.11499056,-0.059327357,0.0908928,-0.16491807,-0.006295237,0.10107909,0.22487827,-0.1599158,-0.032190755,-0.04024143,-0.21900198,-0.1991477,-0.15797563,0.22892995,0.05677223,0.07864512,-0.1814924,0.20329723,0.028946929,0.0528816,-0.15070437,0.15089442,0.019033222,-0.03875806,-0.024976006,0.054959897,0.117837936,-0.039556522,-0.2286896,0.060674194,-0.0451298,-0.07849129,-0.06323343,-0.11457198,0.18044923,-0.24572368,0.046258353,0.14932883,0.011532119,0.01746613,-0.07217825,0.006103487,0.031196598,-0.083468854,-0.059554607,-0.1303642,0.2957281,0.03097833,-0.10344616,-0.003752449,0.14760655,-0.026194736,-0.027484978,0.037507545,-0.06562232,0.14048676,0.031146994,-0.0033444858,-0.027531438,-0.18936643,0.16655003,-0.075120896,-0.068141855,0.045587774,0.171857,-0.1835969,-0.15504096,0.031472225,0.18358992,-0.034141246,0.10881322,0.096811,-0.03563607,0.3376493,0.08391385,0.01186397,-0.11882074,-0.10778996,0.20052339,-0.030486336,0.031967565,-0.0859098,-0.15712564,-0.20959882,-0.08707628,-0.23668015,0.24367797,0.18341921,-0.06952824,0.14635387,-0.06233338,-0.026800197,-0.048042577,0.09831271,0.046674795,0.30297938,-0.07435905,0.10148704,-0.056555346,-0.052549236,0.04961479,-0.1564108,0.06647103,0.22247362,0.053932272,0.021445204,0.15374453,0.011259357,0.17275192,0.036531575,-0.23620424,0.16591945,0.13919517,-0.025248444,0.008429155,0.09340512,0.008626285,0.013844538,0.20800346,0.056881674,-0.057560224,-0.003883714,0.085645095,-0.2438235,0.19511236,-0.07072694,0.15657105,0.2244831,-0.089681245,0.2099592,-0.10028487,0.001914809,0.0829124,-0.021711657,-0.041080065,-0.02046032,0.10601639,0.024088018,-0.25536135,0.0792913,-0.026329923,-0.05009593,-0.07154357,0.10268751,-0.06517617,-0.12649201,-0.18590787,-0.04941916,0.0951989,-0.16159509,0.11048692,-0.1465505,-0.0118568735,0.15662728,0.18366548,-0.12651834,-0.0014157847,0.14515987,0.06797157,-0.0027389117,0.2150936,0.08351989,-0.1971858,0.0722136,-0.081605755,-0.100446336,-0.090276785,-0.09339229,0.1403196,-0.10283982,0.03506211,0.14989017,-0.11025327,0.08941955,0.21323316,0.08472167,-0.027504269,0.2339721,-0.021393992,-0.3156737,0.26395535,-0.06598514,0.004470057,0.031099994,-0.054861527,0.027612595,-0.0062460066,-0.06140409,0.12827057,-0.035459056,0.2187216,0.022809042,0.11501164,0.024961242,0.1288003,-0.15174028,0.044305578,-0.01332586,0.08459317,0.07752596,0.13615191,0.02286895,0.046698414,0.021670604,-0.21726097,-0.009566347,0.004784486,-0.06058871,-0.17793457,0.16050057,0.14388943,-0.23243138,0.08820096,-0.1289407,0.074716605,-0.07395469,-0.04693608,-0.20485233,0.14060794,0.004419042,0.14256456,0.103802696,-0.16429117,-0.029511185,-0.099148214,0.070476554,-0.046978697,0.14620689,-0.023689428,0.097953424,0.1677911,-0.16705477,-0.023554133,-0.0027177786,0.23441729,-0.29060358,0.034779914,0.0027779783,0.26086953,0.018143335,0.10977979,-0.19982767,0.21179897,0.07733101,-0.09192761,0.14038047,-0.027770901,-0.24703825,-0.057059743,0.044195656,0.042368993,-0.034737878,-0.026890397,0.012019332,0.32354653,0.020109637,0.0015693149,0.117496505,0.025538785,0.0071213907,0.01865409,0.0009921938,0.036623236,-0.25963497,-0.06586838,0.11013903,0.14233184,-0.16639903,-0.09475472,-0.029711887,-0.11657716,0.02913774,-0.19622228,0.10145744,0.0171349,0.07347897,-0.050974738,-0.050381944,-0.11044957,0.07854311,-0.16361447,-0.006959403,0.19267711,0.1517462,0.12474455,-0.048106037,0.19279465,0.04141543,0.12280678,0.05078022,-0.16439646,-0.14797093,-0.008997964,-0.16818154,-0.1349132,-0.119293995,-0.052503373,-0.081899084,-0.03634627,0.059343312,-0.08809083,0.12701325,0.011501757,-0.08056224,0.15235373,-0.102431454,-0.05241648,-0.016922083,-0.2079771,0.26533934,-0.17579369,0.05897473,-0.08364338,0.06943314,0.023131855,-0.1114241,-0.06904452,0.118134744,0.13064198,-0.023352753,0.08119517,-0.041064966,-0.10872436,-0.15923741,0.017960956,0.07400551,-0.06868109,0.124909334,-0.068561815,-0.119017005,0.12258056,-0.15656449,0.12236474,0.0020386055,0.14604548,0.07684321,-0.091732204,0.1960883,-0.25223354,-0.06305182,0.19776621,-0.1297177,-0.17524347,-0.085613325,0.012815048,0.18721698,-0.09994672,0.086688735,-0.27727994,0.09596484,-0.1667155,-0.039612096,0.014178643,0.034713723,0.104067124,0.1476919,-0.22711828,-0.0041281576,0.03148002,0.0018726407,-0.039403044,0.082395986,0.20983562,0.053848132,-0.17404383,-0.038612828,0.055975202,0.164351,0.13075551,0.051247053,-0.1953564,0.17569464,-0.069123134,0.08007024,0.14167573,-0.03761189,-0.11742753,0.27006787,-0.23975359,-0.0943448,0.023831354,-0.1444077,-0.074573115,-0.1192374,0.22986296,0.047669772,0.16656935,0.059845477,0.11330958,0.024256058,0.08690706,-0.0743211,-0.14109032,-0.18787128,-0.10372812,0.036951132,-0.13243087,-0.15042587,0.006230421,0.11438505,0.18676381,-0.020812036,-0.23250024,-0.21216503,0.005095931,0.16599275,-0.054074284,-0.060901735,-0.0055897566,-0.15354243,-0.18226726,0.018118398,0.04448221,0.009168567,0.04753156,0.0033334284,-0.033783175,-0.22391765,0.059091534,-0.07835414,-0.08535594,0.23282608,0.24252489,-0.19386214,0.15990068,0.20349742,-0.06364664,0.1567002,0.057470057,0.12542582,0.050342903,0.019799545,-0.10136251,-0.0000031570926,-0.1035535,0.06918187,0.12929475,0.0180342,-0.039365675,0.015033442,-0.19668198,0.11939391,-0.002269346,0.058895167,0.060785446,0.11173807,-0.012337393,0.10180613,-0.19152433,-0.13090818,-0.088095136,0.053267196,-0.10245661,-0.03334156,0.17827919,0.24991992,0.14090888,0.061039843,0.0050398195,0.051737856,-0.23354188,-0.04755813,0.044134043,0.3153348,-0.043903403,-0.020139834,-0.052751694,0.033701044,0.04707039,0.09858444,-0.16356283,-0.20661573,-0.15149958,0.073827446,0.17969514,0.19711635,-0.16782065,-0.046544757,0.0073256623,-0.17689729,-0.14922096,0.037835993,-0.066843614,0.010925529,-0.04961424,-0.0018728897,0.11724289,0.11482507,-0.28037634,-0.054246772,-0.15500143,-0.15846281,-0.064437024,-0.046520744,-0.08671415,0.089474134,-0.23627116,0.16627456,-0.09890644,-0.016993575,-0.12591144,0.15850891,-0.091692634,-0.16746481,0.08477631,0.075697035,-0.11028357,-0.044860877,0.1073373,0.008579197,0.037388273,0.19114847,0.13997152,0.000633568,-0.06475111,0.11048595,0.163529,-0.019367442,-0.06682611,0.036412187,-0.037716903,-0.1549716,0.048792224,0.10791842,-0.18844384,-0.10753634,0.096491925,-0.06378448,-0.23882194,-0.16877973,0.14878263,0.07953089,0.1057792,0.12569398,-0.13067631,0.051041998,0.21812859,-0.038232572,0.26271468,-0.034791097,-0.21847194,0.06411615,-0.05967196,0.12561223,0.06994989,-0.15824787,0.06658784,-0.28651252,-0.20633185,-0.14940953,0.12496069,0.043757796,-0.0506367,0.061905336,-0.039106295,0.0455435,0.05208523,0.22756295,-0.10358584,0.2010839,0.1507191,0.108802356,-0.051558323,0.12264303,0.05162529,-0.022642557,-0.10345875,0.017099814,0.12957199,0.04121505,0.07284552,-0.07632529,0.23613052,-0.065302014,-0.0060437587,-0.2108009,0.11447142,0.059374433,0.09137472,0.14866802,-0.09559634,-0.059407685,0.0986677,-0.1230703,0.1065644,-0.08663426,0.3783608,0.017067742,0.11367569,0.10646859,-0.045302708,0.010840821,-0.03889916,0.093533434,-0.000091155496,0.11120763,-0.27559176,-0.09205507,-0.15093584,0.18558194,0.1021541,0.05287337,0.026097422,0.005212092,0.060838237,0.058994155,0.03306462,-0.18689841,-0.121362746,-0.18330224,0.062409513,-0.17695008,-0.055751663,-0.1473488,0.010157966,0.018629065,-0.19750842,-0.0022263152,0.031473268,-0.05619117,-0.12257283,-0.080436364,-0.08603474,-0.019214425,0.14826386,0.21543089,0.070822306,-0.02435393,-0.10588434,-0.2330581,-0.08011011,-0.09395061,-0.087454766,0.1641906,0.21509792,-0.15147929,-0.09861528,-0.076097146,-0.00651313,0.10419929,-0.07138182,0.09656523,-0.08018572,-0.10079996,-0.05818376,-0.09268084,-0.2293433,-0.04326654,-0.033922583,0.07260786,0.014990085,-0.034656554,-0.104155496,-0.024638597,-0.036891602,0.041258853,0.24727145,0.1278574,0.044196967,0.18657373,-0.059407778,-0.10571564,0.15432069,-0.19362767,-0.15757981,-0.376291,0.010500743,0.12835407,-0.23114575,0.06905508,-0.024906758,0.19230987,-0.004689563,-0.1659638,-0.11093408,0.20479195,-0.2094019,0.08761111,-0.052548014,-0.010670937,-0.30722034,-0.18478002,-0.057589352,0.03895769,0.052981593,-0.071435854,0.112766534,-0.08812342,0.19504814,0.087473616,0.15470004,0.003863427,-0.0061052702,-0.12888613,-0.163757,0.005310658,-0.16242759,0.17696442,0.014839038,-0.018615415,0.006512069,0.18244888,0.08982816,-0.055530615,-0.054594405,0.012380511,-0.08426747,-0.05900722,-0.1976994,-0.18052562,0.30734876,0.078488514,0.045835447,0.029359635,-0.09236597,0.072239,0.026936973,-0.035193034,0.12692037,-0.039736878,0.11730154,-0.02519105,-0.15711536,0.06879563,0.11528986,0.024923407,0.055915374,0.13361996,0.24149962,-0.05464336,0.10464791,-0.25147468,0.028147815,-0.15300405,0.060963944,0.15808411,0.31256884,-0.06880941,-0.011764672,-0.1307823,0.14875,0.1712099,0.11803456,-0.10880581,-0.025803858,-0.13665625,0.20398112,0.15301517,-0.13670015,-0.047575016,-0.015178745,-0.11377387,0.02212733,0.3001587,-0.12298821,-0.0078242095,-0.011158727,0.018259834,0.07652557,-0.11997016,0.15091616,-0.12951323,-0.027469995,0.24392693,0.051939514,-0.15282308,0.17222154,-0.011072341,-0.05704481,0.15473567,-0.010759495,-0.12659873,0.12875797,-0.10817987,-0.07392714,-0.17326711,0.012665919,0.13165729,0.11991253,0.10103465,-0.018039038,-0.13172257,0.045218237,-0.039035443,-0.020361872,-0.12699035,-0.18303789,0.25434843,0.10048953,0.21202424,0.09840391,-0.015732002,0.012234976,0.1474869,-0.14126417,0.028552767,-0.0494453,-0.030534739,0.04802898,0.2010682,-0.20838375,-0.2237838,-0.09660343,0.096896164,0.073462926,0.044509068,-0.042560477,0.074769236,0.21494088,-0.14892527,0.13202083,0.03847806,-0.1838786,0.17425731,0.14126803,-0.18569316,-0.11578665,0.047263175,0.047031485,0.23439515,0.041456174,-0.01957171,-0.1441511,0.00586209,-0.13490207,0.045169678,-0.088596575,0.084549345,-0.027391685,-0.29268986,0.06262369,0.09135573,0.10940092,-0.114490114,0.03695952,0.14335787,0.047207255,0.13438147,-0.09494091,0.045285117,0.032423045,-0.006799515,0.108654834,-0.091988795,0.13603635,-0.040165648,-0.33771586,-0.06327648,0.1926551,0.0035365347,0.0765298,0.04217812,0.017043209,-0.051886752,0.0018725897,-0.017430617,0.11484409,0.017770646,0.124661885,-0.19039987,-0.15783355,0.101791725,-0.100331604,0.0031722619,-0.06120348,-0.31476176,-0.0056125415,0.08819231,-0.14611286,-0.037773646,-0.04099841,0.021552047,-0.05222223,-0.12031745,0.20337494,0.07998203,0.011589355,-0.14779158,-0.3139501,0.028099626,-0.069519915,-0.2545092,-0.113285474,0.027550321,0.023241462,-0.07429448,-0.09179253,0.029536467,-0.16057003,-0.20602041,0.029874114,0.11122434,-0.012344547,0.14839251,0.06736062,0.006084465,0.07708415,-0.046887424,-0.08908242,-0.053764276,0.23696302,0.05163957,-0.17399,0.031000799,0.17011452,-0.048239615,0.11558821,0.07074191,-0.2510611,-0.09934555,0.0671303,-0.17022091,-0.046468586,0.26374826,0.013644875,-0.15673892,-0.10911626,-0.045264617,-0.04725886,-0.04491181,-0.07016185,0.03342369,-0.08073752,-0.089847706,0.007164226,-0.24100177,0.14230052,-0.1958247,0.14090489,0.2662308,-0.07073887,-0.010958127,-0.14631054,-0.074040264,0.21347249,0.14919382,-0.010893054,-0.07214815,0.0011030716,0.095054254,-0.12634866,-0.15016739,-0.07400025,-0.13731001,-0.00319257,0.06708057,0.047897838,0.3434768,0.1504915,-0.29152328,-0.027842252,-0.0485417,-0.21590102,0.11536922,-0.1535121,-0.14127183,-0.00082167954,-0.07522158,0.091008484,0.04060561,-0.053485874,-0.07841238,-0.11771909,-0.13844945,-0.07519514,-0.033506405,-0.06652212,0.017108005,-0.005677834,0.049921118,0.08761561,-0.05101777,0.09154483,0.0074315844,0.055952422,0.02503604,-0.060692977,-0.13665889,0.23302281,-0.05220872,0.05055099,-0.06206477,-0.116053335,0.07429461,-0.18196797,0.26849416,-0.13632537,-0.09376785,0.057691894,-0.12621833,-0.034046717,-0.0019877094,-0.019063827,-0.029217131,0.104150735,0.09207092,0.017889727,0.007359664,-0.15465948,-0.14996886,0.121268,-0.0332793,-0.14470783,-0.017204894,0.02462729,-0.024024518,0.0102441935,0.1521867,-0.1789617,0.04185699,0.07213549,-0.029299127,0.0109002,-0.08840488,-0.04105017,-0.20357813,0.0071236016,0.08951533,-0.011527246,-0.032297168,-0.19709367,-0.24476206,0.1372432,-0.18482025,-0.3398398,0.08269996,-0.08866159,0.006091012,0.26907852,-0.18770787,-0.060380872,-0.017563256,-0.08607239,-0.18802533,0.12887125,0.10457748,0.14234962,0.10502739,0.27217534,0.13648953,0.05098738,0.032953847,-0.105393395,-0.18156089,-0.21800135,0.0040767496,-0.010968406,-0.08715013,-0.016304867,0.100902446,0.17082073,-0.21494178,0.051623978,0.09231012,-0.021429744,0.1150504,-0.039962303,-0.023117343,0.038692225,-0.029848086,-0.05532097,0.1194828,-0.0024016923,-0.1951369,-0.1674396,0.04457553,0.009819805,-0.037462056,-0.29718816,-0.05126567,0.032390412,-0.16857712,-0.26214415,-0.036786787,-0.13321982,0.042899556,-0.08148256,0.014219634,0.27907696,0.33121642,-0.079577245,0.12810932,0.19254158,-0.0681974,0.15530716,0.049619913,-0.03627299,-0.0396221,0.044308644,0.27353734,0.11584421,-0.0579431,0.08967292,0.03721663,-0.13693342,-0.052679107,0.057398167,0.033280466,-0.02253602,-0.19562532,0.11723922,0.21091728,0.14112844,0.05997378,0.006215774,-0.09156366,0.046284594,0.06711236,-0.0438248,-0.13173905,-0.14385796,-0.049892385,0.053211845,-0.007627045,0.1593931,-0.049321365,0.14653015,-0.15781502,-0.094968125,-0.005732162,-0.069121905,0.25149605,-0.048579037,-0.0042835837,-0.17679033,0.05526561,-0.3278019,-0.21911731,0.005730604,0.011826035,-0.15144886,-0.11502205,-0.0804537,-0.0008438689,0.10401421,-0.03024465,0.19900967,-0.14800178,-0.1799347,0.18819001,0.031932563,-0.0680745,0.019691085,-0.043120757,-0.13027899,-0.17919257,0.039599933,-0.050535694,0.117744066,-0.006339231,-0.2498613,0.10751845,0.047715105,0.04286343,-0.12737907,-0.053923965,0.045603555,-0.1326202,-0.06857744,0.10578598,0.091339275,0.020936226,0.1785129,0.17521498,-0.21479079,0.027745843,-0.1317486,-0.08872348,0.0072728614,0.04454212,-0.07648797,0.23215204,0.008777026,0.22496931,0.12235984,0.0750541,-0.15203819,0.069486395,0.12028678,-0.11186683,0.081661925,0.14634341,-0.07350492,0.042352974,-0.065443605,-0.032906607,-0.16010855,0.13035803,-0.0897485,0.20768918,0.06794557,0.03606712,0.061364274,0.20196974,-0.112529136,0.03702566,0.07334663,0.2111498,0.07837216,-0.070481405,-0.13266535,0.112049796,0.079753146,0.21797606,-0.06481752,-0.13736579,-0.16500033,0.051461924,0.111274004,-0.09613758,0.2920149,-0.054057185,0.09980776,0.160316,0.119190365,0.036610827,0.2443629,0.09229022,-0.13621362,-0.19085307,0.024086324,-0.05561876,-0.05553503,-0.09231475,-0.15104967,-0.027761413,-0.1660739,0.009662011,0.070122965,-0.07203208,0.08664035,-0.01770817,-0.025692038,0.081756376,0.072014056,-0.12014351,-0.15573244,0.23018648,-0.006906375,-0.16830729,0.03343461,0.03325124,-0.2268569,0.014548602,0.088379554,0.26561433,-0.0024967853,0.06975401,0.19408523,0.18492411,0.06415155,-0.11020516,0.119845316,0.037445616,-0.074315615,0.22839569,-0.18871044,-0.06805597,0.12184467,-0.14617623,-0.076272145,0.17369235,0.09767438,0.041445885,-0.047513448,-0.018900746,-0.07562461,0.0049583316,0.103986815,-0.020911118,0.20366932,0.05514916,-0.32839838,0.030005818,0.10430933,0.21031062,-0.15277544,0.18861043,0.1518989,0.0018049905,-0.024866115,-0.034364313,-0.16693918,0.20729898,0.18752657,-0.0814428,0.23350224,0.12023015,-0.13598152,-0.055878118,0.06630828,0.015786823,-0.06782264,0.07529949,-0.06312479,-0.018166056,0.055774193,0.00064223015,0.13994983,0.09636127,-0.21819028,-0.038563892,0.017092468,-0.18820003,0.13471922,0.010697616,-0.1459037,0.062336348,-0.0027608103,0.12335667,0.03885251,0.15144391,0.0013331714,0.066289194,-0.03608524,-0.03497376,-0.015998108,0.21672526,-0.055793695,-0.005408934,0.060748022,0.040768024,-0.1451037,0.13433053,-0.12598632,-0.049470205,0.020245664,0.30439046,0.072365105,-0.021803387,-0.30724096,0.049792007,-0.09692705,-0.08499617,-0.12358921,-0.064516604,0.030633327,0.1262556,0.03100815,0.060956903,-0.1342639,-0.061031297,0.016218126,0.16372102,0.13400787,-0.15813752,-0.0724397,-0.027097706,-0.07507587,0.055040896,0.014715536,-0.105963334,-0.09195938,-0.123757355,-0.017927917,-0.09550782,0.11786422,0.09442017,0.09582236,-0.20506762,0.014341217,0.0031842252,0.11696494,0.044071786,0.109539,-0.20013857,0.28756785,-0.13129063,-0.0010078761,0.12288508,0.18902205,0.19710349,0.080056496,-0.15214837,0.30231494,0.073241554,-0.02349793,0.1387625,-0.014845086,0.08353011,0.034375522,0.1351711,0.17291664,-0.118998334,0.031256292,-0.11789694,0.056968797,-0.025956351,0.04171424,-0.098325364,-0.0050887987,-0.045093324,-0.026156748,-0.017805431,-0.110273406,0.07313855,0.045417618,0.22088511,0.11596439,-0.017888395,0.052529305,0.13545747,0.29778126,-0.11370222,-0.14356323,-0.21401288,0.031726457,-0.06153612,0.057143673,-0.058697697,-0.03853145,-0.033009097,-0.14687246,0.24264225,0.027870424,0.11814306,-0.0026048955,0.06924722,-0.0051632333,0.47423244,-0.023287756,0.17287777,0.11051169,0.11458818,-0.1333456,0.22737819,0.1516381,0.07639154,-0.024704393,-0.08643693,0.028445242,0.13194911,0.07228601,-0.09297799,-0.18925388,-0.10798003,-0.14194262,0.030645838,0.06707379,-0.12137689,0.04215848,-0.07804165,-0.07309052,0.12138393,-0.17263795,-0.2577748,0.028132416,-0.14961268,-0.116196394,-0.2637308,-0.06656293,0.17457771,0.08504948,0.1448117,0.12020893,0.22394222,-0.017249651,-0.038470306,0.067046925,0.18853632,-0.36103013,0.056607366,0.054792523,-0.05680359,0.014129338,-0.18783714,0.017363902,0.22109827,0.05541615,-0.085206375,-0.044610962,0.057077967,0.029104877,-0.025600905,0.1537271,0.07110573,0.08314577,0.00086116296,0.09585023,-0.000877005,0.09749263,0.19576235,-0.09079397,-0.07145603,-0.031064218,0.19968185,0.08278472,0.24021253,0.014703399,-0.15244077,0.18503617,0.034664467,-0.00619157,-0.08173262,0.15434907,-0.16325264,-0.04245957,0.030156404,-0.13990003,-0.09241801,-0.017079785,0.032944027,-0.015854051,0.010682521,0.040513624,0.28156665,-0.05952519,0.10161916,0.20234242,-0.09870443,0.21747036,0.022350106,-0.066410325,0.18672405,-0.089323044,0.10816979,0.16186658,0.023051258,0.1621424,0.047804754,0.008632167,-0.031699702,-0.16005151,-0.0044698953,-0.17231198,-0.31850514,0.025396714,0.1106813,0.056399994,0.07040496,0.03140883,0.21454935,0.12632373,-0.06320699,0.14708467,-0.08156632,-0.029981105,-0.15583622,-0.0031509255,-0.013228358,0.23850393,0.06311367,-0.13259162,0.07294463,0.11345997,0.1630245,-0.020661557,-0.01515268,-0.026464462,0.024176195,0.03741688,0.027989825,0.25845334,0.2669208,-0.10326056,0.0046634628,0.029617961,0.033322044,-0.12803216,0.29475558,0.1364838,-0.07636638,0.16174221,0.048019353,-0.013474132,-0.0051076235,0.0035942919,0.018089527,0.20569788,-0.16846979,-0.14951444,0.085352,0.19322534,-0.016229875,0.21561821,0.009782759,0.12982294,-0.16176113,-0.014538284,-0.24346814,-0.034959853,0.20239148,-0.109791026,0.07288566,0.11926804,-0.16992208,0.07714779,0.04312258,0.035671372,0.022337155,-0.11876646,0.26133198,-0.038531467,0.21244557,-0.055383664,-0.17763832,0.0066015134,-0.03984595,-0.158362,-0.1742328,-0.008929674,-0.13782567,0.011934332,0.046327773,0.2328132,-0.18904269,-0.083905175,0.036371265,0.010019453,-0.0038407224,-0.07011119,-0.027481386,-0.04460096,0.007879729,0.2327986,-0.080407724,-0.057425838,0.029862119,0.1531884,0.21288013,0.16471788,0.19722946,0.12151867,0.003272898,-0.09582116,-0.06687811,0.009006892,0.059937168,0.114619605,0.058091197,0.025372703,0.06856547,-0.008175936,0.18912299,-0.16625851,-0.025429862,0.07139965,-0.0015244131,-0.02025441,0.10874761,-0.014054973,-0.0018138444,0.0036775828,0.042366106,-0.24038295,-0.069417775,0.0034823085,-0.06936488,-0.010078974,-0.0058877966,0.12519489,-0.13213801,-0.2188455,0.049288772,-0.05760122,0.082442254,0.07338143,0.0022716674,0.023616808,0.005853467,0.0026285849,0.015728762,0.04409792,-0.29631904,0.19576173,-0.22732164,-0.013327915,0.09049861,-0.1525286,-0.15353689,-0.12383669,0.029787427,0.18499096,-0.09409495,-0.087319985,0.17767598,-0.024025967,-0.2539667,-0.13207836,0.31342787,-0.023990529,-0.03661148,-0.020505397,0.0619304,-0.28453958,0.011164402,0.109808624,-0.18505992,-0.11015718,0.09176911,0.15379778,-0.056940943,0.08142589,-0.19148397,0.03871095,0.16006967,0.06310217,0.1534312,0.30510068,0.087168865,-0.060106378,0.000007676619,0.0051756203,0.007781928,0.030384447,-0.09607566,-0.09365738,-0.045670632,-0.050482124,0.05602939,-0.027239107,-0.025698356,-0.13672353,0.24368507,0.077513926,-0.00032124645,-0.30421665,-0.025380015,-0.019113986,0.010416462,-0.08810883,0.09724876,0.076167285,-0.054797135,-0.0415814,0.045455635,-0.021739602,-0.22197232,-0.13253105,0.010204804,-0.093896575,0.21092764,-0.15781398,0.10046865,-0.048942786,-0.0045667514,0.33866954,0.105664335,0.034374613,-0.10310525,-0.12808421,0.07383165,-0.06685083,-0.34747067,-0.102579884,0.026495134,-0.012908783,-0.23543654,0.12748632,0.18260084,-0.0065997476,-0.04402257,-0.15208572,0.02162662,-0.047135897,0.046689343,-0.049715888,0.10573269,0.13866329,-0.13213952,-0.063588895,-0.018964713,-0.11474486,-0.05303604,0.021351168,0.1706141,0.08200132,-0.100176066,-0.1958427,0.037809867,0.13558942,0.014031778,-0.092939176,-0.10585526,-0.08209027,0.12901533,-0.04284295,-0.12717648,0.01970006,-0.24876423,-0.115761906,-0.2323283,-0.008952243,0.05921954,-0.008664967,0.17225274,0.06962605,0.047693703,0.22313082,-0.073961504,-0.038714156,0.06963283,-0.22364125,-0.034033336,0.21453953,0.032178454,-0.041061256,0.0775431,0.13898104,0.14863047,-0.076523945,-0.17448394,0.052411284,-0.12372677,0.123074204,-0.052413836,-0.23833041,-0.01974871,-0.17533049,0.19843033,0.022605648,-0.0036251135,0.056602128,0.16268444,0.18628593,-0.00498427,-0.096957095,0.19691058,-0.15545319,-0.23306134,-0.01530181,0.18504927,0.04562365,-0.1033164,0.05647468,0.058344983,0.030408181,-0.03710591,0.05203203,0.1735466,-0.12399003,0.0180586,0.02017153,-0.003181508,0.0331313,0.14934373,-0.10070825,0.2153214,-0.30894417,-0.069929026,-0.081422925,-0.16735944,0.16227806,0.028518753,-0.18964763,-0.012527907,0.009480606,-0.1546009,-0.06996113,-0.063397475,0.06378381,-0.21658398,0.17089778,-0.011096712,0.25330564,-0.04581879,-0.020105917,-0.14963724,0.2012706,0.0070859343,-0.0005990066,0.0051851473,0.16233426,-0.062497865,-0.22724684,0.030740693,-0.0473806,0.17633179,-0.15462928,0.24084899,-0.02983184,-0.1877282,0.21760589,-0.06181378,-0.079260275,0.019742727,0.037792772,0.060307816,0.06489676,0.0782921,-0.07485704,0.012628878,0.1142022,0.090760656,-0.06710198,-0.14688605,-0.23368107],"biases":[0.05606658,0.013390052,-0.077377155,0.008670859,0.042953454,0.043598887,0.0093604615,0.023813004,0.0043434724,0.00086849014,-0.05806025,0.0065945066,-0.038523354,-0.028049251,0.0149587495,-0.040115647,-0.01769881,0.06326573,-0.09129648,0.009265237,0.0471719,0.01201679,-0.058601134,-0.0005047005,0.015634239,0.06184379,0.028226156,0.02920451,0.056280453,-0.042506974,0.0447239,0.003112797,0.014368103,-0.0048357276,-0.004839557,0.005459895,-0.0066861873,0.00047814008,0.033385567,0.04608473,-0.023474498,0.010130335,-0.0019652352,-0.021733612,-0.047761988,-0.021129115,0.01645708,-0.02232251,-0.030471686,-0.0074915173,0.009496144,0.0032065627,0.000696996,0.013912382,0.03407998,0.0015086612,0.018995695,-0.014204069,0.058222212,-0.0045762747,0.016626984,0.0071963104,0.016386867,-0.041340433],"in_dim":64,"out_dim":64,"relu":false},"w_k":{"weights":[-0.06198686,0.07891739,0.18466179,-0.09695038,0.08661664,-0.14775282,-0.123279735,-0.22083697,-0.14988099,-0.04900656,0.18564919,-0.15792051,-0.09601018,-0.050603345,0.13054655,0.1439819,-0.17881118,-0.20567691,-0.024767207,-0.094889104,-0.11936319,0.021149047,-0.112909175,-0.0708019,-0.030293602,-0.21188384,-0.14668043,0.11759439,0.014984223,0.1074555,0.14420035,0.036852974,-0.08296306,-0.21323389,-0.07808865,0.06278925,-0.15950288,-0.21596746,-0.18406321,-0.08359084,-0.04885553,0.1477068,0.17025836,0.00006067815,-0.17595367,-0.0009814762,0.04251547,0.19369358,0.042213075,-0.16543029,-0.11900797,-0.19106156,-0.054388966,0.08598865,-0.029307846,-0.18746649,0.014596261,0.10926427,0.14045809,-0.07157093,-0.086929575,-0.15987723,-0.02029338,0.18553463,0.1376484,-0.2055338,-0.14514625,-0.15008745,-0.110555336,-0.13974257,-0.10748391,-0.03521349,0.024520067,-0.057804447,0.021697361,-0.08026792,-0.021137638,0.19128653,0.17946446,-0.083634704,-0.042317595,-0.05360997,0.05278661,-0.07567557,-0.050003156,-0.12021084,0.17964262,0.2073404,0.12382146,0.20954119,0.21074066,-0.15377332,-0.14109646,0.06491498,0.07517096,-0.12383361,-0.23590255,0.17423934,-0.036848776,0.07031019,0.14671989,0.060675167,0.09587287,0.019082975,-0.08951784,-0.07022853,0.13003543,-0.073073715,0.0030234177,-0.02075833,-0.18009397,0.1950966,0.05636086,-0.15694067,-0.21768785,-0.015299409,-0.22140928,-0.11041761,-0.037363246,-0.1837799,-0.03492058,0.009464944,0.10889144,-0.17261136,-0.11954234,-0.01961988,-0.041477907,-0.18697724,-0.18076055,-0.061218064,0.12159554,0.13943535,0.13890678,-0.11053271,-0.005336624,0.19361909,0.21191797,-0.020947164,0.03211005,-0.09880065,-0.14687608,0.1869665,0.106866755,0.031172,0.059867203,0.11579256,0.124876894,0.1814913,0.13909443,-0.09207306,0.0816853,0.08018005,-0.097040996,-0.09294936,0.07972172,0.062047504,-0.032188658,0.08388826,0.0624784,-0.16887344,0.024797836,0.1838268,0.1832055,0.027653437,-0.2144973,0.19010279,-0.035407294,0.20613338,0.08868196,-0.1604452,0.212976,0.08170924,-0.08663122,-0.13504818,0.13875292,-0.015047787,0.09655722,0.0661416,0.18020725,-0.17368236,-0.0697085,0.18752363,0.10303898,0.1846201,0.11820935,0.12363557,0.20191911,0.09820536,-0.028289614,-0.17695735,0.11095746,-0.068683,-0.1909523,0.011609558,-0.051900852,-0.21675837,-0.038331203,-0.028805807,0.21520187,-0.044154428,0.15521304,-0.22063036,0.0024152694,0.19815078,0.14996856,-0.19583802,0.13197222,-0.15788113,-0.13659093,-0.21737152,-0.058496032,-0.019735789,0.061948173,-0.093181215,-0.07000224,-0.20298152,-0.18716273,0.11544437,0.1361156,-0.1325372,-0.049095213,-0.1760081,0.22493483,-0.08369452,-0.08166203,-0.14116752,0.1339578,0.012545675,-0.124826394,-0.082568936,0.08785686,0.0028845256,-0.05468944,-0.048220415,0.060231797,0.07338899,-0.13719647,0.1289968,-0.08478575,-0.070454985,-0.1425709,-0.13504447,0.1406565,-0.09576983,-0.122812636,-0.027652908,-0.050334852,0.15223032,0.052910116,-0.14377926,0.04691801,0.17858672,0.19926156,-0.06541206,-0.07336544,-0.08285127,-0.19204058,-0.038771864,-0.13899626,-0.16143446,0.12594481,0.12487936,-0.17750925,0.20668113,-0.069990285,-0.02165868,-0.011550874,0.0901953,-0.04542048,-0.044052523,0.02677194,0.01931331,0.21975353,0.018271616,0.092225656,-0.13685364,-0.13979003,0.20369606,0.051129602,0.14000845,-0.123473756,0.026564812,-0.14796802,0.18620086,-0.047726505,-0.07773186,-0.11391977,0.18017939,-0.09441478,-0.12921414,-0.21297555,-0.0993295,0.08687396,-0.18442552,0.0704752,0.055086836,0.1825339,0.06003622,0.12450665,-0.1985397,0.10729362,-0.15078999,-0.113197945,-0.0100664,0.09102904,-0.14735171,0.13351347,-0.07967297,-0.12002852,0.09762936,-0.07329022,0.10077274,0.04873663,-0.23180567,0.14784825,-0.14845327,0.11964024,-0.111402385,-0.04469181,-0.19773048,-0.13490225,-0.13949779,-0.13713789,-0.15186208,0.06042506,-0.11703611,-0.07764705,0.04982806,0.12662153,-0.043029267,0.15908714,-0.20030545,-0.039631125,-0.09483569,-0.113302425,-0.18172933,0.042662386,-0.13200623,-0.13075209,0.21630156,0.07310845,-0.11625392,-0.14282578,-0.099476635,0.05770168,-0.025860703,-0.1720346,-0.09085638,-0.013703204,0.1931949,-0.26308116,-0.08096874,-0.123178735,0.21763614,-0.26284644,0.0241087,-0.15721954,-0.07262805,0.13431224,-0.20573732,0.107167035,0.0076447586,-0.007129524,0.10393946,0.14287655,0.03460318,-0.10381793,0.10033761,-0.075094745,0.13461074,0.08421655,0.02969638,-0.0365987,0.13056178,-0.005658143,-0.08779252,-0.024832396,0.059764206,-0.20395543,0.017951356,0.19379841,-0.124896824,-0.20392762,0.071960226,-0.08797751,0.1578012,-0.09934859,-0.14849623,0.17566156,0.18646039,-0.14615235,-0.12118363,-0.10988959,0.16417678,0.118688166,-0.125911,0.049735267,0.14543729,0.1329078,-0.07209538,0.18539687,-0.041250177,-0.16191164,0.043225087,0.2842916,0.18164916,-0.02681564,-0.041294698,-0.13247408,0.1644075,-0.08257866,-0.12973715,-0.10201103,0.15861611,0.14230122,-0.03356582,0.060532734,0.07350234,0.09846502,-0.18817987,-0.1876807,-0.1608697,-0.109603666,-0.105542466,0.06287296,-0.12988691,0.15732247,-0.059300553,-0.18166894,-0.03475771,-0.12934107,-0.09608711,0.07397576,-0.08189425,-0.078079656,0.14803502,0.042608947,-0.14389074,0.07682869,-0.0071879686,-0.06748488,-0.09172557,-0.22538407,-0.04552043,-0.07221389,0.1175586,0.17550063,-0.019395981,-0.11586035,-0.1832413,-0.15751809,0.21029888,0.053643156,0.2455021,0.20247352,0.21102747,-0.14664398,0.1363539,0.14676276,0.06002844,-0.1607063,-0.09069351,0.0010611294,-0.06353296,-0.1851007,0.28429604,-0.20491043,-0.111436576,-0.02051348,-0.024146067,-0.0056088325,0.027108679,0.029617017,-0.07218249,0.1233785,-0.2591675,0.21574114,0.0776472,0.054282323,0.018597022,0.019924741,0.10402683,-0.05093158,0.13083795,0.025005264,-0.11292403,-0.20041713,-0.084134065,0.036453355,-0.07700438,0.084466845,0.14531967,-0.0938949,0.11215554,-0.058177117,-0.053893387,-0.09930763,-0.082993336,0.11291298,-0.14786452,-0.025345517,0.115570694,-0.18053694,-0.118590824,-0.11174054,-0.13671486,0.019748481,-0.0469986,-0.18642691,-0.047980156,0.051597424,0.018469026,-0.055846922,-0.17289601,0.054408338,0.19977362,-0.07240439,0.11693396,0.031537913,-0.12079214,0.107907996,0.03575204,-0.12094232,0.19733384,0.12764445,0.2685211,0.07203498,-0.16233797,0.03361462,-0.022968324,-0.14840342,-0.20605917,-0.088369876,0.093310766,0.1128881,0.08090992,-0.21469788,-0.25906017,-0.20805681,-0.033522792,0.056051884,-0.16199557,0.046827115,-0.09030375,-0.10502578,-0.009425014,-0.11790047,-0.12799783,0.042905733,0.09602712,-0.02659128,-0.091409124,-0.06976729,-0.020120904,0.05834493,0.09246687,-0.06622861,-0.04432212,-0.21911871,0.112242386,0.00796285,0.07475787,-0.15111995,0.10173769,-0.062892236,0.21808329,0.19805573,0.10798264,0.066719756,0.019463625,-0.179742,0.08802398,-0.12291622,-0.14040995,-0.1326262,0.19298506,-0.10899339,0.079248816,0.057018306,-0.018418752,-0.25906572,-0.09931835,-0.0461645,-0.08687622,-0.104074836,-0.21304983,-0.028226554,-0.03913297,-0.19227006,0.051552333,-0.13887255,-0.11973045,-0.044805735,0.040984366,-0.0110464245,0.036611717,0.13095853,0.1309873,-0.10602958,0.12026416,-0.23709804,0.16663419,0.067232735,-0.028583722,-0.098503016,-0.06745249,0.17279881,0.19422923,-0.095753536,0.0670922,-0.25379023,0.10239885,-0.05551485,0.08952658,-0.13141172,-0.06051892,0.13804188,-0.0051650805,-0.2159285,0.061249316,0.07631101,0.11606875,0.03069801,-0.13122575,0.06278296,0.18329823,0.09365456,-0.08294958,-0.28074652,-0.13436686,0.1109246,0.0119510675,0.07714792,-0.074996896,0.027179541,-0.16066281,-0.111325525,-0.05017648,0.09611811,0.21643855,-0.18523858,0.035562854,0.038052864,0.1315049,-0.025272783,-0.00013377715,0.09983692,0.05050263,-0.054040644,-0.028827246,0.14559218,-0.033458572,0.057723287,0.19732744,0.019340033,-0.046273023,0.025494086,0.18695328,-0.05619463,0.10213686,-0.029748682,-0.09988951,-0.30302343,-0.21105435,0.05463794,0.01020703,-0.10147713,-0.11452214,-0.1779252,-0.14792845,-0.2220122,0.118320554,0.01928211,0.006774227,-0.04577006,-0.019071156,0.052842837,0.0166307,0.21641164,0.19825557,-0.15335241,-0.026085796,-0.02743043,0.1148736,-0.08267918,0.18291925,0.042577017,0.01399463,0.11363119,-0.21501002,-0.14729369,0.23538074,0.017714348,-0.07714701,-0.21950014,0.21169981,0.22227693,0.12610084,0.112964645,-0.11314112,-0.1821559,-0.20366038,0.09423317,-0.015698623,-0.02853902,0.14156276,0.07069181,0.20914616,-0.05609873,0.1832728,-0.07088033,-0.07496165,0.17535807,0.12599115,-0.16055551,0.100495644,0.13369879,-0.052007504,-0.07907825,0.06099602,0.08178522,0.022445654,-0.060802925,0.06576064,-0.013426403,0.07278988,-0.13375293,-0.0510043,-0.055638332,0.21394011,0.17710729,0.11750752,-0.11540922,0.038427275,0.12290173,-0.07436664,-0.05250757,0.07420578,0.14533019,0.044594746,-0.10979186,-0.10780308,0.22629906,0.059527457,0.28457832,0.09627199,-0.08930718,0.17633311,-0.05140793,0.028333122,0.06633788,0.23533799,-0.26000193,0.009257072,-0.13241842,0.009784324,0.038901087,0.28537834,-0.009016919,-0.19790351,-0.0066681146,-0.07455244,0.0331091,-0.26487914,-0.17682795,-0.106022924,-0.056426313,-0.015951956,-0.028156556,-0.06633939,0.23058079,-0.047205076,0.0009384103,0.12822546,-0.07453312,0.13617167,0.27848,0.1486768,0.14816865,-0.15270305,-0.0071769934,0.013950126,-0.25019678,-0.14289327,-0.12500128,-0.10635228,-0.09434999,-0.13753405,0.06642379,0.15057619,0.06669514,0.11975308,0.1999427,0.078526236,0.04207581,-0.086243615,-0.16092607,-0.13369699,0.17086297,0.15112777,-0.008422543,-0.074740805,0.08864192,-0.1562906,0.12866649,-0.14956439,-0.025518704,-0.017922256,-0.0769558,-0.15640461,0.08384811,0.13404103,0.063492835,0.14750314,0.24844883,0.023474792,0.1599719,0.024964042,0.19835098,0.13117264,-0.0004593055,0.10926912,-0.0042451676,0.052147936,0.057499208,0.21555044,0.13574064,-0.023658643,0.008945337,0.13930252,-0.22479671,-0.02138685,-0.054165035,-0.13056117,-0.13706625,-0.07311807,-0.025127675,0.2132144,0.021042,-0.15057263,0.09830625,0.2476707,-0.12173846,-0.12479404,0.096257254,-0.009883739,0.13877396,0.09704563,-0.16328093,0.084120445,0.21952818,-0.014450391,-0.08570299,-0.117181845,-0.23716131,0.07474934,-0.20403495,-0.013244939,-0.13352321,-0.15052037,0.093762174,0.15522778,0.2430823,-0.036581833,-0.083857276,0.02462655,-0.10093485,-0.2375426,0.089433625,0.10769233,0.21705256,0.10493836,0.12382463,-0.07094949,-0.12351413,0.11216826,0.07611174,-0.022345308,0.050847728,0.08494307,0.12608111,0.06433828,0.12371615,-0.029809384,0.09052246,-0.05672011,-0.18841036,-0.123147815,0.14475892,0.09621076,0.17097338,0.1930598,0.021671798,0.14510694,0.121248275,0.15469207,-0.25947797,0.21416378,0.07385307,0.06823067,-0.22314665,-0.17064793,-0.054170687,0.05727063,0.0866768,0.14922743,-0.12865745,0.0072633685,-0.089451805,0.05496887,0.080579005,-0.033549044,-0.145559,0.038962647,-0.16255204,-0.07940635,0.02322494,-0.10653371,0.061169166,-0.10694771,0.00029220097,-0.11952209,-0.059139706,-0.2230607,0.03273316,0.09513949,0.009599722,0.23875926,0.07825262,-0.13108857,0.048873615,0.056683496,-0.10242171,0.26311713,0.043660466,0.03965304,0.14900282,-0.05771172,0.14686231,-0.19303343,0.12531792,-0.010406669,-0.13295774,-0.097084865,-0.03892681,-0.0746669,0.02162227,0.2698896,0.12760502,0.06750029,0.102705166,-0.21426584,-0.036980998,-0.04669593,0.18699788,-0.15675987,0.24494573,0.0094819665,-0.03678262,0.015668029,-0.012357354,0.14279006,0.11057873,0.012665525,0.12372623,-0.013878199,-0.014388005,0.032800913,-0.12979916,-0.06770809,-0.17456052,0.023365157,0.06646656,0.26609692,-0.07410458,-0.14079757,0.118459105,0.0025311497,-0.050099697,0.06830393,0.021264223,-0.121138416,0.13830772,0.22301318,-0.05196409,0.1399924,0.00014473175,-0.08812022,0.021589767,-0.04126691,-0.0010064,-0.03468219,0.088043116,0.07113963,-0.18362898,0.022971539,0.023991419,-0.07631178,-0.020797096,0.19895005,-0.24017593,-0.022787921,0.092650406,-0.035507433,-0.14002776,0.24396925,0.18745862,0.21141618,-0.044527218,0.15453444,-0.012460729,-0.042029656,0.1961653,0.1680486,-0.24448943,-0.15165885,-0.022955205,-0.1614459,0.12828982,0.11108469,0.29182056,0.042646013,0.10672995,0.19053935,-0.20690975,0.008673244,0.040383585,-0.039706018,0.13229111,-0.017479593,0.08376832,-0.12245576,0.0033071977,0.18095107,-0.05721573,-0.17470321,-0.15543559,-0.08359039,0.19885579,-0.14477631,0.14112933,0.1179027,-0.15106402,0.15046318,-0.13315336,0.20867842,-0.11401733,-0.13668258,0.054993834,0.11515154,0.041704368,0.10207664,0.09349054,-0.09827299,0.07598113,-0.17361926,-0.15639427,0.04378867,-0.1865527,0.104813874,0.22563861,0.1176288,-0.097949,0.15216912,-0.03561885,0.05233395,-0.127734,-0.18683913,-0.16324252,0.07164941,0.112683214,-0.014690494,-0.02987968,0.009712386,0.0037558528,0.15589347,-0.02568605,-0.022151595,0.24506702,0.06156355,-0.22603849,0.05923111,0.16820273,0.16601524,-0.0062538222,0.09515207,-0.19993421,-0.008024737,0.14546768,0.029016046,0.08857963,-0.12364479,0.15416723,-0.11284993,-0.14937606,0.1012194,0.035412017,0.23001596,-0.22655867,-0.102092594,0.3269688,-0.16115165,0.10828054,-0.20591195,-0.043524384,-0.03493228,-0.10574882,-0.24221984,0.06493765,-0.004641055,0.12371201,-0.13091822,0.039567538,-0.104654655,0.15345895,-0.037259668,-0.0572302,0.081609726,-0.1284008,0.13980758,-0.11748986,0.131327,-0.16230987,0.06771586,-0.11325903,0.04818867,-0.19293459,0.10729821,0.036944244,0.1611004,-0.17641781,-0.05119108,0.088552445,0.058954503,0.11901732,0.026123097,0.12926897,-0.043047093,-0.07593306,-0.10446157,-0.04989991,0.02200823,0.000030175928,0.032417383,0.22663738,-0.17516896,-0.07051284,0.17200403,-0.13222408,-0.06482235,0.17517918,-0.15585758,0.079976015,0.010201655,0.010889534,0.13868275,-0.16804935,-0.038127854,0.24542141,0.03231594,-0.14425234,-0.009538856,0.043606192,-0.058125213,0.09396537,0.07902239,0.15199046,-0.18198867,0.113917604,0.0035005906,-0.23585503,-0.17115623,0.119858734,-0.13028778,-0.20222308,-0.12648556,0.23292497,-0.076021224,0.09958053,0.250514,-0.07363857,-0.046108212,0.20149754,-0.15200262,0.06339706,0.17733693,-0.055874445,-0.104247205,0.037636325,-0.09963878,0.06160999,0.019616833,0.14547439,0.049782936,0.14567934,-0.021576608,0.054627404,-0.1992696,-0.0843588,-0.11354924,0.058399424,0.12410327,0.0129781775,-0.17918774,0.0813978,0.031224199,-0.095975034,0.044500753,0.1999722,-0.024415163,0.15005311,-0.15727015,0.107431605,0.21316984,-0.11755233,0.15020788,-0.022262247,-0.039983775,0.110198505,-0.074872844,0.22735958,-0.12625861,-0.08739109,-0.09082958,-0.058326032,-0.063156985,-0.11999321,0.14466952,-0.006157818,0.18616408,-0.10123265,0.05888775,0.15388669,-0.11265956,0.036170203,-0.052054066,-0.10394866,-0.065265626,-0.003025686,-0.059521887,0.12492653,-0.072269,-0.1895138,-0.13345349,-0.112103954,-0.019410383,0.022922484,-0.10121987,0.100290515,0.064859554,0.0016288122,-0.15342721,-0.08350808,0.12130926,-0.2310069,0.14118275,0.10171033,0.17478856,-0.13322452,0.18166234,-0.014460161,0.1886999,-0.22767566,-0.16046804,-0.04943157,0.03908093,0.27005145,-0.070034064,0.032707073,-0.16029032,-0.07766682,-0.14292789,-0.075273186,0.0011687872,0.119582236,-0.06763638,-0.18022667,0.06964252,-0.24001294,-0.25119406,-0.0045591383,-0.18734927,-0.10301106,0.1958164,0.02864061,-0.065387525,-0.12420142,-0.16545701,-0.0570432,-0.09521144,-0.14594603,0.03679771,0.09570146,-0.076339416,-0.07643421,-0.23139384,0.03226684,-0.024002904,0.045404065,0.13860925,0.13125852,0.14213206,-0.12823924,-0.07025264,0.05128242,-0.10161524,0.011993831,-0.01131672,0.22103782,-0.22669779,-0.051544633,0.13035281,-0.19735342,0.053966157,0.22713633,-0.058380973,-0.028815975,0.009050471,-0.032656714,-0.20093682,0.05886462,0.058712456,0.16490477,0.08719643,-0.08286684,-0.16537783,0.15806608,-0.00024390712,0.29295033,0.12895451,-0.104890026,0.032930285,0.020415103,-0.14921945,-0.14977163,-0.21914339,-0.17127118,-0.09284674,0.17696035,0.009568054,0.050629444,-0.11061079,0.045448445,-0.15186752,-0.12593408,0.010191871,0.20949407,0.04910722,0.063250646,-0.12066852,-0.032885633,0.15123394,-0.07976325,0.1300107,-0.21093081,0.09254792,-0.16430223,-0.09995467,-0.13065527,0.056047358,-0.20942833,-0.047984123,-0.1461794,0.21006425,-0.037901595,-0.0028507523,0.035944965,-0.02873478,0.14937629,0.048580762,-0.10666304,-0.079948306,0.10797983,-0.04184436,0.17669493,-0.09499378,0.023439145,0.0160472,0.040533543,-0.037008893,0.19687961,-0.0817699,0.04876082,0.14786884,0.15549573,0.15036611,0.118283406,0.1782134,0.07110295,-0.0037706972,-0.19953415,0.2561057,0.17989607,0.015752753,-0.1821248,-0.105798796,-0.13929853,-0.16388656,0.0037335888,0.19339778,0.035934437,-0.017466838,-0.2445219,-0.017084409,0.12121085,0.12880771,0.18270004,-0.023320662,-0.11248257,-0.19362855,-0.09820584,-0.06043017,0.1645683,-0.07878386,0.0973798,-0.15629421,0.26798084,-0.08056117,-0.12930939,-0.14560999,0.13273044,-0.008965975,0.11968402,0.12048992,-0.036695696,0.06994257,-0.18988617,0.16183037,0.1908776,0.17560382,-0.064415686,0.19326307,0.1902951,0.01718891,-0.14219786,-0.077621885,0.013688547,-0.13729808,0.07130552,-0.05300127,0.13108793,-0.08656962,0.123143636,0.03227012,0.18740779,-0.009242427,-0.042834044,0.15462983,-0.08830135,0.042442642,0.10019098,-0.12655716,0.2740897,0.07174131,0.07503528,-0.16527791,-0.175065,0.0066159666,0.06436465,-0.10929893,0.14477219,-0.07406535,0.030856583,-0.028689504,0.12255647,-0.10202227,-0.06267841,-0.18944632,-0.08418779,-0.24150132,0.055765912,0.25500652,-0.0012845015,0.007556776,0.11558514,-0.01850246,-0.018930105,0.14300033,-0.022224505,-0.02563176,0.24913873,-0.033658773,-0.035427906,-0.12936059,-0.07266727,0.11902864,-0.05327072,0.07008097,-0.1809191,-0.018079337,0.031146277,-0.15995787,0.0032455733,0.13174215,-0.23751117,0.15224274,0.23109911,0.0011045462,0.10321821,-0.050395247,0.059516765,0.019230478,-0.13487794,0.07925205,-0.14359659,-0.019839874,-0.116570555,-0.05603781,-0.26041245,0.04920763,-0.055126797,0.1841405,-0.031396553,0.069635905,0.11114027,-0.026347047,-0.21934225,-0.22874825,-0.11863684,-0.056194413,-0.3134508,0.18774854,-0.10824467,0.016680794,-0.022970552,-0.18419223,-0.16115294,0.21890354,-0.09158089,-0.08213946,-0.041400004,0.05537794,0.06600007,0.041041244,0.00789528,-0.018348653,-0.013227236,0.19323397,-0.13221677,-0.054713614,-0.079400465,-0.15323797,-0.0048602484,0.0212215,0.060212225,-0.06079613,-0.09721947,-0.064798206,-0.15278651,0.06274083,0.033264086,-0.07209285,-0.23201421,0.058598183,-0.013276851,0.01915589,-0.1585054,0.12655865,-0.23350161,0.14709313,-0.010153708,-0.13278458,0.11417388,0.20799604,-0.16119578,0.15421952,-0.1803599,-0.15246937,-0.0064876345,0.07321058,0.32406643,-0.11326269,0.1980905,-0.18293859,-0.22417462,-0.051359996,0.07326567,-0.12600777,-0.036865722,0.008685946,0.013068851,0.21083497,-0.18358923,-0.0046412935,0.06444306,0.11425539,0.015934773,0.14677152,0.10932159,0.12291245,-0.09128187,0.064406656,0.105615005,-0.15816711,0.03883144,0.14692023,-0.035168085,-0.02556794,0.0076129604,0.015314648,-0.16743189,-0.10900132,0.10204348,-0.07462525,0.091063455,0.124731235,-0.1707665,0.061768085,0.0881142,-0.123024605,-0.114317365,-0.1284379,0.14387569,-0.028047614,0.16320658,-0.030662362,-0.1729208,0.17624417,0.20037211,-0.13770448,0.2035453,-0.16986665,0.16933599,-0.1765654,0.00060593314,0.084014,-0.065939516,0.16716324,0.08814951,0.037467375,-0.14197592,0.025746742,0.16203173,0.01158969,0.029570935,-0.027274907,0.20263043,-0.11567265,0.011211129,-0.102196716,-0.07933719,0.015619482,-0.23859395,0.11254603,-0.27424988,0.011052165,-0.18955204,-0.12105087,0.07260061,0.14060746,-0.13318151,-0.03676207,-0.1182885,0.066991076,0.068344675,-0.11135673,-0.06207817,0.030709669,0.06752631,-0.23725504,0.11332441,0.056265905,0.010407866,0.057443123,0.09387476,-0.20337766,-0.022498565,-0.14746793,-0.05258849,0.18164249,-0.12201797,-0.027373765,0.09700819,-0.077084586,-0.09965958,-0.03928797,0.080076076,0.058326036,-0.12751888,-0.091955714,0.058605265,0.17094716,-0.13405973,0.17063895,-0.32427683,0.03313294,0.14920217,-0.13723177,0.0017485277,-0.06500212,0.15237883,0.089469835,-0.20010182,-0.11438251,-0.07136114,-0.11874593,0.12802915,-0.12891424,0.015653202,0.053777725,-0.120917894,0.086897604,-0.12978354,0.034807973,0.24422137,0.014114788,0.109877765,-0.091461465,-0.06932896,0.034633536,-0.013146591,-0.13436988,0.06350916,-0.15315524,-0.019855544,0.033964954,-0.23277792,-0.035849888,-0.1920267,-0.18432699,0.016321914,0.20062591,-0.072523266,0.08910328,0.15113926,0.08868028,0.1565078,0.19783951,0.055724192,-0.056443233,-0.04638112,0.027483242,-0.15916756,0.18688232,0.019547988,-0.096526146,0.06342775,-0.10107894,-0.024108814,0.021303535,-0.19508134,-0.15416603,-0.16966464,-0.17014305,0.03745631,-0.08410914,0.22728088,0.03532584,0.29975832,0.07937047,0.107568525,-0.10020775,0.002493548,-0.06431394,-0.10430592,-0.2380608,-0.24674325,0.13447389,-0.08743009,-0.1427821,0.08157363,-0.0692633,-0.10449926,0.15428284,0.14415544,-0.051332906,-0.113416575,0.13749038,0.1384412,0.10483675,0.0862053,0.013934608,-0.056008182,-0.078767076,-0.06520177,-0.00686837,0.024220536,-0.15017764,-0.20493977,-0.08819074,0.28156957,0.04206766,0.09326318,0.09414064,0.060484555,-0.014990571,0.21502084,0.11068492,-0.05184565,0.03229466,-0.057863414,0.06486336,0.13176244,0.19677025,-0.15288675,0.0519564,-0.10400768,-0.11360212,-0.0065060034,0.121032156,0.017984996,0.017655227,-0.18601108,-0.0702103,0.07141247,-0.22847493,0.07817517,0.060851738,-0.16208065,0.03712061,-0.12432512,-0.05121265,-0.026132984,0.16857582,0.12487424,0.15974718,-0.06639193,0.12811805,-0.09467251,-0.018763643,-0.010503385,-0.2653152,-0.26384303,-0.09793639,0.03252377,0.16823423,-0.089499556,-0.11247781,-0.30787244,-0.085349545,0.08844378,0.09950499,-0.094140515,-0.078041725,-0.061782528,0.09201898,-0.12171965,-0.080143735,-0.12388401,0.026957424,0.2120091,-0.22638094,0.12278565,-0.16256452,0.10042238,-0.08494672,0.079343915,-0.09666773,-0.13834001,0.17972879,0.06242337,-0.027169297,-0.09603145,0.085820794,-0.084149174,0.15301606,-0.08759647,-0.04819702,0.1899975,-0.1663378,0.06397523,-0.09643134,0.10657082,0.0059661213,-0.055477135,-0.029351702,0.117169544,0.0007982547,0.17607588,0.10409226,-0.0054842983,-0.13659689,-0.10370089,0.027321815,0.09653226,-0.16543241,-0.1444797,0.23739557,0.043012142,0.15002918,0.12388286,0.10446758,-0.14692457,0.112867594,-0.017775875,0.070292726,-0.00066553924,0.093382426,0.074599296,0.20855047,0.11612352,0.27610245,0.05128129,0.1874351,0.28570518,-0.11882144,0.22458553,0.106697515,0.03477655,0.18485963,-0.09859776,0.04291382,-0.044639874,-0.027016085,0.013681819,-0.18588603,0.016293036,-0.03984742,0.14214304,-0.0068192543,0.037215427,0.0024297864,-0.18923527,-0.1398852,0.024832861,0.18638201,-0.0046477444,-0.0036322174,0.10958591,0.13173816,-0.039236628,-0.15339062,0.21491452,-0.18314575,0.024424488,0.10085246,-0.068931535,-0.20403256,-0.07271247,-0.19689456,-0.085904226,0.13954999,-0.14766404,0.12476477,-0.0070214784,-0.019336611,-0.1469986,0.2024822,-0.21128617,0.081321195,-0.004114054,0.050838225,0.05742635,-0.25314447,-0.07716615,-0.0012350678,0.015210459,0.044218823,0.018181885,0.1627737,-0.13257323,0.09621872,-0.16964294,0.13240322,0.10670174,-0.13068125,-0.08159229,0.044174574,0.049927775,-0.115945786,-0.14419657,-0.07957868,-0.025645541,-0.04978337,0.19305746,-0.13771401,